{"learner":{"attributes":{"scikit_learn":"{\"_estimator_type\": \"regressor\"}"},"feature_names":[],"feature_types":[],"gradient_booster":{"model":{"gbtree_model_param":{"num_parallel_tree":"1","num_trees":"600"},"iteration_indptr":[0,6,12,18,24,30,36,42,48,54,60,66,72,78,84,90,96,102,108,114,120,126,132,138,144,150,156,162,168,174,180,186,192,198,204,210,216,222,228,234,240,246,252,258,264,270,276,282,288,294,300,306,312,318,324,330,336,342,348,354,360,366,372,378,384,390,396,402,408,414,420,426,432,438,444,450,456,462,468,474,480,486,492,498,504,510,516,522,528,534,540,546,552,558,564,570,576,582,588,594,600],"tree_info":[0,1,2,3,4,5,0,1,2,3,4,5,0,1,2,3,4,5,0,1,2,3,4,5,0,1,2,3,4,5,0,1,2,3,4,5,0,1,2,3,4,5,0,1,2,3,4,5,0,1,2,3,4,5,0,1,2,3,4,5,0,1,2,3,4,5,0,1,2,3,4,5,0,1,2,3,4,5,0,1,2,3,4,5,0,1,2,3,4,5,0,1,2,3,4,5,0,1,2,3,4,5,0,1,2,3,4,5,0,1,2,3,4,5,0,1,2,3,4,5,0,1,2,3,4,5,0,1,2,3,4,5,0,1,2,3,4,5,0,1,2,3,4,5,0,1,2,3,4,5,0,1,2,3,4,5,0,1,2,3,4,5,0,1,2,3,4,5,0,1,2,3,4,5,0,1,2,3,4,5,0,1,2,3,4,5,0,1,2,3,4,5,0,1,2,3,4,5,0,1,2,3,4,5,0,1,2,3,4,5,0,1,2,3,4,5,0,1,2,3,4,5,0,1,2,3,4,5,0,1,2,3,4,5,0,1,2,3,4,5,0,1,2,3,4,5,0,1,2,3,4,5,0,1,2,3,4,5,0,1,2,3,4,5,0,1,2,3,4,5,0,1,2,3,4,5,0,1,2,3,4,5,0,1,2,3,4,5,0,1,2,3,4,5,0,1,2,3,4,5,0,1,2,3,4,5,0,1,2,3,4,5,0,1,2,3,4,5,0,1,2,3,4,5,0,1,2,3,4,5,0,1,2,3,4,5,0,1,2,3,4,5,0,1,2,3,4,5,0,1,2,3,4,5,0,1,2,3,4,5,0,1,2,3,4,5,0,1,2,3,4,5,0,1,2,3,4,5,0,1,2,3,4,5,0,1,2,3,4,5,0,1,2,3,4,5,0,1,2,3,4,5,0,1,2,3,4,5,0,1,2,3,4,5,0,1,2,3,4,5,0,1,2,3,4,5,0,1,2,3,4,5,0,1,2,3,4,5,0,1,2,3,4,5,0,1,2,3,4,5,0,1,2,3,4,5,0,1,2,3,4,5,0,1,2,3,4,5,0,1,2,3,4,5,0,1,2,3,4,5,0,1,2,3,4,5,0,1,2,3,4,5,0,1,2,3,4,5,0,1,2,3,4,5,0,1,2,3,4,5,0,1,2,3,4,5,0,1,2,3,4,5,0,1,2,3,4,5,0,1,2,3,4,5,0,1,2,3,4,5,0,1,2,3,4,5,0,1,2,3,4,5,0,1,2,3,4,5,0,1,2,3,4,5,0,1,2,3,4,5,0,1,2,3,4,5,0,1,2,3,4,5,0,1,2,3,4,5,0,1,2,3,4,5,0,1,2,3,4,5],"trees":[{"base_weights":[2.454907E0,2.3616679E-1,4.811698E0,-8.5768414E-1,1.4036715E0,3.6711826E0,6.075489E0,-1.4165688E0,-2.7141467E-1,8.290576E-1,1.9380046E0,3.1059341E0,4.2836976E0,5.476255E0,6.7368903E0,-1.681367E0,-1.1051639E0,-5.808649E-1,-1.2116442E-2,5.8638334E-1,1.1166474E0,1.6188898E0,2.1960323E0,2.807685E0,3.4080796E0,3.9808807E0,4.560298E0,5.1741524E0,5.7836337E0,6.4256244E0,7.0939007E0,-5.3532195E-1,-4.6131054E-1,-3.7103897E-1,-2.8694773E-1,-2.1370149E-1,-1.4078377E-1,-4.2651985E-2,4.275997E-2,1.4244576E-1,2.2437656E-1,3.0406827E-1,3.7641644E-1,4.5122573E-1,5.237671E-1,6.116456E-1,7.0347977E-1,7.9449564E-1,8.841554E-1,9.7862107E-1,1.0626495E0,1.1566393E0,1.2379794E0,1.3240592E0,1.410951E0,1.5043739E0,1.5999959E0,1.6820953E0,1.7819101E0,1.8742242E0,1.9713484E0,2.065963E0,2.178927E0],"categories":[],"categories_nodes":[],"categories_segments":[],"categories_sizes":[],"default_left":[0,0,0,0,0,0,0,0,0,0,0,0,0,0,0,0,0,0,0,0,0,0,0,0,0,0,0,0,0,0,0,0,0,0,0,0,0,0,0,0,0,0,0,0,0,0,0,0,0,0,0,0,0,0,0,0,0,0,0,0,0,0,0],"id":0,"left_children":[1,3,5,7,9,11,13,15,17,19,21,23,25,27,29,31,33,35,37,39,41,43,45,47,49,51,53,55,57,59,61,-1,-1,-1,-1,-1,-1,-1,-1,-1,-1,-1,-1,-1,-1,-1,-1,-1,-1,-1,-1,-1,-1,-1,-1,-1,-1,-1,-1,-1,-1,-1,-1],"loss_changes":[4.3534294E5,5.476734E4,5.8167375E4,7.2542666E3,6.3675312E3,7.3345625E3,7.5525E3,9.3282227E2,8.671457E2,6.970425E2,8.814375E2,9.853906E2,8.347656E2,9.035E2,9.6540625E2,8.791016E1,1.0081592E2,7.194739E1,1.1830627E2,9.739575E1,6.383203E1,6.7490234E1,1.3426758E2,1.1584766E2,9.572656E1,7.307031E1,9.06875E1,1.0225E2,1.03796875E2,8.528125E1,9.8296875E1,0E0,0E0,0E0,0E0,0E0,0E0,0E0,0E0,0E0,0E0,0E0,0E0,0E0,0E0,0E0,0E0,0E0,0E0,0E0,0E0,0E0,0E0,0E0,0E0,0E0,0E0,0E0,0E0,0E0,0E0,0E0,0E0],"parents":[2147483647,0,0,1,1,2,2,3,3,4,4,5,5,6,6,7,7,8,8,9,9,10,10,11,11,12,12,13,13,14,14,15,15,16,16,17,17,18,18,19,19,20,20,21,21,22,22,23,23,24,24,25,25,26,26,27,27,28,28,29,29,30,30],"right_children":[2,4,6,8,10,12,14,16,18,20,22,24,26,28,30,32,34,36,38,40,42,44,46,48,50,52,54,56,58,60,62,-1,-1,-1,-1,-1,-1,-1,-1,-1,-1,-1,-1,-1,-1,-1,-1,-1,-1,-1,-1,-1,-1,-1,-1,-1,-1,-1,-1,-1,-1,-1,-1],"split_conditions":[4.82E0,2.57E0,7.18E0,1.5E0,3.63E0,6E0,8.5E0,9.6E-1,2E0,3.18E0,4.19E0,5.42E0,6.6E0,7.85E0,9.15E0,7.1E-1,1.2E0,1.73E0,2.33E0,2.95E0,3.46E0,3.9E0,4.49E0,5.1E0,5.72E0,6.34E0,6.9E0,7.5E0,8.15E0,8.8E0,9.52E0,-5.3532195E-1,-4.6131054E-1,-3.7103897E-1,-2.8694773E-1,-2.1370149E-1,-1.4078377E-1,-4.2651985E-2,4.275997E-2,1.4244576E-1,2.2437656E-1,3.0406827E-1,3.7641644E-1,4.5122573E-1,5.237671E-1,6.116456E-1,7.0347977E-1,7.9449564E-1,8.841554E-1,9.7862107E-1,1.0626495E0,1.1566393E0,1.2379794E0,1.3240592E0,1.410951E0,1.5043739E0,1.5999959E0,1.6820953E0,1.7819101E0,1.8742242E0,1.9713484E0,2.065963E0,2.178927E0],"split_indices":[4,2,2,4,2,2,4,4,4,4,4,4,4,4,2,4,2,4,4,4,4,2,4,4,4,4,4,2,4,4,4,0,0,0,0,0,0,0,0,0,0,0,0,0,0,0,0,0,0,0,0,0,0,0,0,0,0,0,0,0,0,0,0],"split_type":[0,0,0,0,0,0,0,0,0,0,0,0,0,0,0,0,0,0,0,0,0,0,0,0,0,0,0,0,0,0,0,0,0,0,0,0,0,0,0,0,0,0,0,0,0,0,0,0,0,0,0,0,0,0,0,0,0,0,0,0,0,0,0],"sum_hessian":[8.3253E4,4.2883E4,4.037E4,2.214E4,2.0743E4,2.1222E4,1.9148E4,1.1334E4,1.0806E4,9.996E3,1.0747E4,1.104E4,1.0182E4,1.0051E4,9.097E3,6.123E3,5.211E3,4.926E3,5.88E3,5.423E3,4.573E3,4.808E3,5.939E3,5.561E3,5.479E3,4.868E3,5.314E3,5.078E3,4.973E3,4.87E3,4.227E3,3.559E3,2.564E3,2.76E3,2.451E3,2.259E3,2.667E3,3.194E3,2.686E3,3.21E3,2.213E3,2.623E3,1.95E3,2.532E3,2.276E3,2.896E3,3.043E3,2.605E3,2.956E3,2.635E3,2.844E3,2.631E3,2.237E3,2.637E3,2.677E3,2.552E3,2.526E3,2.35E3,2.623E3,2.209E3,2.661E3,1.918E3,2.309E3],"tree_param":{"num_deleted":"0","num_feature":"6","num_nodes":"63","size_leaf_vector":"1"}},{"base_weights":[-2.353676E0,-2.4259698E0,-2.3415465E0,-7.35456E-1,-7.2042584E-1,-7.101391E-1,-7.013205E-1],"categories":[],"categories_nodes":[],"categories_segments":[],"categories_sizes":[],"default_left":[0,0,0,0,0,0,0],"id":1,"left_children":[1,3,5,-1,-1,-1,-1],"loss_changes":[6.765625E1,1.6328125E0,1.46875E0,0E0,0E0,0E0,0E0],"parents":[2147483647,0,0,1,1,2,2],"right_children":[2,4,6,-1,-1,-1,-1],"split_conditions":[-2.2812277E-1,-3.0743527E-1,-1.6376351E-1,-7.35456E-1,-7.2042584E-1,-7.101391E-1,-7.013205E-1],"split_indices":[5,5,5,0,0,0,0],"split_type":[0,0,0,0,0,0,0],"sum_hessian":[8.3609E4,1.1984E4,7.1625E4,5.824E3,6.16E3,9.207E3,6.2418E4],"tree_param":{"num_deleted":"0","num_feature":"6","num_nodes":"7","size_leaf_vector":"1"}},{"base_weights":[2.5059638E0,3.1983116E-1,4.8995E0,-8.008178E-1,1.4859011E0,3.774164E0,6.14193E0,-1.3431033E0,-1.9750446E-1,8.836786E-1,2.020022E0,3.1972265E0,4.354115E0,5.5431366E0,6.786282E0,-1.6156741E0,-1.0104467E0,-4.8145702E-1,8.10924E-2,6.399075E-1,1.1695209E0,1.7301319E0,2.3314695E0,2.8976839E0,3.46629E0,4.0338545E0,4.6324406E0,5.24378E0,5.8349257E0,6.4724813E0,7.1481647E0,-5.2037853E-1,-4.4001558E-1,-3.4610412E-1,-2.639536E-1,-1.7434795E-1,-9.496828E-2,-1.46561945E-2,6.1122723E-2,1.5758683E-1,2.4065429E-1,3.205697E-1,3.9188868E-1,4.646968E-1,5.623946E-1,6.583613E-1,7.45651E-1,8.2108563E-1,9.0116006E-1,9.9312204E-1,1.0809764E0,1.1737787E0,1.2534682E0,1.349136E0,1.4464749E0,1.524726E0,1.6148655E0,1.6966293E0,1.7978334E0,1.8888822E0,1.9860884E0,2.0831087E0,2.1943996E0],"categories":[],"categories_nodes":[],"categories_segments":[],"categories_sizes":[],"default_left":[0,0,0,0,0,0,0,0,0,0,0,0,0,0,0,0,0,0,0,0,0,0,0,0,0,0,0,0,0,0,0,0,0,0,0,0,0,0,0,0,0,0,0,0,0,0,0,0,0,0,0,0,0,0,0,0,0,0,0,0,0,0,0],"id":2,"left_children":[1,3,5,7,9,11,13,15,17,19,21,23,25,27,29,31,33,35,37,39,41,43,45,47,49,51,53,55,57,59,61,-1,-1,-1,-1,-1,-1,-1,-1,-1,-1,-1,-1,-1,-1,-1,-1,-1,-1,-1,-1,-1,-1,-1,-1,-1,-1,-1,-1,-1,-1,-1,-1],"loss_changes":[4.36841E5,5.702014E4,5.5696E4,7.279551E3,6.876582E3,6.9837812E3,7.26975E3,1.0608672E3,8.3336584E2,6.997451E2,1.01908594E3,8.3525E2,9.107344E2,8.2734375E2,9.8915625E2,1.1151758E2,9.775488E1,8.558667E1,8.476784E1,1.0053638E2,6.248047E1,1.508418E2,1.09708984E2,7.658594E1,1.05921875E2,6.8671875E1,1.2092969E2,8.1671875E1,1.0678125E2,8.578125E1,9.30625E1,0E0,0E0,0E0,0E0,0E0,0E0,0E0,0E0,0E0,0E0,0E0,0E0,0E0,0E0,0E0,0E0,0E0,0E0,0E0,0E0,0E0,0E0,0E0,0E0,0E0,0E0,0E0,0E0,0E0,0E0,0E0,0E0],"parents":[2147483647,0,0,1,1,2,2,3,3,4,4,5,5,6,6,7,7,8,8,9,9,10,10,11,11,12,12,13,13,14,14,15,15,16,16,17,17,18,18,19,19,20,20,21,21,22,22,23,23,24,24,25,25,26,26,27,27,28,28,29,29,30,30],"right_children":[2,4,6,8,10,12,14,16,18,20,22,24,26,28,30,32,34,36,38,40,42,44,46,48,50,52,54,56,58,60,62,-1,-1,-1,-1,-1,-1,-1,-1,-1,-1,-1,-1,-1,-1,-1,-1,-1,-1,-1,-1,-1,-1,-1,-1,-1,-1,-1,-1,-1,-1,-1,-1],"split_conditions":[4.89E0,2.57E0,7.26E0,1.53E0,3.63E0,6E0,8.5E0,9.9E-1,2.06E0,3.18E0,4.25E0,5.38E0,6.6E0,7.85E0,9.19E0,7.1E-1,1.2E0,1.86E0,2.33E0,2.95E0,3.46E0,3.9E0,4.6E0,5.1E0,5.72E0,6.34E0,6.98E0,7.54E0,8.15E0,8.76E0,9.52E0,-5.2037853E-1,-4.4001558E-1,-3.4610412E-1,-2.639536E-1,-1.7434795E-1,-9.496828E-2,-1.46561945E-2,6.1122723E-2,1.5758683E-1,2.4065429E-1,3.205697E-1,3.9188868E-1,4.646968E-1,5.623946E-1,6.583613E-1,7.45651E-1,8.2108563E-1,9.0116006E-1,9.9312204E-1,1.0809764E0,1.1737787E0,1.2534682E0,1.349136E0,1.4464749E0,1.524726E0,1.6148655E0,1.6966293E0,1.7978334E0,1.8888822E0,1.9860884E0,2.0831087E0,2.1943996E0],"split_indices":[4,2,4,4,2,2,4,4,4,4,2,2,4,4,4,4,2,4,4,4,4,2,4,4,4,4,4,4,4,2,4,0,0,0,0,0,0,0,0,0,0,0,0,0,0,0,0,0,0,0,0,0,0,0,0,0,0,0,0,0,0,0,0],"split_type":[0,0,0,0,0,0,0,0,0,0,0,0,0,0,0,0,0,0,0,0,0,0,0,0,0,0,0,0,0,0,0,0,0,0,0,0,0,0,0,0,0,0,0,0,0,0,0,0,0,0,0,0,0,0,0,0,0,0,0,0,0,0,0],"sum_hessian":[8.3484E4,4.3633E4,3.9851E4,2.225E4,2.1383E4,2.0913E4,1.8938E4,1.1717E4,1.0533E4,1.0052E4,1.1331E4,1.0487E4,1.0426E4,9.821E3,9.117E3,6.438E3,5.279E3,5.216E3,5.317E3,5.427E3,4.625E3,5.872E3,5.459E3,4.968E3,5.519E3,4.855E3,5.571E3,4.857E3,4.964E3,4.893E3,4.224E3,3.574E3,2.864E3,2.514E3,2.765E3,3.249E3,1.967E3,2.582E3,2.735E3,3.183E3,2.244E3,2.666E3,1.959E3,2.611E3,3.261E3,2.898E3,2.561E3,1.987E3,2.981E3,2.593E3,2.926E3,2.654E3,2.201E3,3.262E3,2.309E3,2.266E3,2.591E3,2.34E3,2.624E3,2.252E3,2.641E3,1.915E3,2.309E3],"tree_param":{"num_deleted":"0","num_feature":"6","num_nodes":"63","size_leaf_vector":"1"}},{"base_weights":[-2.1533298E0],"categories":[],"categories_nodes":[],"categories_segments":[],"categories_sizes":[],"default_left":[0],"id":3,"left_children":[-1],"loss_changes":[0E0],"parents":[2147483647],"right_children":[-1],"split_conditions":[-6.4599895E-1],"split_indices":[0],"split_type":[0],"sum_hessian":[8.3411E4],"tree_param":{"num_deleted":"0","num_feature":"6","num_nodes":"1","size_leaf_vector":"1"}},{"base_weights":[2.545942E0,3.1555626E-1,4.9003434E0,-7.679422E-1,1.4761187E0,3.7749352E0,6.179679E0,-1.3064349E0,-1.644939E-1,9.121603E-1,2.0170743E0,3.1957726E0,4.3889747E0,5.5973144E0,6.843551E0,-1.577646E0,-9.7268546E-1,-4.525339E-1,9.4489925E-2,6.7305374E-1,1.1999699E0,1.7014976E0,2.278162E0,2.895048E0,3.4950087E0,4.0741134E0,4.672034E0,5.28307E0,5.8936667E0,6.547005E0,7.2046804E0,-5.097774E-1,-4.27601E-1,-3.3605272E-1,-2.5259915E-1,-1.625408E-1,-8.4690884E-2,-9.724209E-3,6.982518E-2,1.6947694E-1,2.505424E-1,3.294236E-1,4.0123537E-1,4.808736E-1,5.5605155E-1,6.3545704E-1,7.241417E-1,8.228373E-1,9.086364E-1,1.0053027E0,1.0953779E0,1.182454E0,1.2676649E0,1.3627759E0,1.4558985E0,1.5358238E0,1.6263846E0,1.7090696E0,1.81298E0,1.9183905E0,2.0153074E0,2.1101432E0,2.2126093E0],"categories":[],"categories_nodes":[],"categories_segments":[],"categories_sizes":[],"default_left":[0,0,0,0,0,0,0,0,0,0,0,0,0,0,0,0,0,0,0,0,0,0,0,0,0,0,0,0,0,0,0,0,0,0,0,0,0,0,0,0,0,0,0,0,0,0,0,0,0,0,0,0,0,0,0,0,0,0,0,0,0,0,0],"id":4,"left_children":[1,3,5,7,9,11,13,15,17,19,21,23,25,27,29,31,33,35,37,39,41,43,45,47,49,51,53,55,57,59,61,-1,-1,-1,-1,-1,-1,-1,-1,-1,-1,-1,-1,-1,-1,-1,-1,-1,-1,-1,-1,-1,-1,-1,-1,-1,-1,-1,-1,-1,-1,-1,-1],"loss_changes":[4.3910575E5,5.399931E4,5.8545188E4,7.2166553E3,6.323617E3,7.6831875E3,7.3213125E3,1.0607676E3,7.81379E2,6.9789355E2,8.680078E2,9.9252344E2,9.1703125E2,9.1371875E2,9.0496875E2,1.1747461E2,1.00521484E2,7.5205505E1,9.679033E1,9.676587E1,6.3052734E1,6.888574E1,1.2048047E2,1.0497266E2,1.133125E2,8.334375E1,1.07359375E2,8.384375E1,1.19015625E2,8.43125E1,6.475E1,0E0,0E0,0E0,0E0,0E0,0E0,0E0,0E0,0E0,0E0,0E0,0E0,0E0,0E0,0E0,0E0,0E0,0E0,0E0,0E0,0E0,0E0,0E0,0E0,0E0,0E0,0E0,0E0,0E0,0E0,0E0,0E0],"parents":[2147483647,0,0,1,1,2,2,3,3,4,4,5,5,6,6,7,7,8,8,9,9,10,10,11,11,12,12,13,13,14,14,15,15,16,16,17,17,18,18,19,19,20,20,21,21,22,22,23,23,24,24,25,25,26,26,27,27,28,28,29,29,30,30],"right_children":[2,4,6,8,10,12,14,16,18,20,22,24,26,28,30,32,34,36,38,40,42,44,46,48,50,52,54,56,58,60,62,-1,-1,-1,-1,-1,-1,-1,-1,-1,-1,-1,-1,-1,-1,-1,-1,-1,-1,-1,-1,-1,-1,-1,-1,-1,-1,-1,-1,-1,-1,-1,-1],"split_conditions":[4.82E0,2.6E0,7.22E0,1.53E0,3.67E0,6E0,8.5E0,9.9E-1,2.03E0,3.18E0,4.19E0,5.38E0,6.57E0,7.82E0,9.16E0,7.1E-1,1.2E0,1.86E0,2.33E0,2.95E0,3.46E0,3.94E0,4.43E0,5.1E0,5.75E0,6.34E0,6.98E0,7.5E0,8.15E0,8.85E0,9.5E0,-5.097774E-1,-4.27601E-1,-3.3605272E-1,-2.5259915E-1,-1.625408E-1,-8.4690884E-2,-9.724209E-3,6.982518E-2,1.6947694E-1,2.505424E-1,3.294236E-1,4.0123537E-1,4.808736E-1,5.5605155E-1,6.3545704E-1,7.241417E-1,8.228373E-1,9.086364E-1,1.0053027E0,1.0953779E0,1.182454E0,1.2676649E0,1.3627759E0,1.4558985E0,1.5358238E0,1.6263846E0,1.7090696E0,1.81298E0,1.9183905E0,2.0153074E0,2.1101432E0,2.2126093E0],"split_indices":[4,4,2,4,4,2,2,4,4,4,4,2,2,2,0,4,2,4,4,4,4,2,2,4,4,4,4,2,4,2,0,0,0,0,0,0,0,0,0,0,0,0,0,0,0,0,0,0,0,0,0,0,0,0,0,0,0,0,0,0,0,0,0],"split_type":[0,0,0,0,0,0,0,0,0,0,0,0,0,0,0,0,0,0,0,0,0,0,0,0,0,0,0,0,0,0,0,0,0,0,0,0,0,0,0,0,0,0,0,0,0,0,0,0,0,0,0,0,0,0,0,0,0,0,0,0,0,0,0],"sum_hessian":[8.3619E4,4.2941E4,4.0678E4,2.2208E4,2.0733E4,2.1643E4,1.9035E4,1.1735E4,1.0473E4,1.0152E4,1.0581E4,1.1141E4,1.0502E4,1.0145E4,8.89E3,6.472E3,5.263E3,4.958E3,5.515E3,5.547E3,4.605E3,4.794E3,5.787E3,5.562E3,5.579E3,4.979E3,5.523E3,4.933E3,5.212E3,4.892E3,3.998E3,3.593E3,2.879E3,2.469E3,2.794E3,3.251E3,1.707E3,2.876E3,2.639E3,3.33E3,2.217E3,2.65E3,1.955E3,2.915E3,1.879E3,2.663E3,3.124E3,2.611E3,2.951E3,2.915E3,2.664E3,2.669E3,2.31E3,3.235E3,2.288E3,2.276E3,2.657E3,2.268E3,2.944E3,2.605E3,2.287E3,2.019E3,1.979E3],"tree_param":{"num_deleted":"0","num_feature":"6","num_nodes":"63","size_leaf_vector":"1"}},{"base_weights":[-3.0000193E0,-3.0274098E0,-2.953315E0,-9.1285354E-1,-9.0277106E-1,-8.9042133E-1,-8.754016E-1],"categories":[],"categories_nodes":[],"categories_segments":[],"categories_sizes":[],"default_left":[0,0,0,0,0,0,0],"id":5,"left_children":[1,3,5,-1,-1,-1,-1],"loss_changes":[9.775E1,5.59375E0,7.4375E0,0E0,0E0,0E0,0E0],"parents":[2147483647,0,0,1,1,2,2],"right_children":[2,4,6,-1,-1,-1,-1],"split_conditions":[-5.9220277E-2,-8.7272674E-2,-3.035228E-2,-9.1285354E-1,-9.0277106E-1,-8.9042133E-1,-8.754016E-1],"split_indices":[1,1,1,0,0,0,0],"split_type":[0,0,0,0,0,0,0],"sum_hessian":[8.3399E4,5.2529E4,3.087E4,2.8314E4,2.4215E4,2.1713E4,9.157E3],"tree_param":{"num_deleted":"0","num_feature":"6","num_nodes":"7","size_leaf_vector":"1"}},{"base_weights":[1.726306E0,2.0321187E-1,3.4133837E0,-5.807608E-1,1.037387E0,2.6466427E0,4.298474E0,-1.0271865E0,-2.0236479E-1,6.481046E-1,1.4436171E0,2.2613056E0,3.0946941E0,3.9003122E0,4.747413E0,-1.2029195E0,-8.2949704E-1,-4.0595162E-1,5.3000264E-2,4.4624516E-1,8.4096456E-1,1.245565E0,1.6405929E0,2.0473669E0,2.4887028E0,2.8864422E0,3.2748911E0,3.7158244E0,4.137765E0,4.5537934E0,5.013579E0,-2.849682E-1,-3.6706537E-1,-2.8246143E-1,-2.1780993E-1,-1.4745322E-1,-7.210135E-2,-7.7595976E-3,5.1650476E-2,1.13222405E-1,1.5991691E-1,2.251978E-1,2.905847E-1,3.428772E-1,4.0259066E-1,4.6544662E-1,5.245927E-1,5.8559287E-1,6.5049696E-1,7.1717393E-1,7.794289E-1,8.384715E-1,8.923049E-1,9.571768E-1,1.0224929E0,1.0736779E0,1.1439779E0,1.2085679E0,1.2693857E0,1.3315107E0,1.4046929E0,1.4754117E0,1.5516344E0],"categories":[],"categories_nodes":[],"categories_segments":[],"categories_sizes":[],"default_left":[0,0,0,0,0,0,0,0,0,0,0,0,0,0,0,0,0,0,0,0,0,0,0,0,0,0,0,0,0,0,0,0,0,0,0,0,0,0,0,0,0,0,0,0,0,0,0,0,0,0,0,0,0,0,0,0,0,0,0,0,0,0,0],"id":6,"left_children":[1,3,5,7,9,11,13,15,17,19,21,23,25,27,29,31,33,35,37,39,41,43,45,47,49,51,53,55,57,59,61,-1,-1,-1,-1,-1,-1,-1,-1,-1,-1,-1,-1,-1,-1,-1,-1,-1,-1,-1,-1,-1,-1,-1,-1,-1,-1,-1,-1,-1,-1,-1,-1],"loss_changes":[2.1428158E5,2.866217E4,2.6839469E4,3.8164995E3,3.3569727E3,3.6537188E3,3.2640625E3,3.590879E2,6.3584644E2,4.2182715E2,4.0328516E2,5.4964844E2,3.5834375E2,4.1121875E2,4.2175E2,2.7471191E1,5.5898193E1,9.630725E1,5.0999374E1,3.1476685E1,6.3193115E1,4.9771484E1,4.7407227E1,6.3623047E1,5.307422E1,2.834375E1,4.813672E1,5.9578125E1,2.634375E1,5.3460938E1,2.94375E1,0E0,0E0,0E0,0E0,0E0,0E0,0E0,0E0,0E0,0E0,0E0,0E0,0E0,0E0,0E0,0E0,0E0,0E0,0E0,0E0,0E0,0E0,0E0,0E0,0E0,0E0,0E0,0E0,0E0,0E0,0E0,0E0],"parents":[2147483647,0,0,1,1,2,2,3,3,4,4,5,5,6,6,7,7,8,8,9,9,10,10,11,11,12,12,13,13,14,14,15,15,16,16,17,17,18,18,19,19,20,20,21,21,22,22,23,23,24,24,25,25,26,26,27,27,28,28,29,29,30,30],"right_children":[2,4,6,8,10,12,14,16,18,20,22,24,26,28,30,32,34,36,38,40,42,44,46,48,50,52,54,56,58,60,62,-1,-1,-1,-1,-1,-1,-1,-1,-1,-1,-1,-1,-1,-1,-1,-1,-1,-1,-1,-1,-1,-1,-1,-1,-1,-1,-1,-1,-1,-1,-1,-1],"split_conditions":[4.93E0,2.67E0,7.3E0,1.4E0,3.77E0,6.15E0,8.54E0,9E-1,2.1E0,3.22E0,4.32E0,5.53E0,6.72E0,8.02E0,9.26E0,3.5E-1,1.13E0,1.86E0,2.4E0,2.98E0,3.53E0,4.08E0,4.67E0,5.24E0,5.9E0,6.41E0,7.06E0,7.58E0,8.24E0,8.9E0,9.69E0,-2.849682E-1,-3.6706537E-1,-2.8246143E-1,-2.1780993E-1,-1.4745322E-1,-7.210135E-2,-7.7595976E-3,5.1650476E-2,1.13222405E-1,1.5991691E-1,2.251978E-1,2.905847E-1,3.428772E-1,4.0259066E-1,4.6544662E-1,5.245927E-1,5.8559287E-1,6.5049696E-1,7.1717393E-1,7.794289E-1,8.384715E-1,8.923049E-1,9.571768E-1,1.0224929E0,1.0736779E0,1.1439779E0,1.2085679E0,1.2693857E0,1.3315107E0,1.4046929E0,1.4754117E0,1.5516344E0],"split_indices":[4,4,2,4,2,2,2,4,4,4,2,2,4,4,2,2,4,4,2,4,2,4,4,2,4,2,2,2,2,2,4,0,0,0,0,0,0,0,0,0,0,0,0,0,0,0,0,0,0,0,0,0,0,0,0,0,0,0,0,0,0,0,0],"split_type":[0,0,0,0,0,0,0,0,0,0,0,0,0,0,0,0,0,0,0,0,0,0,0,0,0,0,0,0,0,0,0,0,0,0,0,0,0,0,0,0,0,0,0,0,0,0,0,0,0,0,0,0,0,0,0,0,0,0,0,0,0,0,0],"sum_hessian":[8.3391E4,4.3826E4,3.9565E4,2.2593E4,2.1233E4,2.1202E4,1.8363E4,1.0364E4,1.2229E4,1.0844E4,1.0389E4,1.1402E4,9.8E3,9.737E3,8.626E3,5.484E3,4.88E3,6.804E3,5.425E3,5.3E3,5.544E3,5.184E3,5.205E3,5.88E3,5.522E3,4.554E3,5.246E3,5.489E3,4.248E3,5.004E3,3.622E3,4.17E2,5.067E3,2.339E3,2.541E3,4.485E3,2.319E3,3.265E3,2.16E3,2.959E3,2.341E3,3.251E3,2.293E3,2.517E3,2.667E3,2.861E3,2.344E3,3.297E3,2.583E3,2.923E3,2.599E3,2.247E3,2.307E3,3.23E3,2.016E3,2.298E3,3.191E3,1.98E3,2.268E3,2.655E3,2.349E3,2.28E3,1.342E3],"tree_param":{"num_deleted":"0","num_feature":"6","num_nodes":"63","size_leaf_vector":"1"}},{"base_weights":[-1.6473731E0,-1.6901268E0,-4.9139127E-1,-1.7164108E0,-5.03105E-1,-5.042531E-1,-5.213342E-1],"categories":[],"categories_nodes":[],"categories_segments":[],"categories_sizes":[],"default_left":[0,0,0,0,0,0,0],"id":7,"left_children":[1,3,-1,5,-1,-1,-1],"loss_changes":[3.0796875E1,2.296875E0,0E0,8.486328E-1,0E0,0E0,0E0],"parents":[2147483647,0,0,1,1,3,3],"right_children":[2,4,-1,6,-1,-1,-1],"split_conditions":[-2.0352542E-1,-3.2736728E-1,-4.9139127E-1,4.6817157E-1,-5.03105E-1,-5.042531E-1,-5.213342E-1],"split_indices":[5,5,0,3,0,0,0],"split_type":[0,0,0,0,0,0,0],"sum_hessian":[8.3508E4,1.5022E4,6.8486E4,4.956E3,1.0066E4,1.89E3,3.066E3],"tree_param":{"num_deleted":"0","num_feature":"6","num_nodes":"7","size_leaf_vector":"1"}},{"base_weights":[1.7564424E0,2.0330407E-1,3.4059768E0,-6.029502E-1,9.8275733E-1,2.5801578E0,4.259318E0,-9.87171E-1,-2.2468428E-1,5.706193E-1,1.3842953E0,2.1858928E0,2.9836123E0,3.812309E0,4.7230177E0,-1.1747564E0,-7.9600966E-1,-4.118296E-1,-2.2734977E-2,3.571603E-1,7.476468E-1,1.155992E0,1.580912E0,1.9731672E0,2.3691628E0,2.7634683E0,3.1639087E0,3.5766726E0,4.002987E0,4.4687433E0,4.9777308E0,-2.3763935E-1,-3.575391E-1,-2.7715397E-1,-2.175678E-1,-1.5716031E-1,-9.481021E-2,-3.3547692E-2,2.0712275E-2,7.305845E-2,1.3674083E-1,1.8845212E-1,2.528579E-1,3.0837187E-1,3.6475724E-1,4.3725458E-1,5.052259E-1,5.578592E-1,6.136087E-1,6.7296624E-1,7.386789E-1,7.986375E-1,8.513722E-1,9.0925014E-1,9.764863E-1,1.0510143E0,1.101525E0,1.162546E0,1.2342908E0,1.3055661E0,1.3701478E0,1.4614174E0,1.5530158E0],"categories":[],"categories_nodes":[],"categories_segments":[],"categories_sizes":[],"default_left":[0,0,0,0,0,0,0,0,0,0,0,0,0,0,0,0,0,0,0,0,0,0,0,0,0,0,0,0,0,0,0,0,0,0,0,0,0,0,0,0,0,0,0,0,0,0,0,0,0,0,0,0,0,0,0,0,0,0,0,0,0,0,0],"id":8,"left_children":[1,3,5,7,9,11,13,15,17,19,21,23,25,27,29,31,33,35,37,39,41,43,45,47,49,51,53,55,57,59,61,-1,-1,-1,-1,-1,-1,-1,-1,-1,-1,-1,-1,-1,-1,-1,-1,-1,-1,-1,-1,-1,-1,-1,-1,-1,-1,-1,-1,-1,-1,-1,-1],"loss_changes":[2.143171E5,2.7078082E4,2.8577531E4,3.0780298E3,3.6247441E3,3.2732969E3,4.1171875E3,3.7583594E2,4.034024E2,4.0833594E2,4.9625195E2,4.0202734E2,3.9564062E2,4.4229688E2,6.117031E2,3.3618652E1,4.6446777E1,5.9293823E1,4.1993404E1,5.4857788E1,6.669873E1,3.8148438E1,7.341211E1,3.5853516E1,6.0126953E1,2.7105469E1,5.7910156E1,1.8875E1,6.3875E1,3.6554688E1,7.807031E1,0E0,0E0,0E0,0E0,0E0,0E0,0E0,0E0,0E0,0E0,0E0,0E0,0E0,0E0,0E0,0E0,0E0,0E0,0E0,0E0,0E0,0E0,0E0,0E0,0E0,0E0,0E0,0E0,0E0,0E0,0E0,0E0],"parents":[2147483647,0,0,1,1,2,2,3,3,4,4,5,5,6,6,7,7,8,8,9,9,10,10,11,11,12,12,13,13,14,14,15,15,16,16,17,17,18,18,19,19,20,20,21,21,22,22,23,23,24,24,25,25,26,26,27,27,28,28,29,29,30,30],"right_children":[2,4,6,8,10,12,14,16,18,20,22,24,26,28,30,32,34,36,38,40,42,44,46,48,50,52,54,56,58,60,62,-1,-1,-1,-1,-1,-1,-1,-1,-1,-1,-1,-1,-1,-1,-1,-1,-1,-1,-1,-1,-1,-1,-1,-1,-1,-1,-1,-1,-1,-1,-1,-1],"split_conditions":[4.82E0,2.5E0,7.14E0,1.37E0,3.6E0,5.93E0,8.41E0,8.4E-1,1.93E0,2.98E0,4.19E0,5.34E0,6.49E0,7.65E0,9.09E0,2.9E-1,1.06E0,1.67E0,2.2E0,2.74E0,3.25E0,3.77E0,4.43E0,4.99E0,5.57E0,6.15E0,6.71E0,7.41E0,7.98E0,8.67E0,9.55E0,-2.3763935E-1,-3.575391E-1,-2.7715397E-1,-2.175678E-1,-1.5716031E-1,-9.481021E-2,-3.3547692E-2,2.0712275E-2,7.305845E-2,1.3674083E-1,1.8845212E-1,2.528579E-1,3.0837187E-1,3.6475724E-1,4.3725458E-1,5.052259E-1,5.578592E-1,6.136087E-1,6.7296624E-1,7.386789E-1,7.986375E-1,8.513722E-1,9.0925014E-1,9.764863E-1,1.0510143E0,1.101525E0,1.162546E0,1.2342908E0,1.3055661E0,1.3701478E0,1.4614174E0,1.5530158E0],"split_indices":[4,4,4,2,2,2,4,2,2,2,4,4,4,2,4,0,4,4,2,4,2,2,2,2,2,2,2,2,2,2,0,0,0,0,0,0,0,0,0,0,0,0,0,0,0,0,0,0,0,0,0,0,0,0,0,0,0,0,0,0,0,0,0],"split_type":[0,0,0,0,0,0,0,0,0,0,0,0,0,0,0,0,0,0,0,0,0,0,0,0,0,0,0,0,0,0,0,0,0,0,0,0,0,0,0,0,0,0,0,0,0,0,0,0,0,0,0,0,0,0,0,0,0,0,0,0,0,0,0],"sum_hessian":[8.3653E4,4.3086E4,4.0567E4,2.1179E4,2.1907E4,2.0618E4,1.9949E4,1.0506E4,1.0673E4,1.0812E4,1.1095E4,1.0431E4,1.0187E4,1.0162E4,9.787E3,5.3E3,5.206E3,5.539E3,5.134E3,4.903E3,5.909E3,5.137E3,5.958E3,4.833E3,5.598E3,4.594E3,5.593E3,4.554E3,5.608E3,4.907E3,4.88E3,2.28E2,5.072E3,1.851E3,3.355E3,2.551E3,2.988E3,2.605E3,2.529E3,2.28E3,2.623E3,2.624E3,3.285E3,1.642E3,3.495E3,2.72E3,3.238E3,1.888E3,2.945E3,2.39E3,3.208E3,1.961E3,2.633E3,2.286E3,3.307E3,2.593E3,1.961E3,2.627E3,2.981E3,2.264E3,2.643E3,3.197E3,1.683E3],"tree_param":{"num_deleted":"0","num_feature":"6","num_nodes":"63","size_leaf_vector":"1"}},{"base_weights":[-1.5077102E0,-1.2859447E0,-1.5254688E0,-1.2008799E0,-1.3247502E0,-1.4479927E0,-1.536646E0,-2.9165608E-1,-1.2182748E0,-1.3357811E0,-1.2102729E0,-4.1505185E-1,-4.3978706E-1,-1.4646566E0,-1.5427307E0,-1.2520782E0,-1.1298277E0,-1.2362089E0,-1.3523841E0,-1.3408754E0,-1.1645322E0,-1.4370462E0,-4.458149E-1,-4.5704445E-1,-1.5526322E0,-3.5358083E-1,-3.8576707E-1,-3.565533E-1,-2.9882064E-1,-3.5465175E-1,-4.0696323E-1,-3.9920074E-1,-4.2056885E-1,-4.062906E-1,-1.459928E-1,-3.1270167E-1,-3.8106638E-1,-4.3251187E-1,-3.4839633E-1,-4.5708916E-1,-4.6645454E-1],"categories":[],"categories_nodes":[],"categories_segments":[],"categories_sizes":[],"default_left":[0,0,0,0,0,0,0,0,0,0,0,0,0,0,0,0,0,0,0,0,0,0,0,0,0,0,0,0,0,0,0,0,0,0,0,0,0,0,0,0,0],"id":9,"left_children":[1,3,5,7,9,11,13,-1,15,17,19,-1,-1,21,23,25,27,29,31,33,35,37,-1,-1,39,-1,-1,-1,-1,-1,-1,-1,-1,-1,-1,-1,-1,-1,-1,-1,-1],"loss_changes":[3.2703125E2,1.8875E1,6.475E1,6.584961E0,3.7480469E0,9.287109E0,2.7328125E1,0E0,3.9997559E0,4.7177734E0,7.324829E-1,0E0,0E0,9.873047E-1,9.515625E0,1.7167969E0,2.8272095E0,2.0637207E0,1.6850586E0,4.0760803E-1,2.447052E0,1.3300781E0,0E0,0E0,2.734375E-1,0E0,0E0,0E0,0E0,0E0,0E0,0E0,0E0,0E0,0E0,0E0,0E0,0E0,0E0,0E0,0E0],"parents":[2147483647,0,0,1,1,2,2,3,3,4,4,5,5,6,6,8,8,9,9,10,10,13,13,14,14,15,15,16,16,17,17,18,18,19,19,20,20,21,21,24,24],"right_children":[2,4,6,8,10,12,14,-1,16,18,20,-1,-1,22,24,26,28,30,32,34,36,38,-1,-1,40,-1,-1,-1,-1,-1,-1,-1,-1,-1,-1,-1,-1,-1,-1,-1,-1],"split_conditions":[-3.014351E-1,-4.209216E-1,-1.2625533E-1,-1.5944245E-1,-2.1280315E-2,-1.8862343E-1,-2.2812277E-1,-2.9165608E-1,6.949276E-1,-1.2065587E-1,2.7085906E-1,-4.1505185E-1,-4.3978706E-1,-2.6234066E-1,-7.83005E-2,-5.1445764E-1,-6.4423054E-2,8.8962E-1,6.6390365E-1,4.8398256E-2,4.4528374E-1,9.338691E-4,-4.458149E-1,-4.5704445E-1,-1.8907678E-1,-3.5358083E-1,-3.8576707E-1,-3.565533E-1,-2.9882064E-1,-3.5465175E-1,-4.0696323E-1,-3.9920074E-1,-4.2056885E-1,-4.062906E-1,-1.459928E-1,-3.1270167E-1,-3.8106638E-1,-4.3251187E-1,-3.4839633E-1,-4.5708916E-1,-4.6645454E-1],"split_indices":[5,5,1,1,1,1,5,0,3,1,3,0,0,5,1,5,1,3,3,1,3,1,0,0,5,0,0,0,0,0,0,0,0,0,0,0,0,0,0,0,0],"split_type":[0,0,0,0,0,0,0,0,0,0,0,0,0,0,0,0,0,0,0,0,0,0,0,0,0,0,0,0,0,0,0,0,0,0,0,0,0,0,0,0,0],"sum_hessian":[8.3537E4,6.199E3,7.7338E4,1.952E3,4.247E3,9.767E3,6.7571E4,1.42E2,1.81E3,3.864E3,3.83E2,2.145E3,7.622E3,5.285E3,6.2286E4,1.3E3,5.1E2,5.63E2,3.301E3,9.2E1,2.91E2,2.337E3,2.948E3,2.1209E4,4.1077E4,4.21E2,8.79E2,3.49E2,1.61E2,3.96E2,1.67E2,2.314E3,9.87E2,9E1,2E0,1.4E2,1.51E2,2.294E3,4.3E1,2.965E3,3.8112E4],"tree_param":{"num_deleted":"0","num_feature":"6","num_nodes":"41","size_leaf_vector":"1"}},{"base_weights":[1.7824538E0,2.6251426E-1,3.47517E0,-5.194508E-1,1.1033249E0,2.6944888E0,4.3425565E0,-9.5755905E-1,-1.3139386E-1,7.202689E-1,1.5042413E0,2.3027308E0,3.1138458E0,3.9200761E0,4.779946E0,-1.1512603E0,-7.693237E-1,-3.286196E-1,1.2294453E-1,5.1566964E-1,9.1384834E-1,1.3114996E0,1.6942862E0,2.1025867E0,2.5131922E0,2.911996E0,3.3265722E0,3.7515776E0,4.155971E0,4.5426493E0,5.0158916E0,-3.479916E-1,-1.5469435E-1,-2.628409E-1,-2.0212649E-1,-1.3981643E-1,-6.718626E-2,1.2102173E-2,6.9523856E-2,1.363024E-1,1.8621561E-1,2.4917197E-1,3.084617E-1,3.6329922E-1,4.2151043E-1,4.8204824E-1,5.404062E-1,6.075373E-1,6.6513884E-1,7.258409E-1,7.821413E-1,8.4620744E-1,9.083185E-1,9.7626966E-1,1.0401975E0,1.0882454E0,1.1589985E0,1.2210717E0,1.2833688E0,1.3226756E0,1.3910334E0,1.461952E0,1.5457052E0],"categories":[],"categories_nodes":[],"categories_segments":[],"categories_sizes":[],"default_left":[0,0,0,0,0,0,0,0,0,0,0,0,0,0,0,0,0,0,0,0,0,0,0,0,0,0,0,0,0,0,0,0,0,0,0,0,0,0,0,0,0,0,0,0,0,0,0,0,0,0,0,0,0,0,0,0,0,0,0,0,0,0,0],"id":10,"left_children":[1,3,5,7,9,11,13,15,17,19,21,23,25,27,29,31,33,35,37,39,41,43,45,47,49,51,53,55,57,59,61,-1,-1,-1,-1,-1,-1,-1,-1,-1,-1,-1,-1,-1,-1,-1,-1,-1,-1,-1,-1,-1,-1,-1,-1,-1,-1,-1,-1,-1,-1,-1,-1],"loss_changes":[2.1445703E5,2.887729E4,2.6692469E4,3.8688125E3,3.2491465E3,3.4030781E3,3.4329375E3,3.888506E2,6.054465E2,4.2826562E2,3.7652734E2,4.469414E2,4.206953E2,3.6229688E2,4.908125E2,2.8560547E1,5.4777832E1,9.768286E1,4.7372467E1,3.3637573E1,5.2104004E1,4.6598633E1,4.5828125E1,4.4390625E1,3.9722656E1,4.5890625E1,3.8335938E1,6.3023438E1,2.3898438E1,3.7257812E1,6.427344E1,0E0,0E0,0E0,0E0,0E0,0E0,0E0,0E0,0E0,0E0,0E0,0E0,0E0,0E0,0E0,0E0,0E0,0E0,0E0,0E0,0E0,0E0,0E0,0E0,0E0,0E0,0E0,0E0,0E0,0E0,0E0,0E0],"parents":[2147483647,0,0,1,1,2,2,3,3,4,4,5,5,6,6,7,7,8,8,9,9,10,10,11,11,12,12,13,13,14,14,15,15,16,16,17,17,18,18,19,19,20,20,21,21,22,22,23,23,24,24,25,25,26,26,27,27,28,28,29,29,30,30],"right_children":[2,4,6,8,10,12,14,16,18,20,22,24,26,28,30,32,34,36,38,40,42,44,46,48,50,52,54,56,58,60,62,-1,-1,-1,-1,-1,-1,-1,-1,-1,-1,-1,-1,-1,-1,-1,-1,-1,-1,-1,-1,-1,-1,-1,-1,-1,-1,-1,-1,-1,-1,-1,-1],"split_conditions":[4.93E0,2.67E0,7.3E0,1.43E0,3.77E0,6.08E0,8.5E0,8.4E-1,2.13E0,3.22E0,4.32E0,5.49E0,6.72E0,7.94E0,9.1E0,4.8398256E-2,1.13E0,1.73E0,2.43E0,2.98E0,3.57E0,4.08E0,4.67E0,5.24E0,5.83E0,6.45E0,7.06E0,7.58E0,8.24E0,8.71E0,9.52E0,-3.479916E-1,-1.5469435E-1,-2.628409E-1,-2.0212649E-1,-1.3981643E-1,-6.718626E-2,1.2102173E-2,6.9523856E-2,1.363024E-1,1.8621561E-1,2.4917197E-1,3.084617E-1,3.6329922E-1,4.2151043E-1,4.8204824E-1,5.404062E-1,6.075373E-1,6.6513884E-1,7.258409E-1,7.821413E-1,8.4620744E-1,9.083185E-1,9.7626966E-1,1.0401975E0,1.0882454E0,1.1589985E0,1.2210717E0,1.2833688E0,1.3226756E0,1.3910334E0,1.461952E0,1.5457052E0],"split_indices":[4,4,4,4,2,2,4,2,4,4,2,2,4,2,2,1,4,4,4,2,4,4,4,2,4,4,2,2,2,2,4,0,0,0,0,0,0,0,0,0,0,0,0,0,0,0,0,0,0,0,0,0,0,0,0,0,0,0,0,0,0,0,0],"split_type":[0,0,0,0,0,0,0,0,0,0,0,0,0,0,0,0,0,0,0,0,0,0,0,0,0,0,0,0,0,0,0,0,0,0,0,0,0,0,0,0,0,0,0,0,0,0,0,0,0,0,0,0,0,0,0,0,0,0,0,0,0,0,0],"sum_hessian":[8.3354E4,4.3919E4,3.9435E4,2.2756E4,2.1163E4,2.0757E4,1.8678E4,1.0688E4,1.2068E4,1.0824E4,1.0339E4,1.0735E4,1.0022E4,9.506E3,9.172E3,5.265E3,5.423E3,6.797E3,5.271E3,5.264E3,5.56E3,5.137E3,5.202E3,5.508E3,5.227E3,5.15E3,4.872E3,5.555E3,3.951E3,4.583E3,4.589E3,5.193E3,7.2E1,2.557E3,2.866E3,2.937E3,3.86E3,2.997E3,2.274E3,3.327E3,1.937E3,3.222E3,2.338E3,2.483E3,2.654E3,2.872E3,2.33E3,3.297E3,2.211E3,2.63E3,2.597E3,2.893E3,2.257E3,3.234E3,1.638E3,2.648E3,2.907E3,2.34E3,1.611E3,1.913E3,2.67E3,2.261E3,2.328E3],"tree_param":{"num_deleted":"0","num_feature":"6","num_nodes":"63","size_leaf_vector":"1"}},{"base_weights":[-2.09979E0,-2.0302768E0,-2.1798613E0,-1.9508259E0,-2.059574E0,-2.1533718E0,-2.2483387E0,-1.9149579E0,-5.9664625E-1,-2.0297127E0,-2.0779464E0,-2.1249855E0,-2.1725929E0,-6.6727775E-1,-2.2751405E0,-5.644743E-1,-5.800721E-1,-6.106538E-1,-5.8502305E-1,-6.167153E-1,-6.2712383E-1,-6.3340133E-1,-6.4666075E-1,-6.4663184E-1,-6.5793633E-1,-6.7246485E-1,-6.94309E-1],"categories":[],"categories_nodes":[],"categories_segments":[],"categories_sizes":[],"default_left":[0,0,0,0,0,0,0,0,0,0,0,0,0,0,0,0,0,0,0,0,0,0,0,0,0,0,0],"id":11,"left_children":[1,3,5,7,9,11,13,15,-1,17,19,21,23,-1,25,-1,-1,-1,-1,-1,-1,-1,-1,-1,-1,-1,-1],"loss_changes":[4.5871875E2,9.9703125E1,6.528125E1,1.2574219E1,1.3625E1,1.0609375E1,1.8828125E0,2.2265625E-1,0E0,1.78125E0,1.2734375E0,1.6015625E-1,1.109375E0,0E0,1.4628906E0,0E0,0E0,0E0,0E0,0E0,0E0,0E0,0E0,0E0,0E0,0E0,0E0],"parents":[2147483647,0,0,1,1,2,2,3,3,4,4,5,5,6,6,7,7,9,9,10,10,11,11,12,12,14,14],"right_children":[2,4,6,8,10,12,14,16,-1,18,20,22,24,-1,26,-1,-1,-1,-1,-1,-1,-1,-1,-1,-1,-1,-1],"split_conditions":[6.470702E-1,3.5886145E-1,9.4780874E-1,2.763727E-1,4.794641E-1,7.489966E-1,-9.814027E-2,1.902642E-1,-5.9664625E-1,-1.7932223E-2,-7.954508E-2,-6.092761E-2,-8.195006E-2,-6.6727775E-1,1.0581927E0,-5.644743E-1,-5.800721E-1,-6.106538E-1,-5.8502305E-1,-6.167153E-1,-6.2712383E-1,-6.3340133E-1,-6.4666075E-1,-6.4663184E-1,-6.5793633E-1,-6.7246485E-1,-6.94309E-1],"split_indices":[3,3,3,3,3,3,1,3,0,1,1,1,1,0,3,0,0,0,0,0,0,0,0,0,0,0,0],"split_type":[0,0,0,0,0,0,0,0,0,0,0,0,0,0,0,0,0,0,0,0,0,0,0,0,0,0,0],"sum_hessian":[8.3205E4,4.4553E4,3.8652E4,1.2021E4,3.2532E4,2.7894E4,1.0758E4,6.21E3,5.811E3,1.2434E4,2.0098E4,1.1307E4,1.6587E4,5.711E3,5.047E3,2.26E3,3.95E3,1.1567E4,8.67E2,7.281E3,1.2817E4,7.864E3,3.443E3,9.094E3,7.493E3,2.75E3,2.297E3],"tree_param":{"num_deleted":"0","num_feature":"6","num_nodes":"27","size_leaf_vector":"1"}},{"base_weights":[1.2021698E0,1.3743581E-1,2.3815527E0,-4.355051E-1,6.9074225E-1,1.8556912E0,3.0180213E0,-6.847491E-1,-1.3226892E-1,4.1671813E-1,9.974454E-1,1.5728339E0,2.1633E0,2.7498133E0,3.3383188E0,-8.143481E-1,-5.073986E-1,-2.3007813E-1,1.5260447E-2,2.654129E-1,5.682094E-1,8.489963E-1,1.1258178E0,1.4226449E0,1.7285877E0,2.016117E0,2.30721E0,2.5976737E0,2.8985848E0,3.2088983E0,3.5258386E0,-2.713928E-1,-2.193517E-1,-1.6362819E-1,-1.2250193E-1,-8.906198E-2,-4.9057014E-2,3.1981005E-3,3.1798238E-1,5.705288E-2,1.0264668E-1,1.690585E-1,5.5508864E-1,2.28794E-1,2.7177367E-1,3.2974786E-1,4.2699742E-1,4.065883E-1,4.515112E-1,4.9435568E-1,5.3970045E-1,5.8404696E-1,6.250933E-1,6.6609347E-1,7.118726E-1,7.572783E-1,8.032765E-1,8.456275E-1,8.9599127E-1,9.389209E-1,9.9015725E-1,1.0320085E0,1.0832748E0],"categories":[],"categories_nodes":[],"categories_segments":[],"categories_sizes":[],"default_left":[0,0,0,0,0,0,0,0,0,0,0,0,0,0,0,0,0,0,0,0,0,0,0,0,0,0,0,0,0,0,0,0,0,0,0,0,0,0,0,0,0,0,0,0,0,0,0,0,0,0,0,0,0,0,0,0,0,0,0,0,0,0,0],"id":12,"left_children":[1,3,5,7,9,11,13,15,17,19,21,23,25,27,29,31,33,35,37,39,41,43,45,47,49,51,53,55,57,59,61,-1,-1,-1,-1,-1,-1,-1,-1,-1,-1,-1,-1,-1,-1,-1,-1,-1,-1,-1,-1,-1,-1,-1,-1,-1,-1,-1,-1,-1,-1,-1,-1],"loss_changes":[1.04876914E5,1.3915221E4,1.3256984E4,1.6297883E3,1.8762891E3,1.8847891E3,1.5307812E3,2.7163037E2,1.4040477E2,2.7020728E2,1.9982617E2,2.6208594E2,2.1548828E2,2.1342969E2,1.8683594E2,5.0686523E1,1.861267E1,2.596228E1,1.8634615E1,3.4018005E1,3.432434E1,2.3341553E1,4.3222168E1,2.9939453E1,2.856836E1,2.0021484E1,2.469336E1,2.1609375E1,2.6210938E1,2.4792969E1,1.184375E1,0E0,0E0,0E0,0E0,0E0,0E0,0E0,0E0,0E0,0E0,0E0,0E0,0E0,0E0,0E0,0E0,0E0,0E0,0E0,0E0,0E0,0E0,0E0,0E0,0E0,0E0,0E0,0E0,0E0,0E0,0E0,0E0],"parents":[2147483647,0,0,1,1,2,2,3,3,4,4,5,5,6,6,7,7,8,8,9,9,10,10,11,11,12,12,13,13,14,14,15,15,16,16,17,17,18,18,19,19,20,20,21,21,22,22,23,23,24,24,25,25,26,26,27,27,28,28,29,29,30,30],"right_children":[2,4,6,8,10,12,14,16,18,20,22,24,26,28,30,32,34,36,38,40,42,44,46,48,50,52,54,56,58,60,62,-1,-1,-1,-1,-1,-1,-1,-1,-1,-1,-1,-1,-1,-1,-1,-1,-1,-1,-1,-1,-1,-1,-1,-1,-1,-1,-1,-1,-1,-1,-1,-1],"split_conditions":[4.86E0,2.5E0,7.34E0,1.5E0,3.69E0,6.12E0,8.59E0,9.9E-1,2.1E0,3.11E0,4.25E0,5.49E0,6.71E0,7.94E0,9.31E0,6.4E-1,-4.89617E-2,1.8E0,5.0086007E-2,2.81E0,4.8398256E-2,3.94E0,-2.422794E-2,5.2E0,5.79E0,6.41E0,6.98E0,7.65E0,8.28E0,8.95E0,9.59E0,-2.713928E-1,-2.193517E-1,-1.6362819E-1,-1.2250193E-1,-8.906198E-2,-4.9057014E-2,3.1981005E-3,3.1798238E-1,5.705288E-2,1.0264668E-1,1.690585E-1,5.5508864E-1,2.28794E-1,2.7177367E-1,3.2974786E-1,4.2699742E-1,4.065883E-1,4.515112E-1,4.9435568E-1,5.3970045E-1,5.8404696E-1,6.250933E-1,6.6609347E-1,7.118726E-1,7.572783E-1,8.032765E-1,8.456275E-1,8.9599127E-1,9.389209E-1,9.9015725E-1,1.0320085E0,1.0832748E0],"split_indices":[2,2,2,2,0,2,2,2,2,2,2,2,2,2,2,2,1,2,5,2,1,2,1,2,2,2,2,2,2,2,2,0,0,0,0,0,0,0,0,0,0,0,0,0,0,0,0,0,0,0,0,0,0,0,0,0,0,0,0,0,0,0,0],"split_type":[0,0,0,0,0,0,0,0,0,0,0,0,0,0,0,0,0,0,0,0,0,0,0,0,0,0,0,0,0,0,0,0,0,0,0,0,0,0,0,0,0,0,0,0,0,0,0,0,0,0,0,0,0,0,0,0,0,0,0,0,0,0,0],"sum_hessian":[8.3518E4,4.3893E4,3.9625E4,2.1564E4,2.2329E4,2.17E4,1.7925E4,1.1835E4,9.729E3,1.1794E4,1.0535E4,1.1308E4,1.0392E4,9.761E3,8.164E3,6.836E3,4.999E3,5.85E3,3.879E3,5.902E3,5.892E3,4.889E3,5.646E3,5.762E3,5.546E3,5.145E3,5.247E3,4.835E3,4.926E3,4.841E3,3.323E3,3.273E3,3.563E3,3.609E3,1.39E3,2.918E3,2.932E3,3.863E3,1.6E1,2.982E3,2.92E3,5.872E3,2E1,1.948E3,2.941E3,5.186E3,4.6E2,3.18E3,2.582E3,2.595E3,2.951E3,2.554E3,2.591E3,2.274E3,2.973E3,2.537E3,2.298E3,2.601E3,2.325E3,2.616E3,2.225E3,1.675E3,1.648E3],"tree_param":{"num_deleted":"0","num_feature":"6","num_nodes":"63","size_leaf_vector":"1"}},{"base_weights":[-1.1532447E0,-1.1913357E0,-1.1477737E0,-3.514434E-1,-3.618954E-1,-3.4792435E-1,-3.4324467E-1],"categories":[],"categories_nodes":[],"categories_segments":[],"categories_sizes":[],"default_left":[0,0,0,0,0,0,0],"id":13,"left_children":[1,3,5,-1,-1,-1,-1],"loss_changes":[1.596875E1,1.6865234E0,1.828125E0,0E0,0E0,0E0,0E0],"parents":[2147483647,0,0,1,1,2,2],"right_children":[2,4,6,-1,-1,-1,-1],"split_conditions":[-2.438232E-1,5.070628E-1,-1.3515098E-1,-3.514434E-1,-3.618954E-1,-3.4792435E-1,-3.4324467E-1],"split_indices":[5,3,5,0,0,0,0],"split_type":[0,0,0,0,0,0,0],"sum_hessian":[8.3185E4,1.042E4,7.2765E4,4.515E3,5.905E3,1.6835E4,5.593E4],"tree_param":{"num_deleted":"0","num_feature":"6","num_nodes":"7","size_leaf_vector":"1"}},{"base_weights":[1.2285634E0,1.1429864E-1,2.3538835E0,-4.3623722E-1,6.429279E-1,1.7690387E0,2.9711096E0,-7.091186E-1,-1.8844919E-1,3.6474422E-1,9.2123324E-1,1.4657699E0,2.0444689E0,2.6275666E0,3.2780855E0,-8.240839E-1,-5.821839E-1,-3.312112E-1,-6.715725E-2,2.471525E-1,5.234891E-1,7.603709E-1,1.0527636E0,1.33637E0,1.6063427E0,1.8925802E0,2.1956139E0,2.4764483E0,2.7504485E0,3.077825E0,3.4636898E0,-2.6723418E-1,-2.2568099E-1,-1.9100168E-1,-1.5183976E-1,-1.1152113E-1,-7.564618E-2,-4.3959536E-2,1.5289754E-3,5.268455E-2,9.8559886E-2,1.2794214E-1,1.6861545E-1,2.0816235E-1,2.4127005E-1,2.983975E-1,3.3660835E-1,3.8245037E-1,4.1931087E-1,4.6010405E-1,5.002344E-1,5.500761E-1,5.9206283E-1,6.3058364E-1,6.7772937E-1,7.239671E-1,7.590427E-1,8.063667E-1,8.481446E-1,9.017388E-1,9.450603E-1,9.9565506E-1,1.0684854E0],"categories":[],"categories_nodes":[],"categories_segments":[],"categories_sizes":[],"default_left":[0,0,0,0,0,0,0,0,0,0,0,0,0,0,0,0,0,0,0,0,0,0,0,0,0,0,0,0,0,0,0,0,0,0,0,0,0,0,0,0,0,0,0,0,0,0,0,0,0,0,0,0,0,0,0,0,0,0,0,0,0,0,0],"id":14,"left_children":[1,3,5,7,9,11,13,15,17,19,21,23,25,27,29,31,33,35,37,39,41,43,45,47,49,51,53,55,57,59,61,-1,-1,-1,-1,-1,-1,-1,-1,-1,-1,-1,-1,-1,-1,-1,-1,-1,-1,-1,-1,-1,-1,-1,-1,-1,-1,-1,-1,-1,-1,-1,-1],"loss_changes":[1.0488257E5,1.2232244E4,1.5017344E4,1.3920273E3,1.6597031E3,1.7821094E3,2.1265156E3,1.4250342E2,1.8685074E2,2.0007507E2,2.2597363E2,1.829375E2,2.5289844E2,1.7070312E2,3.8660938E2,2.3944092E1,1.8988403E1,1.5787842E1,3.3470875E1,3.5821686E1,1.6831177E1,1.3514893E1,2.2605469E1,1.8237305E1,1.9074219E1,2.3089844E1,2.8585938E1,8.482422E0,1.7652344E1,1.7378906E1,6.674219E1,0E0,0E0,0E0,0E0,0E0,0E0,0E0,0E0,0E0,0E0,0E0,0E0,0E0,0E0,0E0,0E0,0E0,0E0,0E0,0E0,0E0,0E0,0E0,0E0,0E0,0E0,0E0,0E0,0E0,0E0,0E0,0E0],"parents":[2147483647,0,0,1,1,2,2,3,3,4,4,5,5,6,6,7,7,8,8,9,9,10,10,11,11,12,12,13,13,14,14,15,15,16,16,17,17,18,18,19,19,20,20,21,21,22,22,23,23,24,24,25,25,26,26,27,27,28,28,29,29,30,30],"right_children":[2,4,6,8,10,12,14,16,18,20,22,24,26,28,30,32,34,36,38,40,42,44,46,48,50,52,54,56,58,60,62,-1,-1,-1,-1,-1,-1,-1,-1,-1,-1,-1,-1,-1,-1,-1,-1,-1,-1,-1,-1,-1,-1,-1,-1,-1,-1,-1,-1,-1,-1,-1,-1],"split_conditions":[4.67E0,2.4E0,7.06E0,1.33E0,3.57E0,5.83E0,8.24E0,8.7E-1,1.8E0,3.04E0,4.08E0,5.24E0,6.41E0,7.58E0,8.95E0,5.8E-1,1.13E0,1.67E0,2.13E0,2.74E0,3.22E0,3.77E0,4.42E0,4.92E0,5.49E0,6.15E0,6.72E0,7.3E0,7.94E0,8.59E0,9.35E0,-2.6723418E-1,-2.2568099E-1,-1.9100168E-1,-1.5183976E-1,-1.1152113E-1,-7.564618E-2,-4.3959536E-2,1.5289754E-3,5.268455E-2,9.8559886E-2,1.2794214E-1,1.6861545E-1,2.0816235E-1,2.4127005E-1,2.983975E-1,3.3660835E-1,3.8245037E-1,4.1931087E-1,4.6010405E-1,5.002344E-1,5.500761E-1,5.9206283E-1,6.3058364E-1,6.7772937E-1,7.239671E-1,7.590427E-1,8.063667E-1,8.481446E-1,9.017388E-1,9.450603E-1,9.9565506E-1,1.0684854E0],"split_indices":[2,2,2,4,4,4,2,4,2,2,4,2,2,2,2,2,4,4,4,2,4,4,4,0,2,2,4,2,2,2,4,0,0,0,0,0,0,0,0,0,0,0,0,0,0,0,0,0,0,0,0,0,0,0,0,0,0,0,0,0,0,0,0],"split_type":[0,0,0,0,0,0,0,0,0,0,0,0,0,0,0,0,0,0,0,0,0,0,0,0,0,0,0,0,0,0,0,0,0,0,0,0,0,0,0,0,0,0,0,0,0,0,0,0,0,0,0,0,0,0,0,0,0,0,0,0,0,0,0],"sum_hessian":[8.3644E4,4.2029E4,4.1615E4,2.0588E4,2.1441E4,2.137E4,2.0245E4,9.797E3,1.0791E4,1.0724E4,1.0717E4,1.0174E4,1.1196E4,9.558E3,1.0687E4,5.138E3,4.659E3,4.956E3,5.835E3,6.162E3,4.562E3,4.824E3,5.893E3,5.303E3,4.871E3,5.591E3,5.605E3,4.296E3,5.262E3,5.149E3,5.538E3,2.658E3,2.48E3,2.71E3,1.949E3,3.274E3,1.682E3,2.78E3,3.055E3,3.281E3,2.881E3,1.301E3,3.261E3,1.924E3,2.9E3,3.213E3,2.68E3,2.658E3,2.645E3,2.237E3,2.634E3,3.248E3,2.343E3,2.278E3,3.327E3,1.994E3,2.302E3,2.918E3,2.344E3,2.602E3,2.547E3,2.248E3,3.29E3],"tree_param":{"num_deleted":"0","num_feature":"6","num_nodes":"63","size_leaf_vector":"1"}},{"base_weights":[-1.0554707E0,-9.144476E-1,-1.0687087E0,-8.703413E-1,-9.667643E-1,-1.0176501E0,-1.0709567E0,-7.7610713E-1,-8.7877005E-1,-9.4417006E-1,-2.998686E-1,-3.0131543E-1,-3.148998E-1,-1.0736874E0,-3.184883E-1,-8.180444E-1,-6.6737E-1,-9.120563E-1,-8.5376245E-1,-6.646883E-1,-2.8392687E-1,-1.060519E0,-3.226667E-1,-2.1831037E-1,-2.8681242E-1,-1.6565582E-1,-2.6220727E-1,-2.8624445E-1,-2.6907733E-1,-2.4678509E-1,-2.674755E-1,-2.8081924E-1,-1.5897515E-1,-3.0253348E-1,-3.1927004E-1],"categories":[],"categories_nodes":[],"categories_segments":[],"categories_sizes":[],"default_left":[0,0,0,0,0,0,0,0,0,0,0,0,0,0,0,0,0,0,0,0,0,0,0,0,0,0,0,0,0,0,0,0,0,0,0],"id":15,"left_children":[1,3,5,7,9,11,13,15,17,19,-1,-1,-1,21,-1,23,25,27,29,31,-1,33,-1,-1,-1,-1,-1,-1,-1,-1,-1,-1,-1,-1,-1],"loss_changes":[1.5496094E2,1.5714844E1,7.671875E0,2.418213E0,1.4816895E0,3.2177734E-1,7.1875E-1,9.543457E-1,2.1970215E0,6.02417E-1,0E0,0E0,0E0,2.5E-1,0E0,2.2091217E0,1.8262901E0,1.11816406E-1,1.6896973E0,1.9886208E-1,0E0,2.9785156E-1,0E0,0E0,0E0,0E0,0E0,0E0,0E0,0E0,0E0,0E0,0E0,0E0,0E0],"parents":[2147483647,0,0,1,1,2,2,3,3,4,4,5,5,6,6,7,7,8,8,9,9,13,13,15,15,16,16,17,17,18,18,19,19,21,21],"right_children":[2,4,6,8,10,12,14,16,18,20,-1,-1,-1,22,-1,24,26,28,30,32,-1,34,-1,-1,-1,-1,-1,-1,-1,-1,-1,-1,-1,-1,-1],"split_conditions":[-2.8539467E-1,-3.5074374E-1,-2.438232E-1,-5.795199E-1,6.083828E-1,7.070489E-1,7.13E0,7.3350245E-1,5.070628E-1,3.6E-1,-2.998686E-1,-3.0131543E-1,-3.148998E-1,-1.7114095E-1,-3.184883E-1,5.339347E-1,9.879781E-1,2.5299177E-1,-4.0626588E-1,-3.3483768E-1,-2.8392687E-1,2.324745E-1,-3.226667E-1,-2.1831037E-1,-2.8681242E-1,-1.6565582E-1,-2.6220727E-1,-2.8624445E-1,-2.6907733E-1,-2.4678509E-1,-2.674755E-1,-2.8081924E-1,-1.5897515E-1,-3.0253348E-1,-3.1927004E-1],"split_indices":[5,5,5,5,3,3,0,3,3,0,0,0,0,5,0,3,3,3,5,5,0,3,0,0,0,0,0,0,0,0,0,0,0,0,0],"split_type":[0,0,0,0,0,0,0,0,0,0,0,0,0,0,0,0,0,0,0,0,0,0,0,0,0,0,0,0,0,0,0,0,0,0,0],"sum_hessian":[8.3528E4,7.174E3,7.6354E4,3.902E3,3.272E3,3.239E3,7.3115E4,3.28E2,3.574E3,1.955E3,1.317E3,2.313E3,9.26E2,5.6471E4,1.6644E4,2.32E2,9.6E1,1.518E3,2.056E3,1.8E1,1.937E3,7.087E3,4.9384E4,1.44E2,8.8E1,6.4E1,3.2E1,3.85E2,1.133E3,1.14E3,9.16E2,4E0,1.4E1,4.9E2,6.597E3],"tree_param":{"num_deleted":"0","num_feature":"6","num_nodes":"35","size_leaf_vector":"1"}},{"base_weights":[1.2479186E0,2.1078005E-1,2.4585598E0,-3.447501E-1,8.1379044E-1,1.9347905E0,3.0621173E0,-6.329541E-1,-4.2594574E-2,5.359918E-1,1.0938721E0,1.6579763E0,2.2196271E0,2.7948623E0,3.3841486E0,-7.591111E-1,-4.5114452E-1,-2.2491284E-1,6.69661E-2,3.9425924E-1,6.725531E-1,9.45263E-1,1.2158219E0,1.5226471E0,1.8107184E0,2.0891645E0,2.3769374E0,2.653053E0,2.9527578E0,3.2537017E0,3.5723023E0,-2.553589E-1,-2.0442319E-1,-1.5262553E-1,-1.1627055E-1,-9.4599955E-2,-5.956422E-2,3.3302347E-3,5.5686902E-2,1.1553608E-1,3.687284E-1,1.8217817E-1,2.2278547E-1,2.599672E-1,2.9835704E-1,3.3297077E-1,3.8036826E-1,4.3466E-1,4.766728E-1,5.275982E-1,5.662503E-1,6.0263795E-1,6.4846545E-1,6.9650793E-1,7.348446E-1,7.708986E-1,8.1948465E-1,8.6264056E-1,9.07808E-1,9.519248E-1,1.003228E0,1.0490048E0,1.106048E0],"categories":[],"categories_nodes":[],"categories_segments":[],"categories_sizes":[],"default_left":[0,0,0,0,0,0,0,0,0,0,0,0,0,0,0,0,0,0,0,0,0,0,0,0,0,0,0,0,0,0,0,0,0,0,0,0,0,0,0,0,0,0,0,0,0,0,0,0,0,0,0,0,0,0,0,0,0,0,0,0,0,0,0],"id":16,"left_children":[1,3,5,7,9,11,13,15,17,19,21,23,25,27,29,31,33,35,37,39,41,43,45,47,49,51,53,55,57,59,61,-1,-1,-1,-1,-1,-1,-1,-1,-1,-1,-1,-1,-1,-1,-1,-1,-1,-1,-1,-1,-1,-1,-1,-1,-1,-1,-1,-1,-1,-1,-1,-1],"loss_changes":[1.0464014E5,1.5036998E4,1.2150031E4,2.0345674E3,1.6741152E3,1.6197812E3,1.528E3,2.7393262E2,2.278689E2,2.0892578E2,1.9307422E2,2.1316602E2,2.0323828E2,2.1088281E2,1.8710938E2,4.992041E1,1.7752441E1,1.0145538E1,4.7234814E1,4.0009155E1,2.4723633E1,1.78833E1,3.104004E1,2.4807617E1,1.6274414E1,2.796875E1,1.2716797E1,2.6761719E1,1.7421875E1,2.4316406E1,1.5734375E1,0E0,0E0,0E0,0E0,0E0,0E0,0E0,0E0,0E0,0E0,0E0,0E0,0E0,0E0,0E0,0E0,0E0,0E0,0E0,0E0,0E0,0E0,0E0,0E0,0E0,0E0,0E0,0E0,0E0,0E0,0E0,0E0],"parents":[2147483647,0,0,1,1,2,2,3,3,4,4,5,5,6,6,7,7,8,8,9,9,10,10,11,11,12,12,13,13,14,14,15,15,16,16,17,17,18,18,19,19,20,20,21,21,22,22,23,23,24,24,25,25,26,26,27,27,28,28,29,29,30,30],"right_children":[2,4,6,8,10,12,14,16,18,20,22,24,26,28,30,32,34,36,38,40,42,44,46,48,50,52,54,56,58,60,62,-1,-1,-1,-1,-1,-1,-1,-1,-1,-1,-1,-1,-1,-1,-1,-1,-1,-1,-1,-1,-1,-1,-1,-1,-1,-1,-1,-1,-1,-1,-1,-1],"split_conditions":[5.03E0,2.74E0,7.38E0,1.57E0,3.84E0,6.15E0,8.59E0,1.06E0,2E0,3.25E0,4.39E0,5.64E0,6.79E0,7.98E0,9.31E0,6.8E-1,1.33E0,1.67E0,2.5E0,1.0307372E-2,3.6E0,4.08E0,4.6E0,5.31E0,5.93E0,6.49E0,7.14E0,7.65E0,8.28E0,8.95E0,9.66E0,-2.553589E-1,-2.0442319E-1,-1.5262553E-1,-1.1627055E-1,-9.4599955E-2,-5.956422E-2,3.3302347E-3,5.5686902E-2,1.1553608E-1,3.687284E-1,1.8217817E-1,2.2278547E-1,2.599672E-1,2.9835704E-1,3.3297077E-1,3.8036826E-1,4.3466E-1,4.766728E-1,5.275982E-1,5.662503E-1,6.0263795E-1,6.4846545E-1,6.9650793E-1,7.348446E-1,7.708986E-1,8.1948465E-1,8.6264056E-1,9.07808E-1,9.519248E-1,1.003228E0,1.0490048E0,1.106048E0],"split_indices":[4,4,4,4,2,2,2,4,4,2,4,4,2,2,2,4,4,4,4,5,4,4,4,4,2,4,4,2,2,2,2,0,0,0,0,0,0,0,0,0,0,0,0,0,0,0,0,0,0,0,0,0,0,0,0,0,0,0,0,0,0,0,0],"split_type":[0,0,0,0,0,0,0,0,0,0,0,0,0,0,0,0,0,0,0,0,0,0,0,0,0,0,0,0,0,0,0,0,0,0,0,0,0,0,0,0,0,0,0,0,0,0,0,0,0,0,0,0,0,0,0,0,0,0,0,0,0,0,0],"sum_hessian":[8.3338E4,4.4886E4,3.8452E4,2.3363E4,2.1523E4,2.0589E4,1.7863E4,1.1957E4,1.1406E4,1.0807E4,1.0716E4,1.0445E4,1.0144E4,9.767E3,8.096E3,7.057E3,4.9E3,4.281E3,7.125E3,5.305E3,5.502E3,4.834E3,5.882E3,5.544E3,4.901E3,5.553E3,4.591E3,5.155E3,4.612E3,4.792E3,3.304E3,3.225E3,3.832E3,2.567E3,2.333E3,9.64E2,3.317E3,4.845E3,2.28E3,5.249E3,5.6E1,2.853E3,2.649E3,1.868E3,2.966E3,1.946E3,3.936E3,2.634E3,2.91E3,2.935E3,1.966E3,2.645E3,2.908E3,2.625E3,1.966E3,2.517E3,2.638E3,2.264E3,2.348E3,2.552E3,2.24E3,2.009E3,1.295E3],"tree_param":{"num_deleted":"0","num_feature":"6","num_nodes":"63","size_leaf_vector":"1"}},{"base_weights":[-1.4708536E0,-1.237035E0,-1.5458976E0,-1.0749224E0,-1.3032447E0,-1.4705507E0,-1.5724618E0,-1.0340897E0,-3.415565E-1,-1.2542373E0,-1.3437383E0,-1.4171016E0,-1.539852E0,-1.5374081E0,-1.6168354E0,-3.0403337E-1,-3.2079998E-1,-3.6551547E-1,-1.283693E0,-3.8471583E-1,-1.369807E0,-4.1124722E-1,-1.4441124E0,-1.508863E0,-4.814877E-1,-1.497279E0,-1.5534699E0,-1.6079584E0,-5.0458443E-1,-3.7592748E-1,-3.9603785E-1,-4.066893E-1,-4.2665052E-1,-4.1769278E-1,-4.3738294E-1,-4.4199738E-1,-4.6177617E-1,-4.3521392E-1,-4.548176E-1,-4.4209015E-1,-4.6883163E-1,-4.7854877E-1,-4.9244523E-1],"categories":[],"categories_nodes":[],"categories_segments":[],"categories_sizes":[],"default_left":[0,0,0,0,0,0,0,0,0,0,0,0,0,0,0,0,0,0,0,0,0,0,0,0,0,0,0,0,0,0,0,0,0,0,0,0,0,0,0,0,0,0,0],"id":17,"left_children":[1,3,5,7,9,11,13,15,-1,17,19,21,23,25,27,-1,-1,-1,29,-1,31,-1,33,35,-1,37,39,41,-1,-1,-1,-1,-1,-1,-1,-1,-1,-1,-1,-1,-1,-1,-1],"loss_changes":[1.4599062E3,2.1592188E2,1.23921875E2,1.4084961E1,2.6832031E1,5.8765625E1,7.002344E1,1.5283203E0,0E0,5.3183594E0,1.0807617E1,9.646484E0,1.2009766E1,1.4472656E1,9.175781E0,0E0,0E0,0E0,2.3144531E0,0E0,2.1523438E0,0E0,2.1640625E0,2.9833984E0,0E0,4.3398438E0,1.15E1,5.1484375E0,0E0,0E0,0E0,0E0,0E0,0E0,0E0,0E0,0E0,0E0,0E0,0E0,0E0,0E0,0E0],"parents":[2147483647,0,0,1,1,2,2,3,3,4,4,5,5,6,6,7,7,9,9,10,10,11,11,12,12,13,13,14,14,18,18,20,20,22,22,23,23,25,25,26,26,27,27],"right_children":[2,4,6,8,10,12,14,16,-1,18,20,22,24,26,28,-1,-1,-1,30,-1,32,-1,34,36,-1,38,40,42,-1,-1,-1,-1,-1,-1,-1,-1,-1,-1,-1,-1,-1,-1,-1],"split_conditions":[-1.6932966E-1,-3.0743527E-1,-1.0614024E-1,-3.60791E-1,-2.2508349E-1,7.128091E-1,6.7754585E-1,-4.0626588E-1,-3.415565E-1,5.210252E-1,4.3595687E-1,4.2401835E-1,9.879781E-1,-7.527737E-2,1.075902E0,-3.0403337E-1,-3.2079998E-1,-3.6551547E-1,-2.5471112E-1,-3.8471583E-1,8.941745E-1,-4.1124722E-1,-1.5201168E-1,-1.302232E-1,-4.814877E-1,4.0812898E-1,2.7085906E-1,-5.1598355E-2,-5.0458443E-1,-3.7592748E-1,-3.9603785E-1,-4.066893E-1,-4.2665052E-1,-4.1769278E-1,-4.3738294E-1,-4.4199738E-1,-4.6177617E-1,-4.3521392E-1,-4.548176E-1,-4.4209015E-1,-4.6883163E-1,-4.7854877E-1,-4.9244523E-1],"split_indices":[5,5,5,5,5,3,3,5,0,3,3,3,3,5,3,0,0,0,5,0,3,0,5,5,0,3,3,5,0,0,0,0,0,0,0,0,0,0,0,0,0,0,0],"split_type":[0,0,0,0,0,0,0,0,0,0,0,0,0,0,0,0,0,0,0,0,0,0,0,0,0,0,0,0,0,0,0,0,0,0,0,0,0,0,0,0,0,0,0],"sum_hessian":[8.331E4,2.0246E4,6.3064E4,5.876E3,1.437E4,1.6453E4,4.6611E4,3.589E3,2.287E3,6.516E3,7.854E3,9.301E3,7.152E3,2.606E4,2.0551E4,2.282E3,1.307E3,2.958E3,3.558E3,2.357E3,5.497E3,3.447E3,5.854E3,4.862E3,2.29E3,7.476E3,1.8584E4,1.8108E4,2.443E3,1.953E3,1.605E3,4.347E3,1.15E3,1.255E3,4.599E3,2.264E3,2.598E3,2.171E3,5.305E3,1.956E3,1.6628E4,1.3141E4,4.967E3],"tree_param":{"num_deleted":"0","num_feature":"6","num_nodes":"43","size_leaf_vector":"1"}},{"base_weights":[8.4427303E-1,1.1487214E-1,1.6929356E0,-2.7227122E-1,5.3444105E-1,1.3115026E0,2.101145E0,-4.658612E-1,-4.2219542E-2,3.4419248E-1,7.2708815E-1,1.1447232E0,1.526676E0,1.9280112E0,2.3534997E0,-5.6357527E-1,-3.3764225E-1,-1.3492581E-1,5.5353496E-2,2.5453103E-1,4.558042E-1,6.2293833E-1,8.218292E-1,1.0415606E0,1.2454556E0,1.4487458E0,1.6219677E0,1.8304703E0,2.0650785E0,2.270291E0,2.4789944E0,-1.9422561E-1,-1.536732E-1,-1.1816435E-1,-8.6004704E-2,-5.435886E-2,-2.5415255E-2,-1.3640955E-4,2.9247554E-2,7.500355E-2,4.604052E-1,1.1621691E-1,1.4620182E-1,1.8536441E-1,4.1475794E-1,2.2780769E-1,2.608307E-1,3.1161326E-1,5.5886084E-1,3.579532E-1,3.906956E-1,4.1906238E-1,4.4775507E-1,4.6544075E-1,4.9657732E-1,5.316544E-1,5.708345E-1,6.0476047E-1,6.3397264E-1,6.654146E-1,7.0248747E-1,7.323689E-1,7.79331E-1],"categories":[],"categories_nodes":[],"categories_segments":[],"categories_sizes":[],"default_left":[0,0,0,0,0,0,0,0,0,0,0,0,0,0,0,0,0,0,0,0,0,0,0,0,0,0,0,0,0,0,0,0,0,0,0,0,0,0,0,0,0,0,0,0,0,0,0,0,0,0,0,0,0,0,0,0,0,0,0,0,0,0,0],"id":18,"left_children":[1,3,5,7,9,11,13,15,17,19,21,23,25,27,29,31,33,35,37,39,41,43,45,47,49,51,53,55,57,59,61,-1,-1,-1,-1,-1,-1,-1,-1,-1,-1,-1,-1,-1,-1,-1,-1,-1,-1,-1,-1,-1,-1,-1,-1,-1,-1,-1,-1,-1,-1,-1,-1],"loss_changes":[5.1764332E4,7.305259E3,6.0155312E3,1.0417151E3,7.9078467E2,7.1541016E2,8.111406E2,1.5895044E2,9.670527E1,1.08572876E2,1.0529492E2,1.1573535E2,6.2429688E1,1.4432812E2,7.365234E1,3.0685791E1,1.5638245E1,1.2720192E1,1.22498665E1,3.4472473E1,1.0246826E1,1.8781982E1,1.603003E1,1.11015625E1,1.5370117E1,8.832031E0,6.6220703E0,2.3945312E1,6.638672E0,1.1863281E1,7.185547E0,0E0,0E0,0E0,0E0,0E0,0E0,0E0,0E0,0E0,0E0,0E0,0E0,0E0,0E0,0E0,0E0,0E0,0E0,0E0,0E0,0E0,0E0,0E0,0E0,0E0,0E0,0E0,0E0,0E0,0E0,0E0,0E0],"parents":[2147483647,0,0,1,1,2,2,3,3,4,4,5,5,6,6,7,7,8,8,9,9,10,10,11,11,12,12,13,13,14,14,15,15,16,16,17,17,18,18,19,19,20,20,21,21,22,22,23,23,24,24,25,25,26,26,27,27,28,28,29,29,30,30],"right_children":[2,4,6,8,10,12,14,16,18,20,22,24,26,28,30,32,34,36,38,40,42,44,46,48,50,52,54,56,58,60,62,-1,-1,-1,-1,-1,-1,-1,-1,-1,-1,-1,-1,-1,-1,-1,-1,-1,-1,-1,-1,-1,-1,-1,-1,-1,-1,-1,-1,-1,-1,-1,-1],"split_conditions":[4.99E0,2.74E0,7.3E0,1.63E0,3.84E0,6.23E0,8.67E0,1.06E0,2.2E0,3.32E0,4.42E0,5.64E0,6.79E0,8.1E0,9.37E0,5.8E-1,1.33E0,1.93E0,2.43E0,5.0086007E-2,3.53E0,2.2319753E-2,4.64E0,5.0086007E-2,5.93E0,6.49E0,6.94E0,7.73E0,8.41E0,9.09E0,9.77E0,-1.9422561E-1,-1.536732E-1,-1.1816435E-1,-8.6004704E-2,-5.435886E-2,-2.5415255E-2,-1.3640955E-4,2.9247554E-2,7.500355E-2,4.604052E-1,1.1621691E-1,1.4620182E-1,1.8536441E-1,4.1475794E-1,2.2780769E-1,2.608307E-1,3.1161326E-1,5.5886084E-1,3.579532E-1,3.906956E-1,4.1906238E-1,4.4775507E-1,4.6544075E-1,4.9657732E-1,5.316544E-1,5.708345E-1,6.0476047E-1,6.3397264E-1,6.654146E-1,7.0248747E-1,7.323689E-1,7.79331E-1],"split_indices":[2,4,4,4,2,2,2,4,4,2,4,4,2,4,2,2,4,4,4,5,4,5,2,5,2,2,2,4,4,4,2,0,0,0,0,0,0,0,0,0,0,0,0,0,0,0,0,0,0,0,0,0,0,0,0,0,0,0,0,0,0,0,0],"split_type":[0,0,0,0,0,0,0,0,0,0,0,0,0,0,0,0,0,0,0,0,0,0,0,0,0,0,0,0,0,0,0,0,0,0,0,0,0,0,0,0,0,0,0,0,0,0,0,0,0,0,0,0,0,0,0,0,0,0,0,0,0,0,0],"sum_hessian":[8.3623E4,4.4972E4,3.8651E4,2.339E4,2.1582E4,1.9983E4,1.8668E4,1.2701E4,1.0689E4,1.086E4,1.0722E4,1.1261E4,8.722E3,1.1077E4,7.591E3,7.206E3,5.495E3,5.481E3,5.208E3,6.024E3,4.836E3,5.111E3,5.611E3,5.569E3,5.692E3,4.807E3,3.915E3,6.48E3,4.597E3,4.576E3,3.015E3,2.732E3,4.474E3,2.609E3,2.886E3,2.851E3,2.63E3,2.241E3,2.967E3,6.004E3,2E1,1.53E3,3.306E3,5.079E3,3.2E1,2.434E3,3.177E3,5.552E3,1.7E1,2.977E3,2.715E3,2.215E3,2.592E3,1.271E3,2.644E3,3.602E3,2.878E3,2.295E3,2.302E3,2.66E3,1.916E3,2.304E3,7.11E2],"tree_param":{"num_deleted":"0","num_feature":"6","num_nodes":"63","size_leaf_vector":"1"}},{"base_weights":[-8.072545E-1,-8.0455405E-1,-8.29119E-1,-2.4070807E-1,-2.4304664E-1,-2.4509797E-1,-8.390605E-1,-2.4951388E-1,-2.5787497E-1],"categories":[],"categories_nodes":[],"categories_segments":[],"categories_sizes":[],"default_left":[0,0,0,0,0,0,0,0,0],"id":19,"left_children":[1,3,5,-1,-1,-1,7,-1,-1],"loss_changes":[4.25E0,2.6171875E-1,4.1455078E-1,0E0,0E0,0E0,3.564453E-2,0E0,0E0],"parents":[2147483647,0,0,1,1,2,2,6,6],"right_children":[2,4,6,-1,-1,-1,8,-1,-1],"split_conditions":[-3.035228E-2,-5.81221E-2,4.2997065E-1,-2.4070807E-1,-2.4304664E-1,-2.4509797E-1,-5.4337075E-3,-2.4951388E-1,-2.5787497E-1],"split_indices":[1,1,3,0,0,0,1,0,0],"split_type":[0,0,0,0,0,0,0,0,0],"sum_hessian":[8.3286E4,7.4164E4,9.122E3,5.3395E4,2.0769E4,4.147E3,4.975E3,3.694E3,1.281E3],"tree_param":{"num_deleted":"0","num_feature":"6","num_nodes":"9","size_leaf_vector":"1"}},{"base_weights":[8.59517E-1,8.2259685E-2,1.6502697E0,-2.9405683E-1,4.626738E-1,1.260483E0,2.1013315E0,-5.0360876E-1,-1.162389E-1,2.6122543E-1,6.3945335E-1,1.0421683E0,1.4645005E0,1.9024587E0,2.3367872E0,-5.9669346E-1,-4.2460176E-1,-2.2463675E-1,-2.7340045E-2,1.5958364E-1,3.28654E-1,5.3584456E-1,7.427616E-1,9.440894E-1,1.1330376E0,1.3745443E0,1.5976561E0,1.784558E0,2.0054195E0,2.2386842E0,2.4789486E0,-8.284292E-2,-1.8432081E-1,-1.289649E-1,1.528097E-1,-7.013078E-2,4.8148762E-2,-1.6290031E-2,3.219963E-2,4.4595588E-2,1.6377349E-1,9.739924E-2,3.7493303E-1,1.5936413E-1,3.7574196E-1,2.1514775E-1,3.3000672E-1,2.8133723E-1,6.759584E-1,3.3925828E-1,8.093395E-1,3.9388156E-1,4.3264884E-1,4.589357E-1,4.945113E-1,5.1986325E-1,5.483297E-1,5.850178E-1,6.250178E-1,6.527E-1,6.90173E-1,7.272963E-1,7.847062E-1],"categories":[],"categories_nodes":[],"categories_segments":[],"categories_sizes":[],"default_left":[0,0,0,0,0,0,0,0,0,0,0,0,0,0,0,0,0,0,0,0,0,0,0,0,0,0,0,0,0,0,0,0,0,0,0,0,0,0,0,0,0,0,0,0,0,0,0,0,0,0,0,0,0,0,0,0,0,0,0,0,0,0,0],"id":20,"left_children":[1,3,5,7,9,11,13,15,17,19,21,23,25,27,29,31,33,35,37,39,41,43,45,47,49,51,53,55,57,59,61,-1,-1,-1,-1,-1,-1,-1,-1,-1,-1,-1,-1,-1,-1,-1,-1,-1,-1,-1,-1,-1,-1,-1,-1,-1,-1,-1,-1,-1,-1,-1,-1],"loss_changes":[5.1265188E4,6.021998E3,7.266711E3,7.879232E2,7.447993E2,9.8646094E2,8.9296875E2,7.113501E1,1.10244446E2,6.6968506E1,1.1885156E2,9.446094E1,1.351211E2,1.22609375E2,1.1677344E2,2.5114258E1,2.6134338E1,1.8168793E1,2.283247E1,1.6397842E1,2.1196838E1,1.7805786E1,5.0213623E1,4.044287E1,1.5882324E1,2.6636719E1,1.3366211E1,7.6728516E0,1.9857422E1,1.5277344E1,2.0339844E1,0E0,0E0,0E0,0E0,0E0,0E0,0E0,0E0,0E0,0E0,0E0,0E0,0E0,0E0,0E0,0E0,0E0,0E0,0E0,0E0,0E0,0E0,0E0,0E0,0E0,0E0,0E0,0E0,0E0,0E0,0E0,0E0],"parents":[2147483647,0,0,1,1,2,2,3,3,4,4,5,5,6,6,7,7,8,8,9,9,10,10,11,11,12,12,13,13,14,14,15,15,16,16,17,17,18,18,19,19,20,20,21,21,22,22,23,23,24,24,25,25,26,26,27,27,28,28,29,29,30,30],"right_children":[2,4,6,8,10,12,14,16,18,20,22,24,26,28,30,32,34,36,38,40,42,44,46,48,50,52,54,56,58,60,62,-1,-1,-1,-1,-1,-1,-1,-1,-1,-1,-1,-1,-1,-1,-1,-1,-1,-1,-1,-1,-1,-1,-1,-1,-1,-1,-1,-1,-1,-1,-1,-1],"split_conditions":[4.71E0,2.5E0,7.22E0,1.33E0,3.53E0,5.9E0,8.54E0,8E-1,1.86E0,2.91E0,4.04E0,5.19E0,6.68E0,7.81E0,9.3E0,2.9E-1,4.8398256E-2,9.338691E-4,-3.8756307E-2,-5.4337075E-3,4.8398256E-2,2.2319753E-2,-2.2283873E-2,4.8398256E-2,4.8398256E-2,6.3E0,6.9E0,7.49E0,8.23E0,8.89E0,9.67E0,-8.284292E-2,-1.8432081E-1,-1.289649E-1,1.528097E-1,-7.013078E-2,4.8148762E-2,-1.6290031E-2,3.219963E-2,4.4595588E-2,1.6377349E-1,9.739924E-2,3.7493303E-1,1.5936413E-1,3.7574196E-1,2.1514775E-1,3.3000672E-1,2.8133723E-1,6.759584E-1,3.3925828E-1,8.093395E-1,3.9388156E-1,4.3264884E-1,4.589357E-1,4.945113E-1,5.1986325E-1,5.483297E-1,5.850178E-1,6.250178E-1,6.527E-1,6.90173E-1,7.272963E-1,7.847062E-1],"split_indices":[4,4,4,4,4,4,4,4,4,4,0,0,4,4,4,0,1,1,1,1,1,5,1,1,1,4,4,4,4,4,0,0,0,0,0,0,0,0,0,0,0,0,0,0,0,0,0,0,0,0,0,0,0,0,0,0,0,0,0,0,0,0,0],"split_type":[0,0,0,0,0,0,0,0,0,0,0,0,0,0,0,0,0,0,0,0,0,0,0,0,0,0,0,0,0,0,0,0,0,0,0,0,0,0,0,0,0,0,0,0,0,0,0,0,0,0,0,0,0,0,0,0,0,0,0,0,0,0,0],"sum_hessian":[8.3409E4,4.2064E4,4.1345E4,2.1146E4,2.0918E4,2.2181E4,1.9164E4,9.706E3,1.144E4,9.778E3,1.114E4,1.0718E4,1.1463E4,1.0394E4,8.77E3,4.453E3,5.253E3,5.154E3,6.286E3,3.901E3,5.877E3,5.565E3,5.575E3,5.16E3,5.558E3,6.848E3,4.615E3,4.854E3,5.54E3,5.199E3,3.571E3,2.34E2,4.219E3,5.224E3,2.9E1,5.035E3,1.19E2,5.238E3,1.048E3,3.795E3,1.06E2,5.853E3,2.4E1,5.531E3,3.4E1,5.205E3,3.7E2,5.137E3,2.3E1,5.552E3,6E0,3.594E3,3.254E3,1.987E3,2.628E3,2.229E3,2.625E3,3.255E3,2.285E3,2.594E3,2.605E3,2.565E3,1.006E3],"tree_param":{"num_deleted":"0","num_feature":"6","num_nodes":"63","size_leaf_vector":"1"}},{"base_weights":[-7.3876995E-1,-6.728703E-1,-7.455773E-1,-1.8392515E-1,-6.815439E-1,-7.226054E-1,-7.5021654E-1,-6.452204E-1,-6.931334E-1,-7.072974E-1,-2.2242196E-1,-7.446802E-1,-7.6737165E-1,-1.8816991E-1,-2.0083185E-1,-6.783498E-1,-7.1323603E-1,-6.407914E-1,-7.099518E-1,-2.2027066E-1,-7.484579E-1,-2.2909057E-1,-2.3389034E-1,-1.9586854E-1,-2.0633201E-1,-2.0944832E-1,-2.1881373E-1,-3.5612468E-2,-1.9323255E-1,-2.1029264E-1,-2.1548156E-1,-2.1282838E-1,-2.2500753E-1],"categories":[],"categories_nodes":[],"categories_segments":[],"categories_sizes":[],"default_left":[0,0,0,0,0,0,0,0,0,0,0,0,0,0,0,0,0,0,0,0,0,0,0,0,0,0,0,0,0,0,0,0,0],"id":21,"left_children":[1,3,5,-1,7,9,11,13,15,17,-1,19,21,-1,-1,23,25,27,29,-1,31,-1,-1,-1,-1,-1,-1,-1,-1,-1,-1,-1,-1],"loss_changes":[3.7003906E1,3.6469727E0,7.53125E0,0E0,2.430664E0,3.147461E0,5.4140625E0,3.0670166E-1,1.0522461E0,7.9052734E-1,0E0,1.3320312E0,1.07421875E-1,0E0,0E0,2.7038574E-1,1.9165039E-2,4.101715E-1,2.1972656E-3,0E0,1.6054688E0,0E0,0E0,0E0,0E0,0E0,0E0,0E0,0E0,0E0,0E0,0E0,0E0],"parents":[2147483647,0,0,1,1,2,2,4,4,5,5,6,6,7,7,8,8,9,9,11,11,12,12,15,15,16,16,17,17,18,18,20,20],"right_children":[2,4,6,-1,8,10,12,14,16,18,-1,20,22,-1,-1,24,26,28,30,-1,32,-1,-1,-1,-1,-1,-1,-1,-1,-1,-1,-1,-1],"split_conditions":[-1.3748638E-1,-2.2627E-1,-9.9894784E-2,-1.8392515E-1,6.6087073E-1,7.943513E-1,7.556463E-1,-1.5397684E-1,-1.5670058E-1,3.0647287E-1,-2.2242196E-1,-7.223826E-2,1.0066346E0,-1.8816991E-1,-2.0083185E-1,8.1551325E-1,9.12963E-1,-1.3587005E-1,-1.1382785E-1,-2.2027066E-1,1.6684204E-1,-2.2909057E-1,-2.3389034E-1,-1.9586854E-1,-2.0633201E-1,-2.0944832E-1,-2.1881373E-1,-3.5612468E-2,-1.9323255E-1,-2.1029264E-1,-2.1548156E-1,-2.1282838E-1,-2.2500753E-1],"split_indices":[1,1,1,0,3,3,3,1,1,3,0,1,3,0,0,3,3,1,1,0,3,0,0,0,0,0,0,0,0,0,0,0,0],"split_type":[0,0,0,0,0,0,0,0,0,0,0,0,0,0,0,0,0,0,0,0,0,0,0,0,0,0,0,0,0,0,0,0,0],"sum_hessian":[8.3605E4,7.837E3,7.5768E4,1.002E3,6.835E3,1.2757E4,6.3011E4,1.667E3,5.168E3,7.053E3,5.704E3,4.7671E4,1.534E4,9.72E2,6.95E2,2.998E3,2.17E3,2.8E2,6.773E3,1.2714E4,3.4957E4,1.1806E4,3.534E3,8.29E2,2.169E3,1.145E3,1.025E3,2E0,2.78E2,3.299E3,3.474E3,1.367E3,3.359E4],"tree_param":{"num_deleted":"0","num_feature":"6","num_nodes":"33","size_leaf_vector":"1"}},{"base_weights":[8.697437E-1,1.2457457E-1,1.695695E0,-2.8269827E-1,5.027715E-1,1.3397624E0,2.1577053E0,-4.9024487E-1,-1.0608881E-1,3.0557543E-1,7.180065E-1,1.1343538E0,1.5628825E0,1.9833616E0,2.384052E0,-5.786399E-1,-4.022576E-1,-2.1966793E-1,-1.3324377E-2,1.9106303E-1,4.0970215E-1,6.114291E-1,8.1605744E-1,1.0310931E0,1.2493237E0,1.4660441E0,1.6808697E0,1.8859282E0,2.0938256E0,2.2909017E0,2.5034866E0,-8.874857E-2,-1.8127805E-1,-1.2200329E-1,8.352876E-2,-6.8050995E-2,2.6808454E-2,-7.4585658E-3,1.1540916E-1,4.3859858E-2,8.453025E-2,1.2154782E-1,4.3074998E-1,1.7842872E-1,2.7685696E-1,2.3739783E-1,3.4022784E-1,3.0784026E-1,6.229629E-1,3.609502E-1,3.8999602E-1,4.2523095E-1,4.5816517E-1,4.9142703E-1,5.1520884E-1,5.483E-1,5.7955736E-1,6.10747E-1,6.415144E-1,6.732808E-1,7.036407E-1,7.4086297E-1,7.8844684E-1],"categories":[],"categories_nodes":[],"categories_segments":[],"categories_sizes":[],"default_left":[0,0,0,0,0,0,0,0,0,0,0,0,0,0,0,0,0,0,0,0,0,0,0,0,0,0,0,0,0,0,0,0,0,0,0,0,0,0,0,0,0,0,0,0,0,0,0,0,0,0,0,0,0,0,0,0,0,0,0,0,0,0,0],"id":22,"left_children":[1,3,5,7,9,11,13,15,17,19,21,23,25,27,29,31,33,35,37,39,41,43,45,47,49,51,53,55,57,59,61,-1,-1,-1,-1,-1,-1,-1,-1,-1,-1,-1,-1,-1,-1,-1,-1,-1,-1,-1,-1,-1,-1,-1,-1,-1,-1,-1,-1,-1,-1,-1,-1],"loss_changes":[5.133827E4,6.7546367E3,6.502867E3,7.73912E2,9.6486084E2,1.0225E3,6.745781E2,7.526465E1,1.20203476E2,1.4143347E2,1.1310303E2,1.3689941E2,1.1990625E2,1.0077344E2,7.753516E1,3.4890503E1,1.4759399E1,1.1382767E1,2.8853027E1,2.2966751E1,2.8389282E1,2.6509033E1,4.361328E1,2.969043E1,1.1303711E1,1.5348633E1,4.7128906E0,1.0332031E1,7.408203E0,5.466797E0,7.34375E0,0E0,0E0,0E0,0E0,0E0,0E0,0E0,0E0,0E0,0E0,0E0,0E0,0E0,0E0,0E0,0E0,0E0,0E0,0E0,0E0,0E0,0E0,0E0,0E0,0E0,0E0,0E0,0E0,0E0,0E0,0E0,0E0],"parents":[2147483647,0,0,1,1,2,2,3,3,4,4,5,5,6,6,7,7,8,8,9,9,10,10,11,11,12,12,13,13,14,14,15,15,16,16,17,17,18,18,19,19,20,20,21,21,22,22,23,23,24,24,25,25,26,26,27,27,28,28,29,29,30,30],"right_children":[2,4,6,8,10,12,14,16,18,20,22,24,26,28,30,32,34,36,38,40,42,44,46,48,50,52,54,56,58,60,62,-1,-1,-1,-1,-1,-1,-1,-1,-1,-1,-1,-1,-1,-1,-1,-1,-1,-1,-1,-1,-1,-1,-1,-1,-1,-1,-1,-1,-1,-1,-1,-1],"split_conditions":[4.86E0,2.5E0,7.41E0,1.33E0,3.74E0,6.15E0,8.67E0,8.4E-1,1.86E0,3.04E0,4.25E0,5.53E0,6.83E0,8.1E0,9.35E0,3.5E-1,4.8398256E-2,9.338691E-4,-5.4337075E-3,-5.370183E-2,4.8398256E-2,-1.7932223E-2,-2.3280693E-2,2.2810075E-2,5.9E0,6.57E0,7.14E0,7.73E0,8.33E0,9E0,9.77E0,-8.874857E-2,-1.8127805E-1,-1.2200329E-1,8.352876E-2,-6.8050995E-2,2.6808454E-2,-7.4585658E-3,1.1540916E-1,4.3859858E-2,8.453025E-2,1.2154782E-1,4.3074998E-1,1.7842872E-1,2.7685696E-1,2.3739783E-1,3.4022784E-1,3.0784026E-1,6.229629E-1,3.609502E-1,3.8999602E-1,4.2523095E-1,4.5816517E-1,4.9142703E-1,5.1520884E-1,5.483E-1,5.7955736E-1,6.10747E-1,6.415144E-1,6.732808E-1,7.036407E-1,7.4086297E-1,7.8844684E-1],"split_indices":[2,4,2,4,4,2,2,4,4,2,2,2,2,4,4,2,1,1,1,1,1,1,1,1,4,4,4,4,2,2,2,0,0,0,0,0,0,0,0,0,0,0,0,0,0,0,0,0,0,0,0,0,0,0,0,0,0,0,0,0,0,0,0],"split_type":[0,0,0,0,0,0,0,0,0,0,0,0,0,0,0,0,0,0,0,0,0,0,0,0,0,0,0,0,0,0,0,0,0,0,0,0,0,0,0,0,0,0,0,0,0,0,0,0,0,0,0,0,0,0,0,0,0,0,0,0,0,0,0],"sum_hessian":[8.3412E4,4.3851E4,3.9561E4,2.1114E4,2.2737E4,2.2348E4,1.7213E4,9.706E3,1.1408E4,1.1867E4,1.087E4,1.1639E4,1.0709E4,9.729E3,7.484E3,4.839E3,4.867E3,5.128E3,6.28E3,5.653E3,6.214E3,5.212E3,5.658E3,6.137E3,5.502E3,5.889E3,4.82E3,5.179E3,4.55E3,4.216E3,3.268E3,4.03E2,4.436E3,4.836E3,3.1E1,5.012E3,1.16E2,6.104E3,1.76E2,3.784E3,1.869E3,6.188E3,2.6E1,4.95E3,2.62E2,5.253E3,4.05E2,6.11E3,2.7E1,2.892E3,2.61E3,3.295E3,2.594E3,2.24E3,2.58E3,2.301E3,2.878E3,1.997E3,2.553E3,2.296E3,1.92E3,2.585E3,6.83E2],"tree_param":{"num_deleted":"0","num_feature":"6","num_nodes":"63","size_leaf_vector":"1"}},{"base_weights":[-1.0304961E0,-8.576388E-1,-1.0800321E0,-7.58686E-1,-9.066879E-1,-1.0076386E0,-1.0970138E0,-7.143144E-1,-7.906517E-1,-8.6533666E-1,-9.2842907E-1,-9.84296E-1,-1.0920117E0,-1.0585622E0,-1.1196929E0,-7.113116E-1,-8.219062E-1,-7.73458E-1,-8.3157116E-1,-2.5341442E-1,-9.1383934E-1,-8.8580316E-1,-9.481415E-1,-9.5978135E-1,-1.0102824E0,-1.0663848E0,-3.3805284E-1,-1.0189976E0,-1.0725415E0,-1.104537E0,-1.1444287E0,-2.179718E-1,-2.0610677E-1,-2.507986E-1,-7.702847E-2,-2.3695388E-1,-2.2049424E-1,-2.505403E-1,-2.0338246E-1,-2.3592581E-1,-2.7585232E-1,-2.5963593E-1,-2.7090067E-1,-2.81066E-1,-2.925674E-1,-2.818768E-1,-2.9257205E-1,-2.980962E-1,-3.0941164E-1,-3.1223834E-1,-3.2857874E-1,-2.983381E-1,-3.1031206E-1,-2.980351E-1,-3.2295144E-1,-3.237384E-1,-3.395689E-1,-3.4084004E-1,-3.588012E-1],"categories":[],"categories_nodes":[],"categories_segments":[],"categories_sizes":[],"default_left":[0,0,0,0,0,0,0,0,0,0,0,0,0,0,0,0,0,0,0,0,0,0,0,0,0,0,0,0,0,0,0,0,0,0,0,0,0,0,0,0,0,0,0,0,0,0,0,0,0,0,0,0,0,0,0,0,0,0,0],"id":23,"left_children":[1,3,5,7,9,11,13,15,17,19,21,23,25,27,29,31,33,35,37,-1,39,41,43,45,47,49,-1,51,53,55,57,-1,-1,-1,-1,-1,-1,-1,-1,-1,-1,-1,-1,-1,-1,-1,-1,-1,-1,-1,-1,-1,-1,-1,-1,-1,-1,-1,-1],"loss_changes":[7.138672E2,8.9583984E1,7.866406E1,8.186523E0,1.037207E1,2.3228516E1,4.4628906E1,2.5341797E-1,1.873291E0,3.5273438E0,5.9936523E0,5.194336E0,1.1772461E0,9.697266E0,1.1125E1,4.3896484E-1,2.9494476E-1,1.0167236E0,5.859375E-3,0E0,1.9421387E-1,1.2402344E-1,7.7734375E-1,6.4404297E-1,6.1572266E-1,8.422852E-3,0E0,9.008789E-1,3.4433594E0,1.3037109E1,3.9980469E0,0E0,0E0,0E0,0E0,0E0,0E0,0E0,0E0,0E0,0E0,0E0,0E0,0E0,0E0,0E0,0E0,0E0,0E0,0E0,0E0,0E0,0E0,0E0,0E0,0E0,0E0,0E0,0E0],"parents":[2147483647,0,0,1,1,2,2,3,3,4,4,5,5,6,6,7,7,8,8,9,9,10,10,11,11,12,12,13,13,14,14,15,15,16,16,17,17,18,18,20,20,21,21,22,22,23,23,24,24,25,25,27,27,28,28,29,29,30,30],"right_children":[2,4,6,8,10,12,14,16,18,20,22,24,26,28,30,32,34,36,38,-1,40,42,44,46,48,50,-1,52,54,56,58,-1,-1,-1,-1,-1,-1,-1,-1,-1,-1,-1,-1,-1,-1,-1,-1,-1,-1,-1,-1,-1,-1,-1,-1,-1,-1,-1,-1],"split_conditions":[-1.7882854E-1,-3.014351E-1,-1.22317076E-1,-3.947372E-1,-2.438232E-1,8.7718725E-1,5.581537E-1,1.1279325E0,6.949276E-1,6.9815904E-1,4.3912202E-1,5.527709E-1,-1.390431E-1,-8.426189E-2,8.4109724E-1,6.1134464E-1,-4.0626588E-1,5.392853E-1,1.2184628E0,-2.5341442E-1,7.2E-1,-2.1120636E-1,-1.9345625E-1,3.7768316E-1,-1.4156738E-1,1.0267653E0,-3.3805284E-1,3.7768316E-1,1.7959964E-1,-6.673842E-2,1.1398802E0,-2.179718E-1,-2.0610677E-1,-2.507986E-1,-7.702847E-2,-2.3695388E-1,-2.2049424E-1,-2.505403E-1,-2.0338246E-1,-2.3592581E-1,-2.7585232E-1,-2.5963593E-1,-2.7090067E-1,-2.81066E-1,-2.925674E-1,-2.818768E-1,-2.9257205E-1,-2.980962E-1,-3.0941164E-1,-3.1223834E-1,-3.2857874E-1,-2.983381E-1,-3.1031206E-1,-2.980351E-1,-3.2295144E-1,-3.237384E-1,-3.395689E-1,-3.4084004E-1,-3.588012E-1],"split_indices":[5,5,5,5,5,3,3,3,3,3,3,3,5,5,3,3,5,3,3,0,0,5,5,3,5,3,0,3,3,5,3,0,0,0,0,0,0,0,0,0,0,0,0,0,0,0,0,0,0,0,0,0,0,0,0,0,0,0,0],"split_type":[0,0,0,0,0,0,0,0,0,0,0,0,0,0,0,0,0,0,0,0,0,0,0,0,0,0,0,0,0,0,0,0,0,0,0,0,0,0,0,0,0,0,0,0,0,0,0,0,0,0,0,0,0,0,0,0,0,0,0],"sum_hessian":[8.3478E4,1.8598E4,6.488E4,6.169E3,1.2429E4,1.2339E4,5.2541E4,2.593E3,3.576E3,4.297E3,8.132E3,9.675E3,2.664E3,1.951E4,3.3031E4,2.53E3,6.3E1,2.532E3,1.044E3,3.028E3,1.269E3,2.586E3,5.546E3,4.998E3,4.677E3,1.553E3,1.111E3,5.113E3,1.4397E4,2.051E4,1.2521E4,1.536E3,9.94E2,6.1E1,2E0,1.762E3,7.7E2,1.016E3,2.8E1,6E1,1.209E3,1.208E3,1.378E3,3.943E3,1.603E3,2.194E3,2.804E3,2.642E3,2.035E3,8.43E2,7.1E2,1.995E3,3.118E3,6.99E2,1.3698E4,1.0655E4,9.855E3,1.0806E4,1.715E3],"tree_param":{"num_deleted":"0","num_feature":"6","num_nodes":"59","size_leaf_vector":"1"}},{"base_weights":[5.911691E-1,3.0868107E-2,1.1300635E0,-2.5401196E-1,2.6641718E-1,8.4742403E-1,1.447278E0,-3.7861335E-1,-1.4930773E-1,1.3108784E-1,4.1611582E-1,6.9458306E-1,9.874053E-1,1.2915226E0,1.6075482E0,-4.2773834E-1,-3.1191066E-1,-2.1810037E-1,-8.267473E-2,5.3786125E-2,1.9256537E-1,3.5060963E-1,4.8695788E-1,6.8896323E-1,1.6705328E0,9.1460717E-1,1.0703079E0,1.2248583E0,1.3731595E0,1.5166167E0,1.6959789E0,-2.299451E-2,-1.3398589E-1,-9.4796695E-2,1.2992668E-1,-6.763398E-2,2.557634E-2,-2.8288372E-2,7.692828E-2,3.7427233E-3,4.2057168E-2,5.181461E-2,1.2478065E-1,1.0148805E-1,1.9320253E-1,1.3952798E-1,2.2519924E-1,1.901615E-1,2.3461752E-1,2.366752E-1,5.822598E-1,2.676952E-1,2.9870993E-1,3.1817397E-1,3.8739285E-1,3.539608E-1,3.7934154E-1,4.0390775E-1,4.2642787E-1,2.7333623E-1,4.5601335E-1,1.9345634E-1,5.098294E-1],"categories":[],"categories_nodes":[],"categories_segments":[],"categories_sizes":[],"default_left":[0,0,0,0,0,0,0,0,0,0,0,0,0,0,0,0,0,0,0,0,0,0,0,0,0,0,0,0,0,0,0,0,0,0,0,0,0,0,0,0,0,0,0,0,0,0,0,0,0,0,0,0,0,0,0,0,0,0,0,0,0,0,0],"id":24,"left_children":[1,3,5,7,9,11,13,15,17,19,21,23,25,27,29,31,33,35,37,39,41,43,45,47,49,51,53,55,57,59,61,-1,-1,-1,-1,-1,-1,-1,-1,-1,-1,-1,-1,-1,-1,-1,-1,-1,-1,-1,-1,-1,-1,-1,-1,-1,-1,-1,-1,-1,-1,-1,-1],"loss_changes":[2.5241805E4,2.7503608E3,3.819336E3,2.4196521E2,4.5446777E2,4.8149023E2,4.9910938E2,2.762085E1,4.619644E1,5.5995712E1,4.9260986E1,5.795703E1,7.000098E1,5.3757812E1,7.696289E1,3.2282227E1,1.1062714E1,1.1072662E1,2.0210419E1,1.8637657E1,2.9032303E1,1.9793945E1,2.9143066E1,5.446875E1,1.30069275E1,1.0442871E1,1.0439941E1,8.519531E0,3.9990234E0,8.754883E0,1.707129E1,0E0,0E0,0E0,0E0,0E0,0E0,0E0,0E0,0E0,0E0,0E0,0E0,0E0,0E0,0E0,0E0,0E0,0E0,0E0,0E0,0E0,0E0,0E0,0E0,0E0,0E0,0E0,0E0,0E0,0E0,0E0,0E0],"parents":[2147483647,0,0,1,1,2,2,3,3,4,4,5,5,6,6,7,7,8,8,9,9,10,10,11,11,12,12,13,13,14,14,15,15,16,16,17,17,18,18,19,19,20,20,21,21,22,22,23,23,24,24,25,25,26,26,27,27,28,28,29,29,30,30],"right_children":[2,4,6,8,10,12,14,16,18,20,22,24,26,28,30,32,34,36,38,40,42,44,46,48,50,52,54,56,58,60,62,-1,-1,-1,-1,-1,-1,-1,-1,-1,-1,-1,-1,-1,-1,-1,-1,-1,-1,-1,-1,-1,-1,-1,-1,-1,-1,-1,-1,-1,-1,-1,-1],"split_conditions":[4.52E0,2.15E0,7.05E0,1.11E0,3.38E0,5.71E0,8.33E0,7.5E-1,1.62E0,2.69E0,3.97E0,2.2810075E-2,6.41E0,7.73E0,9E0,2.9E-1,4.8398256E-2,9.338691E-4,-5.4337075E-3,-5.370183E-2,-2.5058389E-2,-1.5067176E-2,-2.422794E-2,5.26E0,-1.53525E-1,-4.5369633E-2,-1.6502185E-2,7.37E0,8.11E0,1.0622298E-1,6.923552E-2,-2.299451E-2,-1.3398589E-1,-9.4796695E-2,1.2992668E-1,-6.763398E-2,2.557634E-2,-2.8288372E-2,7.692828E-2,3.7427233E-3,4.2057168E-2,5.181461E-2,1.2478065E-1,1.0148805E-1,1.9320253E-1,1.3952798E-1,2.2519924E-1,1.901615E-1,2.3461752E-1,2.366752E-1,5.822598E-1,2.676952E-1,2.9870993E-1,3.1817397E-1,3.8739285E-1,3.539608E-1,3.7934154E-1,4.0390775E-1,4.2642787E-1,2.7333623E-1,4.5601335E-1,1.9345634E-1,5.098294E-1],"split_indices":[0,0,0,0,0,0,0,0,0,0,0,1,0,0,0,0,1,1,1,1,1,1,1,0,5,1,1,0,0,3,3,0,0,0,0,0,0,0,0,0,0,0,0,0,0,0,0,0,0,0,0,0,0,0,0,0,0,0,0,0,0,0,0],"split_type":[0,0,0,0,0,0,0,0,0,0,0,0,0,0,0,0,0,0,0,0,0,0,0,0,0,0,0,0,0,0,0,0,0,0,0,0,0,0,0,0,0,0,0,0,0,0,0,0,0,0,0,0,0,0,0,0,0,0,0,0,0,0,0],"sum_hessian":[8.3597E4,4.0985E4,4.2612E4,1.855E4,2.2435E4,2.2536E4,2.0076E4,8.469E3,1.0081E4,1.1784E4,1.0651E4,1.0776E4,1.176E4,1.0186E4,9.89E3,4.874E3,3.595E3,4.959E3,5.122E3,5.221E3,6.563E3,5.537E3,5.114E3,1.0716E4,6E1,6.268E3,5.492E3,5.616E3,4.57E3,4.885E3,5.005E3,2.49E2,4.625E3,3.576E3,1.9E1,4.842E3,1.17E2,4.953E3,1.69E2,3.533E3,1.688E3,6.029E3,5.34E2,5.316E3,2.21E2,4.725E3,3.89E2,6.737E3,3.979E3,1.5E1,4.5E1,4.926E3,1.342E3,5.266E3,2.26E2,2.644E3,2.972E3,2.957E3,1.613E3,2.9E1,4.856E3,1.7E1,4.988E3],"tree_param":{"num_deleted":"0","num_feature":"6","num_nodes":"63","size_leaf_vector":"1"}},{"base_weights":[-5.649416E-1,-5.936325E-1,-5.6125385E-1,-6.531127E-1,-5.8950824E-1,-5.526836E-1,-5.647552E-1,-6.914347E-1,-5.784495E-1,-5.8313113E-1,-6.252617E-1,-5.53366E-1,-5.10884E-1,-5.718694E-1,-1.6773601E-1,-4.6898544E-1,-7.0326596E-1,-1.9409142E-1,-1.6509725E-1,-5.80146E-1,-6.2354916E-1,-5.6755275E-1,-6.48441E-1,-5.674131E-1,-1.656234E-1,-1.4846532E-1,-1.7428E-1,-5.6801844E-1,-5.83271E-1,-5.9168626E-2,-1.4564256E-1,-2.1656287E-1,-1.7750126E-1,-1.7905627E-1,-1.7246734E-1,-1.8294238E-1,-2.1420632E-1,-1.7087643E-1,-8.907525E-2,-1.9495995E-1,-7.523203E-2,-1.688864E-1,-2.1803363E-1,-1.6850159E-1,-1.7173105E-1,-1.7284216E-1,-1.7880745E-1],"categories":[],"categories_nodes":[],"categories_segments":[],"categories_sizes":[],"default_left":[0,0,0,0,0,0,0,0,0,0,0,0,0,0,0,0,0,0,0,0,0,0,0,0,0,0,0,0,0,0,0,0,0,0,0,0,0,0,0,0,0,0,0,0,0,0,0],"id":25,"left_children":[1,3,5,7,9,11,13,15,17,19,21,23,25,27,-1,29,31,-1,-1,33,35,37,39,41,-1,-1,-1,43,45,-1,-1,-1,-1,-1,-1,-1,-1,-1,-1,-1,-1,-1,-1,-1,-1,-1,-1],"loss_changes":[8.511719E0,1.9465332E0,1.9101562E0,1.336792E0,1.6643066E0,3.310547E-1,1.7890625E0,7.124176E-1,5.2520752E-2,5.510254E-1,1.4151001E0,7.080078E-2,1.14868164E-1,6.870117E-1,0E0,7.317543E-3,3.4959412E-1,0E0,0E0,2.7661133E-1,1.9488525E-1,4.5707703E-2,3.7213135E-1,8.293457E-1,0E0,0E0,0E0,1.6601562E-1,1.854248E-1,0E0,0E0,0E0,0E0,0E0,0E0,0E0,0E0,0E0,0E0,0E0,0E0,0E0,0E0,0E0,0E0,0E0,0E0],"parents":[2147483647,0,0,1,1,2,2,3,3,4,4,5,5,6,6,7,7,8,8,9,9,10,10,11,11,12,12,13,13,15,15,16,16,19,19,20,20,21,21,22,22,23,23,27,27,28,28],"right_children":[2,4,6,8,10,12,14,16,18,20,22,24,26,28,-1,30,32,-1,-1,34,36,38,40,42,-1,-1,-1,44,46,-1,-1,-1,-1,-1,-1,-1,-1,-1,-1,-1,-1,-1,-1,-1,-1,-1,-1],"split_conditions":[-2.5471112E-1,-1.4682116E-1,-9.368012E-2,-3.199696E-1,-3.035228E-2,9.66E0,-9.257312E-2,2.0874217E-1,6.298473E-1,9.6379584E-1,2.9177478E-1,-1.9345625E-1,9.84E0,-4.1547626E-2,-1.6773601E-1,-5.795199E-1,9.31E0,-1.9409142E-1,-1.6509725E-1,-9.418906E-2,-5.557684E-2,9.77E0,9.84E0,1.1994799E0,-1.656234E-1,-1.4846532E-1,-1.7428E-1,5.339347E-1,5.448575E-1,-5.9168626E-2,-1.4564256E-1,-2.1656287E-1,-1.7750126E-1,-1.7905627E-1,-1.7246734E-1,-1.8294238E-1,-2.1420632E-1,-1.7087643E-1,-8.907525E-2,-1.9495995E-1,-7.523203E-2,-1.688864E-1,-2.1803363E-1,-1.6850159E-1,-1.7173105E-1,-1.7284216E-1,-1.7880745E-1],"split_indices":[5,1,1,5,1,2,5,3,3,3,3,5,2,1,0,5,2,0,0,1,1,2,2,3,0,0,0,3,3,0,0,0,0,0,0,0,0,0,0,0,0,0,0,0,0,0,0],"split_type":[0,0,0,0,0,0,0,0,0,0,0,0,0,0,0,0,0,0,0,0,0,0,0,0,0,0,0,0,0,0,0,0,0,0,0,0,0,0,0,0,0,0,0,0,0,0,0],"sum_hessian":[8.3598E4,9.503E3,7.4095E4,6.06E2,8.897E3,2.1537E4,5.2558E4,3.95E2,2.11E2,7.565E3,1.332E3,2.1179E4,3.58E2,2.3186E4,2.9372E4,2.2E1,3.73E2,5.5E1,1.56E2,7.059E3,5.06E2,3.89E2,9.43E2,1.742E3,1.9437E4,2.98E2,6E1,1.737E4,5.816E3,2E0,2E1,3.15E2,5.8E1,1.662E3,5.397E3,4.46E2,6E1,3.85E2,4E0,9.39E2,4E0,1.699E3,4.3E1,7.182E3,1.0188E4,3.76E3,2.056E3],"tree_param":{"num_deleted":"0","num_feature":"6","num_nodes":"47","size_leaf_vector":"1"}},{"base_weights":[5.9924895E-1,6.7859754E-2,1.1674191E0,-1.921745E-1,3.523736E-1,8.838489E-1,1.4614677E0,-3.198093E-1,-3.469527E-2,2.344277E-1,4.9101254E-1,7.496202E-1,1.0220146E0,1.2953013E0,1.6107719E0,-3.8962257E-1,-2.3488663E-1,-1.00781314E-1,3.594199E-2,1.7679076E-1,3.290681E-1,4.3420628E-1,5.60972E-1,6.968429E-1,8.508749E-1,9.4701827E-1,1.0925047E0,1.2299404E0,1.3656747E0,1.5457E0,1.7355663E0,-1.1904365E-1,4.7621712E-2,-7.938711E-2,-4.7345743E-2,-3.3722043E-2,7.7897005E-2,9.243282E-3,9.340398E-2,4.359004E-2,8.987045E-2,9.4440065E-2,1.8268174E-1,1.1503402E-1,1.463141E-1,1.6352937E-1,2.3732916E-1,2.0021547E-1,2.4195835E-1,2.5075412E-1,2.913917E-1,2.7565783E-1,2.9884192E-1,3.266539E-1,5.061137E-1,3.5636234E-1,3.7738562E-1,4.0173584E-1,4.2392352E-1,4.5266208E-1,4.850223E-1,3.861187E-2,5.221527E-1],"categories":[],"categories_nodes":[],"categories_segments":[],"categories_sizes":[],"default_left":[0,0,0,0,0,0,0,0,0,0,0,0,0,0,0,0,0,0,0,0,0,0,0,0,0,0,0,0,0,0,0,0,0,0,0,0,0,0,0,0,0,0,0,0,0,0,0,0,0,0,0,0,0,0,0,0,0,0,0,0,0,0,0],"id":26,"left_children":[1,3,5,7,9,11,13,15,17,19,21,23,25,27,29,31,33,35,37,39,41,43,45,47,49,51,53,55,57,59,61,-1,-1,-1,-1,-1,-1,-1,-1,-1,-1,-1,-1,-1,-1,-1,-1,-1,-1,-1,-1,-1,-1,-1,-1,-1,-1,-1,-1,-1,-1,-1,-1],"loss_changes":[2.5171852E4,3.187418E3,3.3583906E3,4.5243604E2,3.3629224E2,3.7968262E2,4.886172E2,7.362048E1,4.7049107E1,6.0588074E1,3.7335938E1,5.5032227E1,5.2390625E1,4.1399414E1,8.1884766E1,2.6958618E1,1.2819641E1,2.1847916E1,6.8751044E0,2.6680603E1,1.6607605E1,1.3998718E1,1.5035645E1,2.1588623E1,5.6345215E0,5.868164E0,9.47998E0,4.239746E0,3.774414E0,1.54921875E1,2.805957E1,0E0,0E0,0E0,0E0,0E0,0E0,0E0,0E0,0E0,0E0,0E0,0E0,0E0,0E0,0E0,0E0,0E0,0E0,0E0,0E0,0E0,0E0,0E0,0E0,0E0,0E0,0E0,0E0,0E0,0E0,0E0,0E0],"parents":[2147483647,0,0,1,1,2,2,3,3,4,4,5,5,6,6,7,7,8,8,9,9,10,10,11,11,12,12,13,13,14,14,15,15,16,16,17,17,18,18,19,19,20,20,21,21,22,22,23,23,24,24,25,25,26,26,27,27,28,28,29,29,30,30],"right_children":[2,4,6,8,10,12,14,16,18,20,22,24,26,28,30,32,34,36,38,40,42,44,46,48,50,52,54,56,58,60,62,-1,-1,-1,-1,-1,-1,-1,-1,-1,-1,-1,-1,-1,-1,-1,-1,-1,-1,-1,-1,-1,-1,-1,-1,-1,-1,-1,-1,-1,-1,-1,-1],"split_conditions":[4.78E0,2.6E0,7.1E0,1.57E0,3.77E0,5.93E0,8.24E0,9.9E-1,2.1E0,3.32E0,4.32E0,5.53E0,6.49E0,7.69E0,9.26E0,4.8398256E-2,-4.89617E-2,-5.4337075E-3,9.338691E-4,-4.1547626E-2,-1.6502185E-2,-6.788928E-2,-2.2283873E-2,-4.4134326E-2,-3.1638972E-2,-5.845848E-2,2.2810075E-2,7.34E0,8.07E0,8.9E0,6.923552E-2,-1.1904365E-1,4.7621712E-2,-7.938711E-2,-4.7345743E-2,-3.3722043E-2,7.7897005E-2,9.243282E-3,9.340398E-2,4.359004E-2,8.987045E-2,9.4440065E-2,1.8268174E-1,1.1503402E-1,1.463141E-1,1.6352937E-1,2.3732916E-1,2.0021547E-1,2.4195835E-1,2.5075412E-1,2.913917E-1,2.7565783E-1,2.9884192E-1,3.266539E-1,5.061137E-1,3.5636234E-1,3.7738562E-1,4.0173584E-1,4.2392352E-1,4.5266208E-1,4.850223E-1,3.861187E-2,5.221527E-1],"split_indices":[2,2,2,2,2,2,0,2,2,2,2,2,2,2,2,1,1,1,1,1,1,1,1,1,1,1,1,2,2,2,3,0,0,0,0,0,0,0,0,0,0,0,0,0,0,0,0,0,0,0,0,0,0,0,0,0,0,0,0,0,0,0,0],"split_type":[0,0,0,0,0,0,0,0,0,0,0,0,0,0,0,0,0,0,0,0,0,0,0,0,0,0,0,0,0,0,0,0,0,0,0,0,0,0,0,0,0,0,0,0,0,0,0,0,0,0,0,0,0,0,0,0,0,0,0,0,0,0,0],"sum_hessian":[8.3372E4,4.3081E4,4.0291E4,2.2509E4,2.0572E4,2.0513E4,1.9778E4,1.2432E4,1.0077E4,1.1117E4,9.455E3,1.0408E4,1.0105E4,9.365E3,1.0413E4,6.821E3,5.611E3,5.206E3,4.871E3,6.911E3,4.206E3,5.222E3,4.233E3,6.847E3,3.561E3,4.903E3,5.202E3,4.865E3,4.5E3,6.853E3,3.56E3,6.733E3,8.8E1,4.047E3,1.564E3,5.044E3,1.62E2,4.783E3,8.8E1,5.502E3,1.409E3,4.004E3,2.02E2,2.684E3,2.538E3,3.963E3,2.7E2,5.403E3,1.444E3,3.173E3,3.88E2,3.129E3,1.774E3,5.173E3,2.9E1,1.962E3,2.903E3,2.903E3,1.597E3,4.528E3,2.325E3,1.1E1,3.549E3],"tree_param":{"num_deleted":"0","num_feature":"6","num_nodes":"63","size_leaf_vector":"1"}},{"base_weights":[-5.173428E-1,-4.0673298E-1,-5.2561045E-1,-2.9437235E-1,-4.143113E-1,-4.7553906E-1,-5.2983874E-1,-2.637909E-1,-4.2210415E-1,-3.9350995E-1,-4.4551882E-1,-4.1895306E-1,-4.814007E-1,-5.0064754E-1,-5.331815E-1,-2.159885E-1,-3.3449134E-1,-1.6272786E-1,-5.0875884E-1,-3.4851572E-1,-4.034644E-1,-4.6204683E-1,-3.725288E-1,-2.882238E-1,-4.2484665E-1,-3.8896462E-1,-4.830089E-1,-5.070328E-1,-4.4112772E-1,-5.2497935E-1,-5.439402E-1,-1.3387606E-1,-5.1982302E-2,3.546905E-2,-1.0780677E-1,-7.28473E-2,3.3032134E-2,-7.337768E-2,-1.7456822E-1,-1.1673895E-1,-8.352707E-2,-1.21409245E-1,1.755213E-2,-7.7321455E-2,-1.3984482E-1,-1.5218157E-1,-1.0374915E-1,-3.558971E-2,-1.2240086E-1,-7.435172E-2,-1.2829968E-1,-1.31095E-1,-7.918665E-2,-1.4845677E-1,-1.4132394E-1,-1.4965862E-1,-1.579085E-1,-1.1424143E-1,-1.4126188E-1,-1.5353563E-1,-1.5865408E-1,-1.5714473E-1,-1.6396981E-1],"categories":[],"categories_nodes":[],"categories_segments":[],"categories_sizes":[],"default_left":[0,0,0,0,0,0,0,0,0,0,0,0,0,0,0,0,0,0,0,0,0,0,0,0,0,0,0,0,0,0,0,0,0,0,0,0,0,0,0,0,0,0,0,0,0,0,0,0,0,0,0,0,0,0,0,0,0,0,0,0,0,0,0],"id":27,"left_children":[1,3,5,7,9,11,13,15,17,19,21,23,25,27,29,31,33,35,37,39,41,43,45,47,49,51,53,55,57,59,61,-1,-1,-1,-1,-1,-1,-1,-1,-1,-1,-1,-1,-1,-1,-1,-1,-1,-1,-1,-1,-1,-1,-1,-1,-1,-1,-1,-1,-1,-1,-1,-1],"loss_changes":[7.62168E1,4.831238E0,1.6210938E1,1.3378639E0,3.3607178E0,1.8099365E0,6.7285156E0,9.484081E-1,1.4905434E0,1.3270874E0,2.44693E0,3.2209778E-1,6.2805176E-1,2.5823975E0,5.388672E0,1.7225857E0,1.3932943E0,4.419459E-1,8.6230755E-1,1.6025391E0,1.548645E0,1.3601074E0,1.2851181E0,5.203757E-1,1.6845703E-1,4.7893143E-1,5.288086E-1,7.894287E-1,1.117981E0,1.5927734E0,1.1826172E0,0E0,0E0,0E0,0E0,0E0,0E0,0E0,0E0,0E0,0E0,0E0,0E0,0E0,0E0,0E0,0E0,0E0,0E0,0E0,0E0,0E0,0E0,0E0,0E0,0E0,0E0,0E0,0E0,0E0,0E0,0E0,0E0],"parents":[2147483647,0,0,1,1,2,2,3,3,4,4,5,5,6,6,7,7,8,8,9,9,10,10,11,11,12,12,13,13,14,14,15,15,16,16,17,17,18,18,19,19,20,20,21,21,22,22,23,23,24,24,25,25,26,26,27,27,28,28,29,29,30,30],"right_children":[2,4,6,8,10,12,14,16,18,20,22,24,26,28,30,32,34,36,38,40,42,44,46,48,50,52,54,56,58,60,62,-1,-1,-1,-1,-1,-1,-1,-1,-1,-1,-1,-1,-1,-1,-1,-1,-1,-1,-1,-1,-1,-1,-1,-1,-1,-1,-1,-1,-1,-1,-1,-1],"split_conditions":[-3.0743527E-1,-1.5142943E-1,-1.4456849E-1,9.1E0,-3.60791E-1,-2.4308984E-1,-2.1414363E-1,7.943513E-1,-4.563893E-1,-5.1445764E-1,-3.6220454E-2,-2.2190328E-1,-2.8026322E-1,-2.598648E-2,-6.196827E-2,-2.7094162E-1,-2.7094162E-1,-1.6229618E-1,5.2626276E-1,-5.0027195E-2,4.8398256E-2,1.6684204E-1,2.324745E-1,3.9836493E-1,6.923552E-2,-1.5944245E-1,-9.007246E-2,6.9815904E-1,-2.7097505E-1,-1.0888631E-1,2.7085906E-1,-1.3387606E-1,-5.1982302E-2,3.546905E-2,-1.0780677E-1,-7.28473E-2,3.3032134E-2,-7.337768E-2,-1.7456822E-1,-1.1673895E-1,-8.352707E-2,-1.21409245E-1,1.755213E-2,-7.7321455E-2,-1.3984482E-1,-1.5218157E-1,-1.0374915E-1,-3.558971E-2,-1.2240086E-1,-7.435172E-2,-1.2829968E-1,-1.31095E-1,-7.918665E-2,-1.4845677E-1,-1.4132394E-1,-1.4965862E-1,-1.579085E-1,-1.1424143E-1,-1.4126188E-1,-1.5353563E-1,-1.5865408E-1,-1.5714473E-1,-1.6396981E-1],"split_indices":[5,1,1,2,5,1,5,3,5,5,1,5,5,1,1,1,1,1,3,1,1,3,3,3,3,1,5,3,5,1,3,0,0,0,0,0,0,0,0,0,0,0,0,0,0,0,0,0,0,0,0,0,0,0,0,0,0,0,0,0,0,0,0],"split_type":[0,0,0,0,0,0,0,0,0,0,0,0,0,0,0,0,0,0,0,0,0,0,0,0,0,0,0,0,0,0,0,0,0,0,0,0,0,0,0,0,0,0,0,0,0,0,0,0,0,0,0,0,0,0,0,0,0,0,0,0,0,0,0],"sum_hessian":[8.3576E4,5.816E3,7.776E4,3.7E2,5.446E3,6.064E3,7.1696E4,3.01E2,6.9E1,3.276E3,2.17E3,5.76E2,5.488E3,7.382E3,6.4314E4,1.82E2,1.19E2,1.8E1,5.1E1,6E2,2.676E3,1.765E3,4.05E2,2.7E1,5.49E2,9.8E1,5.39E3,6.66E3,7.22E2,3.6521E4,2.7793E4,2.7E1,1.55E2,6E0,1.13E2,1.4E1,4E0,1.2E1,3.9E1,3.77E2,2.23E2,2.669E3,7E0,3.6E1,1.729E3,6.4E1,3.41E2,1.2E1,1.5E1,1E1,5.39E2,6.9E1,2.9E1,2.684E3,2.706E3,4.7E3,1.96E3,2.43E2,4.79E2,8.309E3,2.8212E4,3.231E3,2.4562E4],"tree_param":{"num_deleted":"0","num_feature":"6","num_nodes":"63","size_leaf_vector":"1"}},{"base_weights":[6.1225057E-1,6.424467E-2,1.1661627E0,-2.3072605E-1,3.0306107E-1,8.842318E-1,1.4713287E0,-3.785009E-1,-1.4005534E-1,1.5812476E-1,4.52987E-1,7.4327385E-1,1.0246117E0,1.3163252E0,1.6315513E0,-9.1252066E-2,-3.8853657E-1,-2.1324997E-1,-7.4770816E-2,7.797646E-2,2.2799376E-1,3.9031154E-1,5.204405E-1,6.7579156E-1,8.2295454E-1,9.683506E-1,1.119631E0,1.2484031E0,1.3983186E0,1.5446776E0,1.717685E0,-8.8885926E-2,8.350306E-3,-1.4803255E-1,-1.0316991E-1,-6.552343E-2,4.0024973E-2,1.6489988E-2,-2.4671167E-2,2.1614151E-2,1.8667498E-1,6.7456454E-2,2.6944122E-1,1.1554065E-1,3.3636555E-1,1.5522754E-1,2.9646686E-1,2.0130473E-1,4.158568E-1,2.790159E-1,2.4167877E-1,2.7725485E-1,3.0519235E-1,3.5454088E-1,3.3080354E-1,3.6234295E-1,3.8778368E-1,4.0891632E-1,4.2708334E-1,3.278665E-1,4.6422997E-1,2.3346478E-1,5.163537E-1],"categories":[],"categories_nodes":[],"categories_segments":[],"categories_sizes":[],"default_left":[0,0,0,0,0,0,0,0,0,0,0,0,0,0,0,0,0,0,0,0,0,0,0,0,0,0,0,0,0,0,0,0,0,0,0,0,0,0,0,0,0,0,0,0,0,0,0,0,0,0,0,0,0,0,0,0,0,0,0,0,0,0,0],"id":28,"left_children":[1,3,5,7,9,11,13,15,17,19,21,23,25,27,29,31,33,35,37,39,41,43,45,47,49,51,53,55,57,59,61,-1,-1,-1,-1,-1,-1,-1,-1,-1,-1,-1,-1,-1,-1,-1,-1,-1,-1,-1,-1,-1,-1,-1,-1,-1,-1,-1,-1,-1,-1,-1,-1],"loss_changes":[2.5308168E4,2.9525122E3,3.566082E3,2.5120227E2,5.032102E2,4.2576367E2,4.923203E2,2.0518433E1,5.552426E1,6.593762E1,4.792456E1,5.729541E1,5.6634766E1,5.464258E1,7.0572266E1,5.9171133E0,3.208911E1,9.832748E0,5.957012E0,1.7662563E1,1.3033417E1,2.190802E1,7.218628E0,1.8852783E1,8.4140625E0,1.3739746E1,2.9223633E0,8.393555E0,2.1425781E0,4.3867188E0,1.4760742E1,0E0,0E0,0E0,0E0,0E0,0E0,0E0,0E0,0E0,0E0,0E0,0E0,0E0,0E0,0E0,0E0,0E0,0E0,0E0,0E0,0E0,0E0,0E0,0E0,0E0,0E0,0E0,0E0,0E0,0E0,0E0,0E0],"parents":[2147483647,0,0,1,1,2,2,3,3,4,4,5,5,6,6,7,7,8,8,9,9,10,10,11,11,12,12,13,13,14,14,15,15,16,16,17,17,18,18,19,19,20,20,21,21,22,22,23,23,24,24,25,25,26,26,27,27,28,28,29,29,30,30],"right_children":[2,4,6,8,10,12,14,16,18,20,22,24,26,28,30,32,34,36,38,40,42,44,46,48,50,52,54,56,58,60,62,-1,-1,-1,-1,-1,-1,-1,-1,-1,-1,-1,-1,-1,-1,-1,-1,-1,-1,-1,-1,-1,-1,-1,-1,-1,-1,-1,-1,-1,-1,-1,-1],"split_conditions":[4.71E0,2.27E0,7.14E0,1.06E0,3.5E0,5.9E0,8.41E0,2.9E-1,1.63E0,2.84E0,4.04E0,5.34E0,6.68E0,7.81E0,9.09E0,-1.4032096E-1,5.8E-1,1.0307372E-2,2.462997E-1,1.0307372E-2,5.0086007E-2,2.2319753E-2,2.2319753E-2,2.2319753E-2,3.5886145E-1,6.3E0,4.26965E-1,7.49E0,8.06E0,1.0622298E-1,6.923552E-2,-8.8885926E-2,8.350306E-3,-1.4803255E-1,-1.0316991E-1,-6.552343E-2,4.0024973E-2,1.6489988E-2,-2.4671167E-2,2.1614151E-2,1.8667498E-1,6.7456454E-2,2.6944122E-1,1.1554065E-1,3.3636555E-1,1.5522754E-1,2.9646686E-1,2.0130473E-1,4.158568E-1,2.790159E-1,2.4167877E-1,2.7725485E-1,3.0519235E-1,3.5454088E-1,3.3080354E-1,3.6234295E-1,3.8778368E-1,4.0891632E-1,4.2708334E-1,3.278665E-1,4.6422997E-1,2.3346478E-1,5.163537E-1],"split_indices":[4,4,4,4,4,4,4,0,4,4,0,4,4,4,4,5,4,5,3,5,5,5,5,5,3,4,3,4,4,3,3,0,0,0,0,0,0,0,0,0,0,0,0,0,0,0,0,0,0,0,0,0,0,0,0,0,0,0,0,0,0,0,0],"split_type":[0,0,0,0,0,0,0,0,0,0,0,0,0,0,0,0,0,0,0,0,0,0,0,0,0,0,0,0,0,0,0,0,0,0,0,0,0,0,0,0,0,0,0,0,0,0,0,0,0,0,0,0,0,0,0,0,0,0,0,0,0,0,0],"sum_hessian":[8.3374E4,4.1911E4,4.1463E4,1.8751E4,2.316E4,2.1554E4,1.9909E4,7.129E3,1.1622E4,1.1777E4,1.1383E4,1.0758E4,1.0796E4,1.0124E4,9.785E3,2.41E2,6.888E3,5.478E3,6.144E3,5.486E3,6.291E3,5.904E3,5.479E3,5.83E3,4.928E3,6.788E3,4.008E3,5.546E3,4.578E3,4.881E3,4.904E3,8.8E1,1.53E2,2.053E3,4.835E3,5.398E3,8E1,3.34E2,5.81E3,5.428E3,5.8E1,6.263E3,2.8E1,5.864E3,4E1,5.446E3,3.3E1,5.793E3,3.7E1,6.8E2,4.248E3,3.579E3,3.209E3,8.44E2,3.164E3,2.906E3,2.64E3,1.935E3,2.643E3,3.2E1,4.849E3,1.9E1,4.885E3],"tree_param":{"num_deleted":"0","num_feature":"6","num_nodes":"63","size_leaf_vector":"1"}},{"base_weights":[-7.1933275E-1,-5.981398E-1,-7.5506914E-1,-5.23198E-1,-6.291544E-1,-6.982815E-1,-7.65167E-1,-5.054674E-1,-5.553696E-1,-5.96926E-1,-6.4261144E-1,-6.7310333E-1,-7.253033E-1,-7.483176E-1,-7.911616E-1,-4.968446E-1,-5.4546094E-1,-5.4574233E-1,-6.10374E-1,-5.7831514E-1,-6.207673E-1,-6.1960113E-1,-6.587293E-1,-5.423134E-1,-2.027217E-1,-7.082669E-1,-7.545313E-1,-7.1561146E-1,-7.595297E-1,-7.898665E-1,-1.0154115E0,-1.5195362E-1,-1.4162062E-1,-1.6547126E-1,-1.1838535E-1,-1.6102168E-1,-1.7804849E-1,-1.7763525E-2,-1.8363187E-1,-1.7136945E-1,-1.8702835E-1,-1.23939455E-1,-1.8684983E-1,-1.8075718E-1,-1.896239E-1,-2.3546016E-1,-1.9717668E-1,-4.6501294E-2,-1.6336413E-1,-2.0016357E-1,-2.1526851E-1,-2.229121E-1,-2.3955555E-1,-2.091967E-1,-2.1648756E-1,-2.2384074E-1,-2.3329686E-1,-2.3457707E-1,-2.4473792E-1,-3.2653958E-1,-2.2095123E-1],"categories":[],"categories_nodes":[],"categories_segments":[],"categories_sizes":[],"default_left":[0,0,0,0,0,0,0,0,0,0,0,0,0,0,0,0,0,0,0,0,0,0,0,0,0,0,0,0,0,0,0,0,0,0,0,0,0,0,0,0,0,0,0,0,0,0,0,0,0,0,0,0,0,0,0,0,0,0,0,0,0],"id":29,"left_children":[1,3,5,7,9,11,13,15,17,19,21,23,25,27,29,31,33,35,37,39,41,43,45,47,-1,49,51,53,55,57,59,-1,-1,-1,-1,-1,-1,-1,-1,-1,-1,-1,-1,-1,-1,-1,-1,-1,-1,-1,-1,-1,-1,-1,-1,-1,-1,-1,-1,-1,-1],"loss_changes":[3.6117578E2,4.3876465E1,3.64375E1,2.8983154E0,5.4487305E0,6.142578E0,2.338086E1,9.7180176E-1,7.1014404E-1,1.4046631E0,3.1047363E0,1.3774414E0,1.8000488E0,1.1642578E1,5.444336E0,4.7369385E-1,3.620453E-1,4.0634155E-1,2.358551E-1,3.619995E-1,4.8425293E-1,4.5422363E-1,5.1708984E-1,6.4296722E-3,0E0,6.5771484E-1,2.7148438E-1,4.3115234E-1,5.4228516E0,3.7675781E0,1.6433716E0,0E0,0E0,0E0,0E0,0E0,0E0,0E0,0E0,0E0,0E0,0E0,0E0,0E0,0E0,0E0,0E0,0E0,0E0,0E0,0E0,0E0,0E0,0E0,0E0,0E0,0E0,0E0,0E0,0E0,0E0],"parents":[2147483647,0,0,1,1,2,2,3,3,4,4,5,5,6,6,7,7,8,8,9,9,10,10,11,11,12,12,13,13,14,14,15,15,16,16,17,17,18,18,19,19,20,20,21,21,22,22,23,23,25,25,26,26,27,27,28,28,29,29,30,30],"right_children":[2,4,6,8,10,12,14,16,18,20,22,24,26,28,30,32,34,36,38,40,42,44,46,48,-1,50,52,54,56,58,60,-1,-1,-1,-1,-1,-1,-1,-1,-1,-1,-1,-1,-1,-1,-1,-1,-1,-1,-1,-1,-1,-1,-1,-1,-1,-1,-1,-1,-1,-1],"split_conditions":[-1.7667738E-1,-3.1343535E-1,-1.302232E-1,-3.60791E-1,-2.5471112E-1,6.3563E-1,7.216658E-1,8.014635E-1,8.4109724E-1,5.978884E-1,5.070628E-1,1.3278139E-1,9.175832E-1,-8.873049E-2,5.0086007E-2,6.1134464E-1,1.2184628E0,8.19E0,2.9E-1,8.42E0,3.8E-1,-2.1656163E-1,3.3E-1,3.8E-1,-2.027217E-1,-1.6554214E-1,1.1536474E0,3.8456178E-1,5.448575E-1,1.0130205E0,8.24E0,-1.5195362E-1,-1.4162062E-1,-1.6547126E-1,-1.1838535E-1,-1.6102168E-1,-1.7804849E-1,-1.7763525E-2,-1.8363187E-1,-1.7136945E-1,-1.8702835E-1,-1.23939455E-1,-1.8684983E-1,-1.8075718E-1,-1.896239E-1,-2.3546016E-1,-1.9717668E-1,-4.6501294E-2,-1.6336413E-1,-2.0016357E-1,-2.1526851E-1,-2.229121E-1,-2.3955555E-1,-2.091967E-1,-2.1648756E-1,-2.2384074E-1,-2.3329686E-1,-2.3457707E-1,-2.4473792E-1,-3.2653958E-1,-2.2095123E-1],"split_indices":[5,5,5,5,5,3,3,3,3,3,3,3,3,5,5,3,3,0,0,0,2,5,0,2,0,5,3,3,3,3,0,0,0,0,0,0,0,0,0,0,0,0,0,0,0,0,0,0,0,0,0,0,0,0,0,0,0,0,0,0,0],"split_type":[0,0,0,0,0,0,0,0,0,0,0,0,0,0,0,0,0,0,0,0,0,0,0,0,0,0,0,0,0,0,0,0,0,0,0,0,0,0,0,0,0,0,0,0,0,0,0,0,0,0,0,0,0,0,0,0,0,0,0,0,0],"sum_hessian":[8.3496E4,1.9018E4,6.4478E4,5.572E3,1.3446E4,9.745E3,5.4733E4,3.603E3,1.969E3,3.974E3,9.472E3,5.058E3,4.687E3,3.3226E4,2.1507E4,2.975E3,6.28E2,1.685E3,2.84E2,2.246E3,1.728E3,3.918E3,5.554E3,1.04E2,4.954E3,2.977E3,1.71E3,8.499E3,2.4727E4,2.1388E4,1.19E2,2.126E3,8.49E2,6.01E2,2.7E1,1.428E3,2.57E2,1E0,2.83E2,1.953E3,2.93E2,1.9E1,1.709E3,1.675E3,2.243E3,5.8E1,5.496E3,1E0,1.03E2,5.63E2,2.414E3,1.37E3,3.4E2,2.132E3,6.367E3,1.4244E4,1.0483E4,1.6396E4,4.992E3,9.2E1,2.7E1],"tree_param":{"num_deleted":"0","num_feature":"6","num_nodes":"61","size_leaf_vector":"1"}},{"base_weights":[4.127824E-1,5.2355774E-2,8.276836E-1,-1.4370742E-1,2.5192803E-1,6.514241E-1,1.045063E0,-2.6207033E-1,-5.7959713E-2,1.3974017E-1,3.4060225E-1,5.453801E-1,7.4678516E-1,9.593845E-1,1.1645232E0,-3.354266E-1,-2.32639E-1,-1.04719296E-1,2.9662493E-4,8.7457195E-2,1.8041736E-1,2.78999E-1,3.862268E-1,5.06439E-1,5.930641E-1,6.885267E-1,7.9634786E-1,9.1164625E-1,1.0110623E0,1.1200471E0,1.2413243E0,-4.359472E-2,-1.10651836E-1,-7.137806E-2,7.893022E-3,1.25004435E-2,-3.4012638E-2,-1.2185303E-3,8.615871E-2,2.4767091E-2,1.4066151E-1,5.3514984E-2,2.1834524E-1,8.240763E-2,3.508604E-1,1.1429897E-1,1.7288205E-1,1.8016255E-1,1.4643036E-1,2.0770362E-1,1.7294902E-1,2.2573684E-1,2.0098968E-1,2.6102984E-1,2.3486993E-1,2.6303267E-1,2.794919E-1,3.3276457E-1,3.020522E-1,1.8421903E-1,3.3640444E-1,3.6411816E-1,3.9557922E-1],"categories":[],"categories_nodes":[],"categories_segments":[],"categories_sizes":[],"default_left":[0,0,0,0,0,0,0,0,0,0,0,0,0,0,0,0,0,0,0,0,0,0,0,0,0,0,0,0,0,0,0,0,0,0,0,0,0,0,0,0,0,0,0,0,0,0,0,0,0,0,0,0,0,0,0,0,0,0,0,0,0,0,0],"id":30,"left_children":[1,3,5,7,9,11,13,15,17,19,21,23,25,27,29,31,33,35,37,39,41,43,45,47,49,51,53,55,57,59,61,-1,-1,-1,-1,-1,-1,-1,-1,-1,-1,-1,-1,-1,-1,-1,-1,-1,-1,-1,-1,-1,-1,-1,-1,-1,-1,-1,-1,-1,-1,-1,-1],"loss_changes":[1.2467826E4,1.7458446E3,1.4843379E3,2.2841617E2,2.1991638E2,2.1606055E2,1.7649414E2,2.0335022E1,3.5556953E1,2.0747421E1,3.4600586E1,1.8526611E1,3.1987793E1,2.402246E1,2.3350586E1,1.7128967E1,9.250305E0,9.180183E0,7.269851E0,7.949463E0,5.983017E0,1.9845581E1,6.829956E0,9.3498535E0,7.088257E0,5.650635E0,5.35083E0,2.8544922E0,8.911133E-1,2.3374023E0,4.0441895E0,0E0,0E0,0E0,0E0,0E0,0E0,0E0,0E0,0E0,0E0,0E0,0E0,0E0,0E0,0E0,0E0,0E0,0E0,0E0,0E0,0E0,0E0,0E0,0E0,0E0,0E0,0E0,0E0,0E0,0E0,0E0,0E0],"parents":[2147483647,0,0,1,1,2,2,3,3,4,4,5,5,6,6,7,7,8,8,9,9,10,10,11,11,12,12,13,13,14,14,15,15,16,16,17,17,18,18,19,19,20,20,21,21,22,22,23,23,24,24,25,25,26,26,27,27,28,28,29,29,30,30],"right_children":[2,4,6,8,10,12,14,16,18,20,22,24,26,28,30,32,34,36,38,40,42,44,46,48,50,52,54,56,58,60,62,-1,-1,-1,-1,-1,-1,-1,-1,-1,-1,-1,-1,-1,-1,-1,-1,-1,-1,-1,-1,-1,-1,-1,-1,-1,-1,-1,-1,-1,-1,-1,-1],"split_conditions":[4.92E0,2.6E0,7.41E0,1.26E0,3.63E0,6.04E0,8.71E0,5.8E-1,2E0,3.04E0,4.19E0,5.57E0,6.64E0,8.07E0,9.43E0,3.5E-1,1.0307372E-2,2.462997E-1,2.8495886E-3,1.0307372E-2,5.0086007E-2,2.2319753E-2,-9.6136145E-3,3.8119897E-1,3.5886145E-1,4.26965E-1,3.7035617E-1,7.65E0,2.2482777E-1,6.923552E-2,9.73E0,-4.359472E-2,-1.10651836E-1,-7.137806E-2,7.893022E-3,1.25004435E-2,-3.4012638E-2,-1.2185303E-3,8.615871E-2,2.4767091E-2,1.4066151E-1,5.3514984E-2,2.1834524E-1,8.240763E-2,3.508604E-1,1.1429897E-1,1.7288205E-1,1.8016255E-1,1.4643036E-1,2.0770362E-1,1.7294902E-1,2.2573684E-1,2.0098968E-1,2.6102984E-1,2.3486993E-1,2.6303267E-1,2.794919E-1,3.3276457E-1,3.020522E-1,1.8421903E-1,3.3640444E-1,3.6411816E-1,3.9557922E-1],"split_indices":[0,2,2,2,2,0,2,2,2,2,2,2,0,2,2,2,5,3,5,5,5,5,5,3,3,3,3,2,3,3,0,0,0,0,0,0,0,0,0,0,0,0,0,0,0,0,0,0,0,0,0,0,0,0,0,0,0,0,0,0,0,0,0],"split_type":[0,0,0,0,0,0,0,0,0,0,0,0,0,0,0,0,0,0,0,0,0,0,0,0,0,0,0,0,0,0,0,0,0,0,0,0,0,0,0,0,0,0,0,0,0,0,0,0,0,0,0,0,0,0,0,0,0,0,0,0,0,0,0],"sum_hessian":[8.3373E4,4.4616E4,3.8757E4,2.2506E4,2.211E4,2.1405E4,1.7352E4,9.454E3,1.3052E4,9.762E3,1.2348E4,1.0138E4,1.1267E4,1.011E4,7.242E3,2.704E3,6.75E3,7.24E3,5.812E3,4.273E3,5.489E3,5.257E3,7.091E3,5.587E3,4.551E3,5.186E3,6.081E3,5.265E3,4.845E3,4.596E3,2.646E3,4.05E2,2.299E3,6.615E3,1.35E2,4.04E2,6.836E3,5.726E3,8.6E1,4.22E3,5.3E1,5.47E3,1.9E1,5.233E3,2.4E1,6.904E3,1.87E2,9.06E2,4.681E3,6.45E2,3.906E3,1.158E3,4.028E3,9.28E2,5.153E3,1.935E3,3.33E3,1.89E2,4.656E3,1.3E1,4.583E3,1.962E3,6.84E2],"tree_param":{"num_deleted":"0","num_feature":"6","num_nodes":"63","size_leaf_vector":"1"}},{"base_weights":[-3.9586964E-1,-4.1678545E-1,-3.9316732E-1,-4.159374E-1,-5.725592E-1,-3.999159E-1,-3.9079022E-1,-4.0397504E-1,-4.2502487E-1,-7.5152886E-1,-4.1149157E-1,-3.894698E-1,-4.0217036E-1,-3.9314336E-1,-1.1670757E-1,-4.048687E-1,-3.1606546E-1,-4.4394356E-1,-4.187071E-1,-4.2985447E-2,-2.4155672E-1,-7.3176466E-2,-1.3383155E-1,-1.2345346E-1,-3.8689196E-1,-4.0290055E-1,-3.6697134E-1,-3.9669746E-1,-1.16536774E-1,-1.1650138E-1,-1.2260361E-1,-2.5494808E-2,-9.7391345E-2,-1.2502119E-1,-1.3939402E-1,-1.3894427E-1,-1.2513418E-1,-1.1291803E-1,-1.17876366E-1,-1.2246931E-1,-1.1987795E-1,-1.01230174E-1,-1.19796835E-1,-1.19147755E-1,-1.0942633E-1],"categories":[],"categories_nodes":[],"categories_segments":[],"categories_sizes":[],"default_left":[0,0,0,0,0,0,0,0,0,0,0,0,0,0,0,0,0,0,0,0,0,0,0,0,0,0,0,0,0,0,0,0,0,0,0,0,0,0,0,0,0,0,0,0,0],"id":31,"left_children":[1,3,5,7,9,11,13,15,17,19,21,23,25,27,-1,29,31,33,35,-1,-1,-1,-1,-1,37,39,41,43,-1,-1,-1,-1,-1,-1,-1,-1,-1,-1,-1,-1,-1,-1,-1,-1,-1],"loss_changes":[4.5566406E0,1.0220947E0,1.0302734E0,8.601074E-1,1.1032372E0,2.9614258E-1,7.519531E-2,1.9555664E-1,4.5654297E-1,6.0267544E-1,5.3590775E-2,3.6499023E-2,2.578125E-1,2.3535156E-1,0E0,9.777832E-2,6.3533306E-2,5.5493164E-1,9.338379E-2,0E0,0E0,0E0,0E0,0E0,4.840088E-2,1.09375E-1,1.8250656E-1,5.053711E-2,0E0,0E0,0E0,0E0,0E0,0E0,0E0,0E0,0E0,0E0,0E0,0E0,0E0,0E0,0E0,0E0,0E0],"parents":[2147483647,0,0,1,1,2,2,3,3,4,4,5,5,6,6,7,7,8,8,9,9,10,10,11,11,12,12,13,13,15,15,16,16,17,17,18,18,24,24,25,25,26,26,27,27],"right_children":[2,4,6,8,10,12,14,16,18,20,22,24,26,28,-1,30,32,34,36,-1,-1,-1,-1,-1,38,40,42,44,-1,-1,-1,-1,-1,-1,-1,-1,-1,-1,-1,-1,-1,-1,-1,-1,-1],"split_conditions":[-2.5471112E-1,1.2402105E0,-1.302232E-1,5.070628E-1,-3.5074374E-1,3.6292976E-1,-7.636579E-2,9.73E0,-4.0626588E-1,5.6E-1,-3.3483768E-1,1.08E0,9.61E0,7.460479E-1,-1.1670757E-1,2.324745E-1,1.0622298E-1,-4.7977656E-1,5.8E-1,-4.2985447E-2,-2.4155672E-1,-7.3176466E-2,-1.3383155E-1,-1.2345346E-1,-1.9818948E-1,-1.8907678E-1,9.77E0,9.66E0,-1.16536774E-1,-1.1650138E-1,-1.2260361E-1,-2.5494808E-2,-9.7391345E-2,-1.2502119E-1,-1.3939402E-1,-1.3894427E-1,-1.2513418E-1,-1.1291803E-1,-1.17876366E-1,-1.2246931E-1,-1.1987795E-1,-1.01230174E-1,-1.19796835E-1,-1.19147755E-1,-1.0942633E-1],"split_indices":[5,3,5,3,5,3,5,0,5,0,5,0,0,3,0,3,3,5,2,0,0,0,0,0,5,5,2,2,0,0,0,0,0,0,0,0,0,0,0,0,0,0,0,0,0],"split_type":[0,0,0,0,0,0,0,0,0,0,0,0,0,0,0,0,0,0,0,0,0,0,0,0,0,0,0,0,0,0,0,0,0,0,0,0,0,0,0,0,0,0,0,0,0],"sum_hessian":[8.3523E4,9.539E3,7.3984E4,9.491E3,4.8E1,1.9228E4,5.4756E4,4.117E3,5.374E3,2.1E1,2.7E1,3.444E3,1.5784E4,2.3373E4,3.1383E4,4.072E3,4.5E1,1.328E3,4.046E3,2E0,1.9E1,6E0,2.1E1,3.44E2,3.1E3,1.5453E4,3.31E2,1.3246E4,1.0127E4,7.82E2,3.29E3,2E0,4.3E1,5.83E2,7.45E2,1.3E2,3.916E3,1.154E3,1.946E3,5.87E3,9.583E3,1.79E2,1.52E2,1.3046E4,2E2],"tree_param":{"num_deleted":"0","num_feature":"6","num_nodes":"45","size_leaf_vector":"1"}},{"base_weights":[4.226383E-1,6.837839E-2,8.4353E-1,-1.2603797E-1,2.7685654E-1,6.7273754E-1,1.0553585E0,-2.2695675E-1,-1.888061E-2,1.8484129E-1,3.8409048E-1,5.7803386E-1,7.7117753E-1,9.632928E-1,1.1638749E0,-3.2814014E-1,-1.897073E-1,-6.522478E-2,3.442227E-2,1.1805577E-1,2.2723693E-1,3.316848E-1,4.168476E-1,5.305539E-1,6.2180054E-1,7.192391E-1,8.2436997E-1,9.1964257E-1,1.0126657E0,1.1174498E0,1.2523346E0,-4.1824967E-2,-1.06413074E-1,-6.709938E-2,-4.5776386E-2,-3.419159E-2,-1.4613264E-2,1.8722261E-3,1.6678812E-2,5.85637E-2,3.1204475E-2,1.4854248E-1,6.733724E-2,1.4236292E-1,9.6979976E-2,1.4925942E-1,1.2140595E-1,1.8333067E-1,1.5571402E-1,2.0890711E-1,1.8236195E-1,2.365107E-1,2.0978318E-1,2.6392317E-1,2.4406739E-1,2.6588959E-1,2.7980268E-1,2.938586E-1,3.0797827E-1,1.8898316E-1,3.3614582E-1,3.656121E-1,4.0333256E-1],"categories":[],"categories_nodes":[],"categories_segments":[],"categories_sizes":[],"default_left":[0,0,0,0,0,0,0,0,0,0,0,0,0,0,0,0,0,0,0,0,0,0,0,0,0,0,0,0,0,0,0,0,0,0,0,0,0,0,0,0,0,0,0,0,0,0,0,0,0,0,0,0,0,0,0,0,0,0,0,0,0,0,0],"id":32,"left_children":[1,3,5,7,9,11,13,15,17,19,21,23,25,27,29,31,33,35,37,39,41,43,45,47,49,51,53,55,57,59,61,-1,-1,-1,-1,-1,-1,-1,-1,-1,-1,-1,-1,-1,-1,-1,-1,-1,-1,-1,-1,-1,-1,-1,-1,-1,-1,-1,-1,-1,-1,-1,-1],"loss_changes":[1.2427997E4,1.8344529E3,1.3774453E3,2.5326407E2,2.1542786E2,1.961875E2,1.6874023E2,4.5395996E1,2.8064602E1,3.3259277E1,1.7174194E1,2.2017334E1,2.7970703E1,1.8904297E1,3.0629883E1,1.6217285E1,1.1080688E1,4.886469E0,3.1526628E0,4.927334E0,5.242798E0,4.517517E0,5.8841553E0,4.470215E0,5.3811035E0,6.6779785E0,2.338379E0,1.3007812E0,9.8339844E-1,6.878418E0,6.6503906E0,0E0,0E0,0E0,0E0,0E0,0E0,0E0,0E0,0E0,0E0,0E0,0E0,0E0,0E0,0E0,0E0,0E0,0E0,0E0,0E0,0E0,0E0,0E0,0E0,0E0,0E0,0E0,0E0,0E0,0E0,0E0,0E0],"parents":[2147483647,0,0,1,1,2,2,3,3,4,4,5,5,6,6,7,7,8,8,9,9,10,10,11,11,12,12,13,13,14,14,15,15,16,16,17,17,18,18,19,19,20,20,21,21,22,22,23,23,24,24,25,25,26,26,27,27,28,28,29,29,30,30],"right_children":[2,4,6,8,10,12,14,16,18,20,22,24,26,28,30,32,34,36,38,40,42,44,46,48,50,52,54,56,58,60,62,-1,-1,-1,-1,-1,-1,-1,-1,-1,-1,-1,-1,-1,-1,-1,-1,-1,-1,-1,-1,-1,-1,-1,-1,-1,-1,-1,-1,-1,-1,-1,-1],"split_conditions":[5.03E0,2.74E0,7.49E0,1.57E0,3.98E0,6.23E0,8.67E0,6.8E-1,2.2E0,3.22E0,4.39E0,5.64E0,6.83E0,8.1E0,9.43E0,3.5E-1,1.13E0,1.73E0,2.43E0,3.6662683E-1,3.14E0,2.397077E-1,3.427074E-1,3.427074E-1,3.7768316E-1,4.26965E-1,3.7415257E-1,7.62E0,8.19E0,1.0622298E-1,9.77E0,-4.1824967E-2,-1.06413074E-1,-6.709938E-2,-4.5776386E-2,-3.419159E-2,-1.4613264E-2,1.8722261E-3,1.6678812E-2,5.85637E-2,3.1204475E-2,1.4854248E-1,6.733724E-2,1.4236292E-1,9.6979976E-2,1.4925942E-1,1.2140595E-1,1.8333067E-1,1.5571402E-1,2.0890711E-1,1.8236195E-1,2.365107E-1,2.0978318E-1,2.6392317E-1,2.4406739E-1,2.6588959E-1,2.7980268E-1,2.938586E-1,3.0797827E-1,1.8898316E-1,3.3614582E-1,3.656121E-1,4.0333256E-1],"split_indices":[2,4,4,4,4,2,4,4,4,4,4,4,2,4,2,2,4,4,4,3,0,3,3,3,3,3,3,2,0,3,2,0,0,0,0,0,0,0,0,0,0,0,0,0,0,0,0,0,0,0,0,0,0,0,0,0,0,0,0,0,0,0,0],"split_type":[0,0,0,0,0,0,0,0,0,0,0,0,0,0,0,0,0,0,0,0,0,0,0,0,0,0,0,0,0,0,0,0,0,0,0,0,0,0,0,0,0,0,0,0,0,0,0,0,0,0,0,0,0,0,0,0,0,0,0,0,0,0,0],"sum_hessian":[8.335E4,4.5258E4,3.8092E4,2.3419E4,2.1839E4,2.1091E4,1.7001E4,1.206E4,1.1359E4,1.1755E4,1.0084E4,1.0753E4,1.0338E4,9.203E3,7.798E3,3.243E3,8.817E3,6.076E3,5.283E3,4.566E3,7.189E3,3.883E3,6.201E3,5.164E3,5.589E3,5.238E3,5.1E3,4.895E3,4.308E3,5.123E3,2.675E3,4.01E2,2.842E3,4.602E3,4.215E3,1.536E3,4.54E3,2.267E3,3.016E3,7.01E2,3.865E3,7.2E1,7.117E3,2.13E2,3.67E3,8.07E2,5.394E3,6.39E2,4.525E3,8.72E2,4.717E3,1.165E3,4.073E3,8.2E2,4.28E3,1.395E3,3.5E3,1.296E3,3.012E3,3.3E1,5.09E3,1.97E3,7.05E2],"tree_param":{"num_deleted":"0","num_feature":"6","num_nodes":"63","size_leaf_vector":"1"}},{"base_weights":[-3.6176398E-1,-2.907715E-1,-3.6846772E-1,-2.5888938E-1,-3.088305E-1,-3.498865E-1,-3.703881E-1,-2.9090342E-1,-2.2369477E-1,-2.9477838E-1,-3.416806E-1,-3.3746737E-1,-3.595484E-1,-3.708176E-1,-3.4051335E-1,-2.5148565E-1,-3.0353013E-1,-1.9694647E-1,-2.5531498E-1,-3.2772595E-1,-2.7900526E-1,-3.3693728E-1,-3.8832158E-1,-3.1104377E-1,-3.4505352E-1,-3.5586098E-1,-1.1740604E-1,-3.7305835E-1,-3.675971E-1,-3.2958782E-1,-3.6620298E-1,-6.95202E-2,-1.1541005E-1,-4.8195016E-2,-9.274394E-2,-6.914601E-4,-6.112397E-2,-7.491879E-2,-1.5478747E-1,-9.4522186E-2,-1.17031604E-1,-7.5578645E-2,-9.1957495E-2,-1.01388745E-1,-4.058239E-2,-1.18270434E-1,-7.888371E-3,-9.4255306E-2,-5.595398E-2,-9.841564E-2,-1.0543583E-1,-1.0291686E-1,-1.0851597E-1,-1.08572416E-1,-1.12035766E-1,-1.01534955E-1,-1.1040271E-1,-9.7680226E-2,-1.2755142E-1,-1.13629766E-1,-9.887306E-2],"categories":[],"categories_nodes":[],"categories_segments":[],"categories_sizes":[],"default_left":[0,0,0,0,0,0,0,0,0,0,0,0,0,0,0,0,0,0,0,0,0,0,0,0,0,0,0,0,0,0,0,0,0,0,0,0,0,0,0,0,0,0,0,0,0,0,0,0,0,0,0,0,0,0,0,0,0,0,0,0,0],"id":33,"left_children":[1,3,5,7,9,11,13,15,17,19,21,23,25,27,29,31,33,35,37,39,41,43,45,47,49,51,-1,53,55,57,59,-1,-1,-1,-1,-1,-1,-1,-1,-1,-1,-1,-1,-1,-1,-1,-1,-1,-1,-1,-1,-1,-1,-1,-1,-1,-1,-1,-1,-1,-1],"loss_changes":[3.9629883E1,4.0706787E0,2.5917969E0,2.8790588E0,2.0213623E0,7.3828125E-1,7.607422E-1,6.0305023E-1,1.0061035E0,1.5855713E0,1.724701E-1,5.24292E-1,3.3148193E-1,3.544922E-1,1.5773773E-1,7.975693E-1,7.76062E-1,9.0088654E-1,6.99543E-1,6.9709015E-1,1.553894E0,2.131195E-1,2.465229E-1,2.2025299E-1,1.5005493E-1,