{"learner":{"attributes":{"scikit_learn":"{\"_estimator_type\": \"regressor\"}"},"feature_names":[],"feature_types":[],"gradient_booster":{"model":{"gbtree_model_param":{"num_parallel_tree":"1","num_trees":"600"},"iteration_indptr":[0,6,12,18,24,30,36,42,48,54,60,66,72,78,84,90,96,102,108,114,120,126,132,138,144,150,156,162,168,174,180,186,192,198,204,210,216,222,228,234,240,246,252,258,264,270,276,282,288,294,300,306,312,318,324,330,336,342,348,354,360,366,372,378,384,390,396,402,408,414,420,426,432,438,444,450,456,462,468,474,480,486,492,498,504,510,516,522,528,534,540,546,552,558,564,570,576,582,588,594,600],"tree_info":[0,1,2,3,4,5,0,1,2,3,4,5,0,1,2,3,4,5,0,1,2,3,4,5,0,1,2,3,4,5,0,1,2,3,4,5,0,1,2,3,4,5,0,1,2,3,4,5,0,1,2,3,4,5,0,1,2,3,4,5,0,1,2,3,4,5,0,1,2,3,4,5,0,1,2,3,4,5,0,1,2,3,4,5,0,1,2,3,4,5,0,1,2,3,4,5,0,1,2,3,4,5,0,1,2,3,4,5,0,1,2,3,4,5,0,1,2,3,4,5,0,1,2,3,4,5,0,1,2,3,4,5,0,1,2,3,4,5,0,1,2,3,4,5,0,1,2,3,4,5,0,1,2,3,4,5,0,1,2,3,4,5,0,1,2,3,4,5,0,1,2,3,4,5,0,1,2,3,4,5,0,1,2,3,4,5,0,1,2,3,4,5,0,1,2,3,4,5,0,1,2,3,4,5,0,1,2,3,4,5,0,1,2,3,4,5,0,1,2,3,4,5,0,1,2,3,4,5,0,1,2,3,4,5,0,1,2,3,4,5,0,1,2,3,4,5,0,1,2,3,4,5,0,1,2,3,4,5,0,1,2,3,4,5,0,1,2,3,4,5,0,1,2,3,4,5,0,1,2,3,4,5,0,1,2,3,4,5,0,1,2,3,4,5,0,1,2,3,4,5,0,1,2,3,4,5,0,1,2,3,4,5,0,1,2,3,4,5,0,1,2,3,4,5,0,1,2,3,4,5,0,1,2,3,4,5,0,1,2,3,4,5,0,1,2,3,4,5,0,1,2,3,4,5,0,1,2,3,4,5,0,1,2,3,4,5,0,1,2,3,4,5,0,1,2,3,4,5,0,1,2,3,4,5,0,1,2,3,4,5,0,1,2,3,4,5,0,1,2,3,4,5,0,1,2,3,4,5,0,1,2,3,4,5,0,1,2,3,4,5,0,1,2,3,4,5,0,1,2,3,4,5,0,1,2,3,4,5,0,1,2,3,4,5,0,1,2,3,4,5,0,1,2,3,4,5,0,1,2,3,4,5,0,1,2,3,4,5,0,1,2,3,4,5,0,1,2,3,4,5,0,1,2,3,4,5,0,1,2,3,4,5,0,1,2,3,4,5,0,1,2,3,4,5,0,1,2,3,4,5,0,1,2,3,4,5,0,1,2,3,4,5,0,1,2,3,4,5,0,1,2,3,4,5,0,1,2,3,4,5,0,1,2,3,4,5,0,1,2,3,4,5,0,1,2,3,4,5,0,1,2,3,4,5,0,1,2,3,4,5,0,1,2,3,4,5,0,1,2,3,4,5,0,1,2,3,4,5,0,1,2,3,4,5,0,1,2,3,4,5],"trees":[{"base_weights":[2.21965E0,3.1736854E-2,4.656305E0,-1.1050731E0,1.1902069E0,3.5211585E0,5.937787E0,-1.6700358E0,-5.4235345E-1,6.328376E-1,1.7970843E0,2.9279215E0,4.110097E0,5.33138E0,6.6021414E0,-1.9309174E0,-1.37956E0,-8.215486E-1,-2.5504416E-1,3.233424E-1,9.250123E-1,1.5174283E0,2.0686579E0,2.6363022E0,3.21636E0,3.7867835E0,4.3984838E0,5.023954E0,5.6391025E0,6.2930765E0,6.9880686E0,-6.1951476E-1,-5.3764063E-1,-4.5268574E-1,-3.7334535E-1,-2.8752965E-1,-2.01345E-1,-1.18364386E-1,-3.31384E-2,5.412379E-2,1.4177366E-1,2.3045237E-1,3.239623E-1,4.0678397E-1,4.9128714E-1,5.7728094E-1,6.644218E-1,7.471232E-1,8.3204275E-1,9.234053E-1,1.0075543E0,1.0913429E0,1.1737878E0,1.2722179E0,1.3704796E0,1.4578185E0,1.549102E0,1.6394615E0,1.7370546E0,1.8398149E0,1.9408369E0,2.0440054E0,2.1487281E0],"categories":[],"categories_nodes":[],"categories_segments":[],"categories_sizes":[],"default_left":[0,0,0,0,0,0,0,0,0,0,0,0,0,0,0,0,0,0,0,0,0,0,0,0,0,0,0,0,0,0,0,0,0,0,0,0,0,0,0,0,0,0,0,0,0,0,0,0,0,0,0,0,0,0,0,0,0,0,0,0,0,0,0],"id":0,"left_children":[1,3,5,7,9,11,13,15,17,19,21,23,25,27,29,31,33,35,37,39,41,43,45,47,49,51,53,55,57,59,61,-1,-1,-1,-1,-1,-1,-1,-1,-1,-1,-1,-1,-1,-1,-1,-1,-1,-1,-1,-1,-1,-1,-1,-1,-1,-1,-1,-1,-1,-1,-1,-1],"loss_changes":[4.438427E5,5.777241E4,5.7275625E4,7.0380664E3,7.348131E3,7.2861562E3,7.417875E3,8.345508E2,8.896997E2,1.02396387E3,7.8678516E2,8.6714844E2,9.605E2,8.87125E2,1.0085E3,1.0460156E2,8.954785E1,1.1517944E2,1.1026532E2,1.1727417E2,1.4067334E2,9.731152E1,1.0698047E2,9.680078E1,9.249219E1,7.852344E1,1.2883594E2,8.642969E1,9.5453125E1,9.91875E1,7.046875E1,0E0,0E0,0E0,0E0,0E0,0E0,0E0,0E0,0E0,0E0,0E0,0E0,0E0,0E0,0E0,0E0,0E0,0E0,0E0,0E0,0E0,0E0,0E0,0E0,0E0,0E0,0E0,0E0,0E0,0E0,0E0,0E0],"parents":[2147483647,0,0,1,1,2,2,3,3,4,4,5,5,6,6,7,7,8,8,9,9,10,10,11,11,12,12,13,13,14,14,15,15,16,16,17,17,18,18,19,19,20,20,21,21,22,22,23,23,24,24,25,25,26,26,27,27,28,28,29,29,30,30],"right_children":[2,4,6,8,10,12,14,16,18,20,22,24,26,28,30,32,34,36,38,40,42,44,46,48,50,52,54,56,58,60,62,-1,-1,-1,-1,-1,-1,-1,-1,-1,-1,-1,-1,-1,-1,-1,-1,-1,-1,-1,-1,-1,-1,-1,-1,-1,-1,-1,-1,-1,-1,-1,-1],"split_conditions":[4.89E0,2.57E0,7.3E0,1.43E0,3.77E0,6.08E0,8.54E0,9.3E-1,2E0,3.15E0,4.32E0,5.49E0,6.61E0,7.9E0,9.2E0,6.1E-1,1.16E0,1.73E0,2.33E0,2.91E0,3.46E0,4.01E0,4.64E0,5.2E0,5.75E0,6.34E0,6.94E0,7.54E0,8.15E0,8.85E0,9.54E0,-6.1951476E-1,-5.3764063E-1,-4.5268574E-1,-3.7334535E-1,-2.8752965E-1,-2.01345E-1,-1.18364386E-1,-3.31384E-2,5.412379E-2,1.4177366E-1,2.3045237E-1,3.239623E-1,4.0678397E-1,4.9128714E-1,5.7728094E-1,6.644218E-1,7.471232E-1,8.3204275E-1,9.234053E-1,1.0075543E0,1.0913429E0,1.1737878E0,1.2722179E0,1.3704796E0,1.4578185E0,1.549102E0,1.6394615E0,1.7370546E0,1.8398149E0,1.9408369E0,2.0440054E0,2.1487281E0],"split_indices":[2,2,4,2,2,4,4,4,2,2,2,4,2,4,2,2,2,2,4,4,2,2,4,4,2,4,2,2,2,2,2,0,0,0,0,0,0,0,0,0,0,0,0,0,0,0,0,0,0,0,0,0,0,0,0,0,0,0,0,0,0,0,0],"split_type":[0,0,0,0,0,0,0,0,0,0,0,0,0,0,0,0,0,0,0,0,0,0,0,0,0,0,0,0,0,0,0,0,0,0,0,0,0,0,0,0,0,0,0,0,0,0,0,0,0,0,0,0,0,0,0,0,0,0,0,0,0,0,0],"sum_hessian":[8.3253E4,4.3866E4,3.9387E4,2.214E4,2.1726E4,2.0888E4,1.8499E4,1.1047E4,1.1093E4,1.1326E4,1.04E4,1.0409E4,1.0479E4,9.676E3,8.823E3,5.817E3,5.23E3,5.625E3,5.468E3,5.501E3,5.825E3,5.127E3,5.273E3,5.181E3,5.228E3,4.947E3,5.532E3,4.849E3,4.827E3,4.909E3,3.914E3,2.951E3,2.866E3,2.666E3,2.564E3,2.942E3,2.683E3,2.782E3,2.686E3,2.811E3,2.69E3,2.897E3,2.928E3,2.193E3,2.934E3,2.659E3,2.614E3,2.52E3,2.661E3,2.661E3,2.567E3,2.279E3,2.668E3,2.881E3,2.651E3,2.243E3,2.606E3,2.259E3,2.568E3,2.59E3,2.319E3,1.975E3,1.939E3],"tree_param":{"num_deleted":"0","num_feature":"6","num_nodes":"63","size_leaf_vector":"1"}},{"base_weights":[-2.5893404E0],"categories":[],"categories_nodes":[],"categories_segments":[],"categories_sizes":[],"default_left":[0],"id":1,"left_children":[-1],"loss_changes":[0E0],"parents":[2147483647],"right_children":[-1],"split_conditions":[-7.768022E-1],"split_indices":[0],"split_type":[0],"sum_hessian":[8.3609E4],"tree_param":{"num_deleted":"0","num_feature":"6","num_nodes":"1","size_leaf_vector":"1"}},{"base_weights":[2.2595072E0,7.1105264E-2,4.697325E0,-1.0599605E0,1.2285405E0,3.5598333E0,5.975183E0,-1.6259713E0,-4.9375254E-1,6.7703825E-1,1.8362792E0,2.949894E0,4.1329174E0,5.372421E0,6.641156E0,-1.8999938E0,-1.346885E0,-7.771563E-1,-2.0397493E-1,3.8233298E-1,9.8097026E-1,1.5601555E0,2.1129563E0,2.6749322E0,3.2382345E0,3.8080623E0,4.442401E0,5.0658007E0,5.682486E0,6.308176E0,7.000867E0,-6.0726637E-1,-5.2787334E-1,-4.42497E-1,-3.6044577E-1,-2.788014E-1,-1.9187555E-1,-1.0669853E-1,-2.1732114E-2,6.688118E-2,1.5933393E-1,2.4675772E-1,3.369169E-1,4.2473426E-1,5.093816E-1,5.911238E-1,6.775932E-1,7.594769E-1,8.4329987E-1,9.3389624E-1,1.014971E0,1.0979866E0,1.187282E0,1.2845005E0,1.384239E0,1.470242E0,1.5624207E0,1.6524105E0,1.7495846E0,1.8443233E0,1.9379466E0,2.0488627E0,2.1600907E0],"categories":[],"categories_nodes":[],"categories_segments":[],"categories_sizes":[],"default_left":[0,0,0,0,0,0,0,0,0,0,0,0,0,0,0,0,0,0,0,0,0,0,0,0,0,0,0,0,0,0,0,0,0,0,0,0,0,0,0,0,0,0,0,0,0,0,0,0,0,0,0,0,0,0,0,0,0,0,0,0,0,0,0],"id":2,"left_children":[1,3,5,7,9,11,13,15,17,19,21,23,25,27,29,31,33,35,37,39,41,43,45,47,49,51,53,55,57,59,61,-1,-1,-1,-1,-1,-1,-1,-1,-1,-1,-1,-1,-1,-1,-1,-1,-1,-1,-1,-1,-1,-1,-1,-1,-1,-1,-1,-1,-1,-1,-1,-1],"loss_changes":[4.4538588E5,5.75954E4,5.73825E4,7.1301953E3,7.286676E3,7.2919375E3,7.4295625E3,8.483867E2,9.134717E2,1.0208164E3,7.8695703E2,7.9414844E2,1.0659688E3,8.9978125E2,1.01359375E3,9.433203E1,1.0097168E2,1.17148926E2,1.0975046E2,1.3719092E2,1.2541797E2,1.006582E2,1.0278906E2,9.408984E1,7.914453E1,1.020625E2,1.3233594E2,8.996875E1,9.428125E1,7.209375E1,9.5578125E1,0E0,0E0,0E0,0E0,0E0,0E0,0E0,0E0,0E0,0E0,0E0,0E0,0E0,0E0,0E0,0E0,0E0,0E0,0E0,0E0,0E0,0E0,0E0,0E0,0E0,0E0,0E0,0E0,0E0,0E0,0E0,0E0],"parents":[2147483647,0,0,1,1,2,2,3,3,4,4,5,5,6,6,7,7,8,8,9,9,10,10,11,11,12,12,13,13,14,14,15,15,16,16,17,17,18,18,19,19,20,20,21,21,22,22,23,23,24,24,25,25,26,26,27,27,28,28,29,29,30,30],"right_children":[2,4,6,8,10,12,14,16,18,20,22,24,26,28,30,32,34,36,38,40,42,44,46,48,50,52,54,56,58,60,62,-1,-1,-1,-1,-1,-1,-1,-1,-1,-1,-1,-1,-1,-1,-1,-1,-1,-1,-1,-1,-1,-1,-1,-1,-1,-1,-1,-1,-1,-1,-1,-1],"split_conditions":[4.93E0,2.57E0,7.26E0,1.43E0,3.77E0,6.04E0,8.54E0,8.7E-1,2E0,3.22E0,4.32E0,5.49E0,6.61E0,7.9E0,9.15E0,6.1E-1,1.2E0,1.7E0,2.27E0,2.91E0,3.46E0,4.08E0,4.64E0,5.2E0,5.75E0,6.34E0,6.94E0,7.54E0,8.15E0,8.84E0,9.54E0,-6.0726637E-1,-5.2787334E-1,-4.42497E-1,-3.6044577E-1,-2.788014E-1,-1.9187555E-1,-1.0669853E-1,-2.1732114E-2,6.688118E-2,1.5933393E-1,2.4675772E-1,3.369169E-1,4.2473426E-1,5.093816E-1,5.911238E-1,6.775932E-1,7.594769E-1,8.4329987E-1,9.3389624E-1,1.014971E0,1.0979866E0,1.187282E0,1.2845005E0,1.384239E0,1.470242E0,1.5624207E0,1.6524105E0,1.7495846E0,1.8443233E0,1.9379466E0,2.0488627E0,2.1600907E0],"split_indices":[4,2,2,2,2,4,4,2,2,4,2,4,2,4,2,2,4,2,2,4,2,4,4,4,2,4,2,2,2,4,2,0,0,0,0,0,0,0,0,0,0,0,0,0,0,0,0,0,0,0,0,0,0,0,0,0,0,0,0,0,0,0,0],"split_type":[0,0,0,0,0,0,0,0,0,0,0,0,0,0,0,0,0,0,0,0,0,0,0,0,0,0,0,0,0,0,0,0,0,0,0,0,0,0,0,0,0,0,0,0,0,0,0,0,0,0,0,0,0,0,0,0,0,0,0,0,0,0,0],"sum_hessian":[8.3484E4,4.3993E4,3.9491E4,2.225E4,2.1743E4,2.0895E4,1.8596E4,1.1126E4,1.1124E4,1.14E4,1.0343E4,1.0125E4,1.077E4,9.766E3,8.83E3,5.611E3,5.515E3,5.623E3,5.501E3,5.789E3,5.611E3,5.18E3,5.163E3,5.188E3,4.937E3,5.261E3,5.509E3,4.919E3,4.847E3,4.595E3,4.235E3,2.97E3,2.641E3,2.927E3,2.588E3,2.667E3,2.956E3,2.554E3,2.947E3,2.796E3,2.993E3,2.656E3,2.955E3,2.535E3,2.645E3,2.617E3,2.546E3,2.536E3,2.652E3,2.661E3,2.276E3,2.656E3,2.605E3,2.859E3,2.65E3,2.294E3,2.625E3,2.254E3,2.593E3,2.253E3,2.342E3,2.297E3,1.938E3],"tree_param":{"num_deleted":"0","num_feature":"6","num_nodes":"63","size_leaf_vector":"1"}},{"base_weights":[-1.4006425E0,-1.5462192E0,-1.354052E0,-1.6521704E0,-1.4954085E0,-1.3955181E0,-1.323645E0,-1.6989692E0,-4.815117E-1,-1.5352775E0,-4.411484E-1,-4.2563123E-1,-4.1176614E-1,-4.0279153E-1,-1.2982992E0,-5.1967263E-1,-4.985094E-1,-4.6090645E-1,-1.1774858E0,-3.9246166E-1,-3.8451794E-1,-8.691541E-2,-3.6268863E-1],"categories":[],"categories_nodes":[],"categories_segments":[],"categories_sizes":[],"default_left":[0,0,0,0,0,0,0,0,0,0,0,0,0,0,0,0,0,0,0,0,0,0,0],"id":3,"left_children":[1,3,5,7,9,11,13,15,-1,17,-1,-1,-1,-1,19,-1,-1,-1,21,-1,-1,-1,-1],"loss_changes":[5.636406E2,1.0636328E2,7.783594E1,1.1705078E1,1.1324219E1,1.23203125E1,1.58203125E1,1.1708984E0,0E0,2.0898438E-1,0E0,0E0,0E0,0E0,8.925781E-1,0E0,0E0,0E0,2.0861435E-1,0E0,0E0,0E0,0E0],"parents":[2147483647,0,0,1,1,2,2,3,3,4,4,5,5,6,6,7,7,9,9,14,14,18,18],"right_children":[2,4,6,8,10,12,14,16,-1,18,-1,-1,-1,-1,20,-1,-1,-1,22,-1,-1,-1,-1],"split_conditions":[4.423214E-1,2.8140008E-1,6.666445E-1,2.1764866E-1,3.5534334E-1,5.550484E-1,8.7718725E-1,4.56E0,-4.815117E-1,9.88E0,-4.411484E-1,-4.2563123E-1,-4.1176614E-1,-4.0279153E-1,1.0417436E0,-5.1967263E-1,-4.985094E-1,-4.6090645E-1,9.8E0,-3.9246166E-1,-3.8451794E-1,-8.691541E-2,-3.6268863E-1],"split_indices":[3,3,3,3,3,3,3,0,0,4,0,0,0,0,3,0,0,0,0,0,0,0,0],"split_type":[0,0,0,0,0,0,0,0,0,0,0,0,0,0,0,0,0,0,0,0,0,0,0],"sum_hessian":[8.3411E4,2.0215E4,6.3196E4,6.542E3,1.3673E4,2.6717E4,3.6479E4,3.265E3,3.277E3,5.235E3,8.438E3,1.3245E4,1.3472E4,2.0823E4,1.5656E4,1.701E3,1.564E3,5.216E3,1.9E1,9.75E3,5.906E3,1E0,1.8E1],"tree_param":{"num_deleted":"0","num_feature":"6","num_nodes":"23","size_leaf_vector":"1"}},{"base_weights":[2.3000154E0,9.951657E-2,4.734069E0,-1.0242938E0,1.2616831E0,3.5958526E0,6.0129156E0,-1.5739303E0,-4.443648E-1,6.9261986E-1,1.8505795E0,3.006813E0,4.1856723E0,5.4078865E0,6.6803246E0,-1.8530549E0,-1.2837043E0,-7.180532E-1,-1.6048686E-1,4.00153E-1,9.7837967E-1,1.5532557E0,2.1291556E0,2.7096388E0,3.2953942E0,3.8611927E0,4.4759684E0,5.1006017E0,5.714444E0,6.368368E0,7.060402E0,-5.955641E-1,-5.141269E-1,-4.2902657E-1,-3.438166E-1,-2.602545E-1,-1.7602554E-1,-9.383928E-2,-1.1701469E-2,7.798723E-2,1.6517538E-1,2.5268668E-1,3.4140652E-1,4.232282E-1,5.1046276E-1,5.9461635E-1,6.8865424E-1,7.694927E-1,8.546152E-1,9.454611E-1,1.0312597E0,1.1127521E0,1.1979692E0,1.2950511E0,1.394652E0,1.4818159E0,1.5716981E0,1.6624734E0,1.7588147E0,1.8624495E0,1.9647557E0,2.0662444E0,2.1702642E0],"categories":[],"categories_nodes":[],"categories_segments":[],"categories_sizes":[],"default_left":[0,0,0,0,0,0,0,0,0,0,0,0,0,0,0,0,0,0,0,0,0,0,0,0,0,0,0,0,0,0,0,0,0,0,0,0,0,0,0,0,0,0,0,0,0,0,0,0,0,0,0,0,0,0,0,0,0,0,0,0,0,0,0],"id":4,"left_children":[1,3,5,7,9,11,13,15,17,19,21,23,25,27,29,31,33,35,37,39,41,43,45,47,49,51,53,55,57,59,61,-1,-1,-1,-1,-1,-1,-1,-1,-1,-1,-1,-1,-1,-1,-1,-1,-1,-1,-1,-1,-1,-1,-1,-1,-1,-1,-1,-1,-1,-1,-1,-1],"loss_changes":[4.478793E5,5.73606E4,5.7770125E4,7.1163535E3,7.2342773E3,7.2865312E3,7.5129375E3,9.2623047E2,8.441089E2,9.174321E2,8.754922E2,8.928281E2,9.712969E2,8.950625E2,1.0085E3,1.0412695E2,1.11663086E2,1.080542E2,9.870134E1,1.1435358E2,1.1970654E2,1.0612305E2,1.2943164E2,9.703516E1,9.815234E1,8.48125E1,1.3214062E2,8.3640625E1,9.3171875E1,1.01E2,7.028125E1,0E0,0E0,0E0,0E0,0E0,0E0,0E0,0E0,0E0,0E0,0E0,0E0,0E0,0E0,0E0,0E0,0E0,0E0,0E0,0E0,0E0,0E0,0E0,0E0,0E0,0E0,0E0,0E0,0E0,0E0,0E0,0E0],"parents":[2147483647,0,0,1,1,2,2,3,3,4,4,5,5,6,6,7,7,8,8,9,9,10,10,11,11,12,12,13,13,14,14,15,15,16,16,17,17,18,18,19,19,20,20,21,21,22,22,23,23,24,24,25,25,26,26,27,27,28,28,29,29,30,30],"right_children":[2,4,6,8,10,12,14,16,18,20,22,24,26,28,30,32,34,36,38,40,42,44,46,48,50,52,54,56,58,60,62,-1,-1,-1,-1,-1,-1,-1,-1,-1,-1,-1,-1,-1,-1,-1,-1,-1,-1,-1,-1,-1,-1,-1,-1,-1,-1,-1,-1,-1,-1,-1,-1],"split_conditions":[4.89E0,2.57E0,7.3E0,1.42E0,3.73E0,6.08E0,8.54E0,9.3E-1,2.06E0,3.18E0,4.24E0,5.49E0,6.61E0,7.9E0,9.24E0,6.1E-1,1.16E0,1.68E0,2.27E0,2.91E0,3.46E0,3.97E0,4.64E0,5.2E0,5.75E0,6.34E0,6.94E0,7.54E0,8.15E0,8.89E0,9.54E0,-5.955641E-1,-5.141269E-1,-4.2902657E-1,-3.438166E-1,-2.602545E-1,-1.7602554E-1,-9.383928E-2,-1.1701469E-2,7.798723E-2,1.6517538E-1,2.5268668E-1,3.4140652E-1,4.232282E-1,5.1046276E-1,5.9461635E-1,6.8865424E-1,7.694927E-1,8.546152E-1,9.454611E-1,1.0312597E0,1.1127521E0,1.1979692E0,1.2950511E0,1.394652E0,1.4818159E0,1.5716981E0,1.6624734E0,1.7588147E0,1.8624495E0,1.9647557E0,2.0662444E0,2.1702642E0],"split_indices":[2,2,4,0,2,4,4,4,4,4,0,4,2,4,4,2,2,0,2,4,2,0,4,4,2,4,2,2,2,4,2,0,0,0,0,0,0,0,0,0,0,0,0,0,0,0,0,0,0,0,0,0,0,0,0,0,0,0,0,0,0,0,0],"split_type":[0,0,0,0,0,0,0,0,0,0,0,0,0,0,0,0,0,0,0,0,0,0,0,0,0,0,0,0,0,0,0,0,0,0,0,0,0,0,0,0,0,0,0,0,0,0,0,0,0,0,0,0,0,0,0,0,0,0,0,0,0,0,0],"sum_hessian":[8.3619E4,4.3917E4,3.9702E4,2.2327E4,2.159E4,2.1008E4,1.8694E4,1.1462E4,1.0865E4,1.0981E4,1.0609E4,1.0514E4,1.0494E4,9.81E3,8.884E3,5.84E3,5.622E3,5.531E3,5.334E3,5.428E3,5.553E3,5.135E3,5.474E3,5.185E3,5.329E3,4.962E3,5.532E3,4.908E3,4.902E3,4.889E3,3.995E3,2.99E3,2.85E3,2.72E3,2.902E3,2.584E3,2.947E3,2.366E3,2.968E3,2.811E3,2.617E3,3.001E3,2.552E3,2.624E3,2.511E3,2.912E3,2.562E3,2.551E3,2.634E3,2.66E3,2.669E3,2.32E3,2.642E3,2.894E3,2.638E3,2.284E3,2.624E3,2.281E3,2.621E3,2.611E3,2.278E3,2.023E3,1.972E3],"tree_param":{"num_deleted":"0","num_feature":"6","num_nodes":"63","size_leaf_vector":"1"}},{"base_weights":[-2.7890189E0,-8.354513E-1,-8.4678334E-1],"categories":[],"categories_nodes":[],"categories_segments":[],"categories_sizes":[],"default_left":[0,0,0],"id":5,"left_children":[1,-1,-1],"loss_changes":[3.875E0,0E0,0E0],"parents":[2147483647,0,0],"right_children":[2,-1,-1],"split_conditions":[-3.035228E-2,-8.354513E-1,-8.4678334E-1],"split_indices":[1,0,0],"split_type":[0,0,0],"sum_hessian":[8.3399E4,7.4242E4,9.157E3],"tree_param":{"num_deleted":"0","num_feature":"6","num_nodes":"3","size_leaf_vector":"1"}},{"base_weights":[1.5610191E0,-9.552322E-4,3.2394896E0,-7.9948074E-1,7.8135824E-1,2.3973892E0,4.1142297E0,-1.20485E0,-4.3638188E-1,3.8096502E-1,1.1965176E0,1.9859679E0,2.7969368E0,3.6459742E0,4.574626E0,-1.3886633E0,-1.0307547E0,-6.455664E-1,-2.3487574E-1,1.806781E-1,5.854828E-1,9.867339E-1,1.3913847E0,1.7802095E0,2.1734173E0,2.5721638E0,2.995272E0,3.432674E0,3.856708E0,4.311248E0,4.8410287E0,-4.5131132E-1,-3.981908E-1,-3.402231E-1,-2.8407964E-1,-2.2697636E-1,-1.6370082E-1,-1.075263E-1,-4.218596E-2,1.9629283E-2,8.313702E-2,1.3654745E-1,2.0274436E-1,2.660185E-1,3.254125E-1,3.8652155E-1,4.5005867E-1,5.060329E-1,5.5869144E-1,6.178728E-1,6.8001E-1,7.4188614E-1,7.9803395E-1,8.623115E-1,9.297556E-1,9.973189E-1,1.0574658E0,1.1266557E0,1.1918631E0,1.2554486E0,1.3254565E0,1.4032398E0,1.4940338E0],"categories":[],"categories_nodes":[],"categories_segments":[],"categories_sizes":[],"default_left":[0,0,0,0,0,0,0,0,0,0,0,0,0,0,0,0,0,0,0,0,0,0,0,0,0,0,0,0,0,0,0,0,0,0,0,0,0,0,0,0,0,0,0,0,0,0,0,0,0,0,0,0,0,0,0,0,0,0,0,0,0,0,0],"id":6,"left_children":[1,3,5,7,9,11,13,15,17,19,21,23,25,27,29,31,33,35,37,39,41,43,45,47,49,51,53,55,57,59,61,-1,-1,-1,-1,-1,-1,-1,-1,-1,-1,-1,-1,-1,-1,-1,-1,-1,-1,-1,-1,-1,-1,-1,-1,-1,-1,-1,-1,-1,-1,-1,-1],"loss_changes":[2.1863112E5,2.6985047E4,2.96E4,3.1459355E3,3.6266182E3,3.3614922E3,4.2335625E3,3.217793E2,4.7523828E2,4.5494385E2,4.3653418E2,3.8548438E2,4.554375E2,4.263203E2,6.76375E2,3.286328E1,4.388379E1,6.0951904E1,6.686099E1,6.2381744E1,6.43938E1,4.9615234E1,6.026758E1,3.381543E1,5.1382812E1,3.597461E1,6.035547E1,3.6898438E1,4.2804688E1,4.9179688E1,8.8890625E1,0E0,0E0,0E0,0E0,0E0,0E0,0E0,0E0,0E0,0E0,0E0,0E0,0E0,0E0,0E0,0E0,0E0,0E0,0E0,0E0,0E0,0E0,0E0,0E0,0E0,0E0,0E0,0E0,0E0,0E0,0E0,0E0],"parents":[2147483647,0,0,1,1,2,2,3,3,4,4,5,5,6,6,7,7,8,8,9,9,10,10,11,11,12,12,13,13,14,14,15,15,16,16,17,17,18,18,19,19,20,20,21,21,22,22,23,23,24,24,25,25,26,26,27,27,28,28,29,29,30,30],"right_children":[2,4,6,8,10,12,14,16,18,20,22,24,26,28,30,32,34,36,38,40,42,44,46,48,50,52,54,56,58,60,62,-1,-1,-1,-1,-1,-1,-1,-1,-1,-1,-1,-1,-1,-1,-1,-1,-1,-1,-1,-1,-1,-1,-1,-1,-1,-1,-1,-1,-1,-1,-1,-1],"split_conditions":[4.82E0,2.5E0,7.18E0,1.33E0,3.67E0,5.93E0,8.37E0,8E-1,1.9E0,3.08E0,4.26E0,5.34E0,6.49E0,7.77E0,9.09E0,4.8E-1,1.03E0,1.6E0,2.2E0,2.81E0,3.32E0,3.98E0,4.56E0,5.06E0,5.61E0,6.19E0,6.83E0,7.41E0,8.07E0,8.67E0,9.43E0,-4.5131132E-1,-3.981908E-1,-3.402231E-1,-2.8407964E-1,-2.2697636E-1,-1.6370082E-1,-1.075263E-1,-4.218596E-2,1.9629283E-2,8.313702E-2,1.3654745E-1,2.0274436E-1,2.660185E-1,3.254125E-1,3.8652155E-1,4.5005867E-1,5.060329E-1,5.5869144E-1,6.178728E-1,6.8001E-1,7.4188614E-1,7.9803395E-1,8.623115E-1,9.297556E-1,9.973189E-1,1.0574658E0,1.1266557E0,1.1918631E0,1.2554486E0,1.3254565E0,1.4032398E0,1.4940338E0],"split_indices":[2,2,4,2,2,2,2,2,2,2,4,2,2,4,4,2,2,2,4,4,2,4,4,2,2,2,4,2,2,2,2,0,0,0,0,0,0,0,0,0,0,0,0,0,0,0,0,0,0,0,0,0,0,0,0,0,0,0,0,0,0,0,0],"split_type":[0,0,0,0,0,0,0,0,0,0,0,0,0,0,0,0,0,0,0,0,0,0,0,0,0,0,0,0,0,0,0,0,0,0,0,0,0,0,0,0,0,0,0,0,0,0,0,0,0,0,0,0,0,0,0,0,0,0,0,0,0,0,0],"sum_hessian":[8.3391E4,4.3195E4,4.0196E4,2.1376E4,2.1819E4,2.0482E4,1.9714E4,1.0099E4,1.1277E4,1.1108E4,1.0711E4,1.0094E4,1.0388E4,9.778E3,9.936E3,4.909E3,5.19E3,5.532E3,5.745E3,5.613E3,5.495E3,5.161E3,5.55E3,4.817E3,5.277E3,4.876E3,5.512E3,4.868E3,4.91E3,5.005E3,4.931E3,1.693E3,3.216E3,2.319E3,2.871E3,2.617E3,2.915E3,2.485E3,3.26E3,2.558E3,3.055E3,2.252E3,3.243E3,2.559E3,2.602E3,2.858E3,2.692E3,2.263E3,2.554E3,2.387E3,2.89E3,2.305E3,2.571E3,2.561E3,2.951E3,2.256E3,2.612E3,2.642E3,2.268E3,2.312E3,2.693E3,2.282E3,2.649E3],"tree_param":{"num_deleted":"0","num_feature":"6","num_nodes":"63","size_leaf_vector":"1"}},{"base_weights":[-1.8124332E0],"categories":[],"categories_nodes":[],"categories_segments":[],"categories_sizes":[],"default_left":[0],"id":7,"left_children":[-1],"loss_changes":[0E0],"parents":[2147483647],"right_children":[-1],"split_conditions":[-5.4373E-1],"split_indices":[0],"split_type":[0],"sum_hessian":[8.3508E4],"tree_param":{"num_deleted":"0","num_feature":"6","num_nodes":"1","size_leaf_vector":"1"}},{"base_weights":[1.5850923E0,1.7422184E-2,3.2520583E0,-7.673288E-1,8.026458E-1,2.419136E0,4.1408753E0,-1.1627339E0,-3.9644322E-1,4.0034968E-1,1.1991961E0,2.0068283E0,2.8265526E0,3.6748853E0,4.6081085E0,-1.3554113E0,-9.910919E-1,-6.0637283E-1,-2.0604679E-1,1.9709739E-1,5.904402E-1,1.0008008E0,1.4042474E0,1.8026339E0,2.2095423E0,2.6131074E0,3.0392585E0,3.4612436E0,3.885834E0,4.3430147E0,4.8737793E0,-4.425368E-1,-3.8921523E-1,-3.289797E-1,-2.6846012E-1,-2.1441962E-1,-1.5563273E-1,-9.719748E-2,-3.4449123E-2,2.9218225E-2,8.843355E-2,1.4480947E-1,2.0590957E-1,2.7098727E-1,3.3436763E-1,3.9115384E-1,4.5100114E-1,5.0753707E-1,5.6510687E-1,6.3081044E-1,6.936852E-1,7.4994445E-1,8.1081957E-1,8.7635446E-1,9.390145E-1,1.0056044E0,1.0661725E0,1.1353844E0,1.2004981E0,1.2662911E0,1.3339697E0,1.411134E0,1.5039771E0],"categories":[],"categories_nodes":[],"categories_segments":[],"categories_sizes":[],"default_left":[0,0,0,0,0,0,0,0,0,0,0,0,0,0,0,0,0,0,0,0,0,0,0,0,0,0,0,0,0,0,0,0,0,0,0,0,0,0,0,0,0,0,0,0,0,0,0,0,0,0,0,0,0,0,0,0,0,0,0,0,0,0,0],"id":8,"left_children":[1,3,5,7,9,11,13,15,17,19,21,23,25,27,29,31,33,35,37,39,41,43,45,47,49,51,53,55,57,59,61,-1,-1,-1,-1,-1,-1,-1,-1,-1,-1,-1,-1,-1,-1,-1,-1,-1,-1,-1,-1,-1,-1,-1,-1,-1,-1,-1,-1,-1,-1,-1,-1],"loss_changes":[2.18609E5,2.6566447E4,3.0004594E4,3.161754E3,3.4374033E3,3.5105156E3,4.253125E3,3.4379102E2,4.446593E2,4.1325366E2,4.4006836E2,4.2679297E2,4.699453E2,4.2928125E2,6.682344E2,3.222168E1,5.509082E1,4.9860474E1,6.2760147E1,5.0342056E1,5.680139E1,6.021289E1,5.110547E1,4.344336E1,5.2416016E1,4.6664062E1,4.73125E1,3.7585938E1,4.271875E1,4.3265625E1,9.216406E1,0E0,0E0,0E0,0E0,0E0,0E0,0E0,0E0,0E0,0E0,0E0,0E0,0E0,0E0,0E0,0E0,0E0,0E0,0E0,0E0,0E0,0E0,0E0,0E0,0E0,0E0,0E0,0E0,0E0,0E0,0E0,0E0],"parents":[2147483647,0,0,1,1,2,2,3,3,4,4,5,5,6,6,7,7,8,8,9,9,10,10,11,11,12,12,13,13,14,14,15,15,16,16,17,17,18,18,19,19,20,20,21,21,22,22,23,23,24,24,25,25,26,26,27,27,28,28,29,29,30,30],"right_children":[2,4,6,8,10,12,14,16,18,20,22,24,26,28,30,32,34,36,38,40,42,44,46,48,50,52,54,56,58,60,62,-1,-1,-1,-1,-1,-1,-1,-1,-1,-1,-1,-1,-1,-1,-1,-1,-1,-1,-1,-1,-1,-1,-1,-1,-1,-1,-1,-1,-1,-1,-1,-1],"split_conditions":[4.74E0,2.5E0,7.18E0,1.32E0,3.67E0,5.93E0,8.37E0,8E-1,1.9E0,3E0,4.17E0,5.3E0,6.53E0,7.77E0,9.09E0,5.1E-1,1.06E0,1.6E0,2.2E0,2.81E0,3.27E0,3.98E0,4.49E0,4.98E0,5.64E0,6.19E0,6.83E0,7.37E0,8.07E0,8.71E0,9.43E0,-4.425368E-1,-3.8921523E-1,-3.289797E-1,-2.6846012E-1,-2.1441962E-1,-1.5563273E-1,-9.719748E-2,-3.4449123E-2,2.9218225E-2,8.843355E-2,1.4480947E-1,2.0590957E-1,2.7098727E-1,3.3436763E-1,3.9115384E-1,4.5100114E-1,5.0753707E-1,5.6510687E-1,6.3081044E-1,6.936852E-1,7.4994445E-1,8.1081957E-1,8.7635446E-1,9.390145E-1,1.0056044E0,1.0661725E0,1.1353844E0,1.2004981E0,1.2662911E0,1.3339697E0,1.411134E0,1.5039771E0],"split_indices":[0,2,4,0,4,2,2,2,2,0,0,0,2,4,4,4,2,2,4,4,0,4,2,0,2,2,4,0,2,4,2,0,0,0,0,0,0,0,0,0,0,0,0,0,0,0,0,0,0,0,0,0,0,0,0,0,0,0,0,0,0,0,0],"split_type":[0,0,0,0,0,0,0,0,0,0,0,0,0,0,0,0,0,0,0,0,0,0,0,0,0,0,0,0,0,0,0,0,0,0,0,0,0,0,0,0,0,0,0,0,0,0,0,0,0,0,0,0,0,0,0,0,0,0,0,0,0,0,0],"sum_hessian":[8.3653E4,4.3111E4,4.0542E4,2.1562E4,2.1549E4,2.0931E4,1.9611E4,1.0435E4,1.1127E4,1.0698E4,1.0851E4,1.0406E4,1.0525E4,9.823E3,9.788E3,4.913E3,5.522E3,5.291E3,5.836E3,5.171E3,5.527E3,5.518E3,5.333E3,5.189E3,5.217E3,5.26E3,5.265E3,4.889E3,4.934E3,4.908E3,4.88E3,1.596E3,3.317E3,2.629E3,2.893E3,2.362E3,2.929E3,2.544E3,3.292E3,2.56E3,2.611E3,2.606E3,2.921E3,2.976E3,2.542E3,2.656E3,2.677E3,2.201E3,2.988E3,2.568E3,2.649E3,2.336E3,2.924E3,2.303E3,2.962E3,2.261E3,2.628E3,2.651E3,2.283E3,2.272E3,2.636E3,2.215E3,2.665E3],"tree_param":{"num_deleted":"0","num_feature":"6","num_nodes":"63","size_leaf_vector":"1"}},{"base_weights":[-9.810301E-1,-1.0821636E0,-9.485207E-1,-1.176911E0,-1.054275E0,-9.840105E-1,-9.297706E-1,-1.5226356E0,-1.1705486E0,-1.3184367E0,-1.0493417E0,-1.0343155E0,-9.6940136E-1,-1.0354847E0,-9.2470825E-1,-1.0754108E0,-1.6842278E0,-1.1519592E0,-1.2266848E0,-1.2196335E0,-1.4907496E0,-1.0432935E0,-1.1652856E0,-1.1295712E0,-1.0162824E0,-9.6823573E-1,-1.2919912E0,-1.0697789E0,-9.7352403E-1,-1.0349321E0,-9.2110634E-1,-3.5059893E-1,-1.8026316E-1,-5.595068E-1,-4.2428106E-1,-3.6156446E-1,-3.382419E-1,-3.0156717E-1,-3.761141E-1,-4.5741883E-1,-3.4747058E-1,-4.5194995E-1,-1.4537352E-1,-3.2532296E-1,-3.08792E-1,-3.720535E-1,-3.2274175E-1,-3.4543467E-1,-2.975961E-1,-3.28165E-1,-2.988233E-1,-2.901392E-1,-3.375256E-1,-3.041739E-1,-4.2672494E-1,-3.2813913E-1,-2.840749E-1,-2.8638828E-1,-3.3752862E-1,-3.5031855E-1,-2.953183E-1,-2.8080973E-1,-2.712247E-1],"categories":[],"categories_nodes":[],"categories_segments":[],"categories_sizes":[],"default_left":[0,0,0,0,0,0,0,0,0,0,0,0,0,0,0,0,0,0,0,0,0,0,0,0,0,0,0,0,0,0,0,0,0,0,0,0,0,0,0,0,0,0,0,0,0,0,0,0,0,0,0,0,0,0,0,0,0,0,0,0,0,0,0],"id":9,"left_children":[1,3,5,7,9,11,13,15,17,19,21,23,25,27,29,31,33,35,37,39,41,43,45,47,49,51,53,55,57,59,61,-1,-1,-1,-1,-1,-1,-1,-1,-1,-1,-1,-1,-1,-1,-1,-1,-1,-1,-1,-1,-1,-1,-1,-1,-1,-1,-1,-1,-1,-1,-1,-1],"loss_changes":[2.73625E2,5.24375E1,4.1160156E1,8.359863E0,1.9082031E1,1.5044922E1,2.1191406E1,3.9701843E0,3.3164062E0,3.0169678E0,9.597656E0,7.269043E0,5.1191406E0,2.9597168E0,1.4730469E1,3.5980988E-1,1.443634E-1,3.1020508E0,5.395996E0,1.7182312E0,8.3888245E-1,7.319336E0,3.7320557E0,1.1784668E0,5.385742E0,1.8388672E0,6.613617E-1,2.5113525E0,8.793335E-1,7.185913E0,8.876953E0,0E0,0E0,0E0,0E0,0E0,0E0,0E0,0E0,0E0,0E0,0E0,0E0,0E0,0E0,0E0,0E0,0E0,0E0,0E0,0E0,0E0,0E0,0E0,0E0,0E0,0E0,0E0,0E0,0E0,0E0,0E0,0E0],"parents":[2147483647,0,0,1,1,2,2,3,3,4,4,5,5,6,6,7,7,8,8,9,9,10,10,11,11,12,12,13,13,14,14,15,15,16,16,17,17,18,18,19,19,20,20,21,21,22,22,23,23,24,24,25,25,26,26,27,27,28,28,29,29,30,30],"right_children":[2,4,6,8,10,12,14,16,18,20,22,24,26,28,30,32,34,36,38,40,42,44,46,48,50,52,54,56,58,60,62,-1,-1,-1,-1,-1,-1,-1,-1,-1,-1,-1,-1,-1,-1,-1,-1,-1,-1,-1,-1,-1,-1,-1,-1,-1,-1,-1,-1,-1,-1,-1,-1],"split_conditions":[4.423214E-1,2.462997E-1,6.246931E-1,-2.1392322E-1,-1.4456849E-1,-9.161529E-2,-3.2736728E-1,-2.438232E-1,-5.617606E-2,-6.466267E-2,-1.6776865E-2,-2.3420323E-1,5.0086007E-2,-7.636678E-2,-2.0364769E-1,1.5174569E-1,1.3278139E-1,-2.3731127E-1,6.923552E-2,-2.4308984E-1,8.86E0,3.111451E-1,3.6292976E-1,8.81E0,4.932295E-1,2.2810075E-2,4.8490703E-1,1.0198743E0,9.815238E-1,8.0867934E-1,-8.154989E-2,-3.5059893E-1,-1.8026316E-1,-5.595068E-1,-4.2428106E-1,-3.6156446E-1,-3.382419E-1,-3.0156717E-1,-3.761141E-1,-4.5741883E-1,-3.4747058E-1,-4.5194995E-1,-1.4537352E-1,-3.2532296E-1,-3.08792E-1,-3.720535E-1,-3.2274175E-1,-3.4543467E-1,-2.975961E-1,-3.28165E-1,-2.988233E-1,-2.901392E-1,-3.375256E-1,-3.041739E-1,-4.2672494E-1,-3.2813913E-1,-2.840749E-1,-2.8638828E-1,-3.3752862E-1,-3.5031855E-1,-2.953183E-1,-2.8080973E-1,-2.712247E-1],"split_indices":[3,3,3,1,1,1,5,5,5,5,5,5,5,1,1,3,3,5,3,1,0,3,3,0,3,1,3,3,3,3,1,0,0,0,0,0,0,0,0,0,0,0,0,0,0,0,0,0,0,0,0,0,0,0,0,0,0,0,0,0,0,0,0],"split_type":[0,0,0,0,0,0,0,0,0,0,0,0,0,0,0,0,0,0,0,0,0,0,0,0,0,0,0,0,0,0,0,0,0,0,0,0,0,0,0,0,0,0,0,0,0,0,0,0,0,0,0,0,0,0,0,0,0,0,0,0,0,0,0],"sum_hessian":[8.3537E4,2.0313E4,6.3224E4,4.61E3,1.5703E4,2.1838E4,4.1386E4,7.9E1,4.531E3,2.83E2,1.542E4,4.899E3,1.6939E4,1.882E3,3.9504E4,2.3E1,5.6E1,3.42E3,1.111E3,1.85E2,9.8E1,1.4665E4,7.55E2,7.7E2,4.129E3,1.6882E4,5.7E1,1.201E3,6.81E2,1.241E3,3.8263E4,1.8E1,5E0,3E1,2.6E1,1.062E3,2.358E3,1.25E2,9.86E2,2.7E1,1.58E2,9.6E1,2E0,3.703E3,1.0962E4,4.04E2,3.51E2,6.58E2,1.12E2,8.42E2,3.287E3,1.6771E4,1.11E2,2.1E1,3.6E1,9.98E2,2.03E2,6.12E2,6.9E1,3.36E2,9.05E2,2.0359E4,1.7904E4],"tree_param":{"num_deleted":"0","num_feature":"6","num_nodes":"63","size_leaf_vector":"1"}},{"base_weights":[1.6097658E0,3.8674776E-2,3.2804565E0,-7.427605E-1,8.244129E-1,2.4401903E0,4.166717E0,-1.1369083E0,-3.6712706E-1,4.2363968E-1,1.2204225E0,2.0293202E0,2.851459E0,3.70018E0,4.6312203E0,-1.3354087E0,-9.639542E-1,-5.8075285E-1,-1.8080828E-1,2.2159383E-1,6.146438E-1,1.0151492E0,1.4143186E0,1.8273975E0,2.2284179E0,2.6276495E0,3.049519E0,3.4713798E0,3.8988676E0,4.3834624E0,4.9140263E0,-4.3174398E-1,-3.8101408E-1,-3.20884E-1,-2.6149565E-1,-2.0258011E-1,-1.4683434E-1,-8.956234E-2,-2.6918098E-2,3.16545E-2,9.178648E-2,1.497913E-1,2.1686898E-1,2.7311623E-1,3.3636418E-1,3.9070717E-1,4.5482528E-1,5.16267E-1,5.7351214E-1,6.304717E-1,6.926532E-1,7.588639E-1,8.139118E-1,8.7882215E-1,9.4637424E-1,1.0131028E0,1.0680553E0,1.1346445E0,1.2041111E0,1.2757691E0,1.3525958E0,1.423802E0,1.5109664E0],"categories":[],"categories_nodes":[],"categories_segments":[],"categories_sizes":[],"default_left":[0,0,0,0,0,0,0,0,0,0,0,0,0,0,0,0,0,0,0,0,0,0,0,0,0,0,0,0,0,0,0,0,0,0,0,0,0,0,0,0,0,0,0,0,0,0,0,0,0,0,0,0,0,0,0,0,0,0,0,0,0,0,0],"id":10,"left_children":[1,3,5,7,9,11,13,15,17,19,21,23,25,27,29,31,33,35,37,39,41,43,45,47,49,51,53,55,57,59,61,-1,-1,-1,-1,-1,-1,-1,-1,-1,-1,-1,-1,-1,-1,-1,-1,-1,-1,-1,-1,-1,-1,-1,-1,-1,-1,-1,-1,-1,-1,-1,-1],"loss_changes":[2.1879062E5,2.6377584E4,3.0073312E4,3.188542E3,3.39921E3,3.4986484E3,4.243125E3,3.5953613E2,4.3891663E2,4.107871E2,4.2738867E2,4.1314844E2,4.513125E2,4.325625E2,6.6840625E2,3.133496E1,5.387744E1,4.4008423E1,6.316536E1,5.0653915E1,6.797412E1,5.716992E1,6.1124023E1,4.3027344E1,4.8408203E1,3.3953125E1,6.0054688E1,2.6277344E1,5.5101562E1,6.6984375E1,7.059375E1,0E0,0E0,0E0,0E0,0E0,0E0,0E0,0E0,0E0,0E0,0E0,0E0,0E0,0E0,0E0,0E0,0E0,0E0,0E0,0E0,0E0,0E0,0E0,0E0,0E0,0E0,0E0,0E0,0E0,0E0,0E0,0E0],"parents":[2147483647,0,0,1,1,2,2,3,3,4,4,5,5,6,6,7,7,8,8,9,9,10,10,11,11,12,12,13,13,14,14,15,15,16,16,17,17,18,18,19,19,20,20,21,21,22,22,23,23,24,24,25,25,26,26,27,27,28,28,29,29,30,30],"right_children":[2,4,6,8,10,12,14,16,18,20,22,24,26,28,30,32,34,36,38,40,42,44,46,48,50,52,54,56,58,60,62,-1,-1,-1,-1,-1,-1,-1,-1,-1,-1,-1,-1,-1,-1,-1,-1,-1,-1,-1,-1,-1,-1,-1,-1,-1,-1,-1,-1,-1,-1,-1,-1],"split_conditions":[4.78E0,2.5E0,7.18E0,1.37E0,3.67E0,5.93E0,8.37E0,8E-1,1.9E0,3.04E0,4.19E0,5.34E0,6.49E0,7.69E0,9.1E0,5.4E-1,1.06E0,1.67E0,2.2E0,2.77E0,3.32E0,3.9E0,4.46E0,5.03E0,5.57E0,6.19E0,6.83E0,7.41E0,8.02E0,8.71E0,9.43E0,-4.3174398E-1,-3.8101408E-1,-3.20884E-1,-2.6149565E-1,-2.0258011E-1,-1.4683434E-1,-8.956234E-2,-2.6918098E-2,3.16545E-2,9.178648E-2,1.497913E-1,2.1686898E-1,2.7311623E-1,3.3636418E-1,3.9070717E-1,4.5482528E-1,5.16267E-1,5.7351214E-1,6.304717E-1,6.926532E-1,7.588639E-1,8.139118E-1,8.7882215E-1,9.4637424E-1,1.0131028E0,1.0680553E0,1.1346445E0,1.2041111E0,1.2757691E0,1.3525958E0,1.423802E0,1.5109664E0],"split_indices":[2,2,4,2,4,2,2,2,2,2,2,2,2,2,2,4,2,4,4,4,2,2,2,2,2,2,4,2,2,2,2,0,0,0,0,0,0,0,0,0,0,0,0,0,0,0,0,0,0,0,0,0,0,0,0,0,0,0,0,0,0,0,0],"split_type":[0,0,0,0,0,0,0,0,0,0,0,0,0,0,0,0,0,0,0,0,0,0,0,0,0,0,0,0,0,0,0,0,0,0,0,0,0,0,0,0,0,0,0,0,0,0,0,0,0,0,0,0,0,0,0,0,0,0,0,0,0,0,0],"sum_hessian":[8.3354E4,4.2958E4,4.0396E4,2.1538E4,2.142E4,2.0738E4,1.9658E4,1.0509E4,1.1029E4,1.0647E4,1.0773E4,1.0377E4,1.0361E4,9.812E3,9.846E3,4.89E3,5.619E3,5.137E3,5.892E3,5.175E3,5.472E3,5.236E3,5.537E3,5.157E3,5.22E3,4.871E3,5.49E3,4.569E3,5.243E3,5.257E3,4.589E3,1.882E3,3.008E3,2.615E3,3.004E3,2.521E3,2.616E3,2.569E3,3.323E3,2.179E3,2.996E3,2.652E3,2.82E3,2.639E3,2.597E3,2.643E3,2.894E3,2.288E3,2.869E3,2.036E3,3.184E3,2.281E3,2.59E3,2.575E3,2.915E3,2.234E3,2.335E3,2.617E3,2.626E3,2.587E3,2.67E3,1.952E3,2.637E3],"tree_param":{"num_deleted":"0","num_feature":"6","num_nodes":"63","size_leaf_vector":"1"}},{"base_weights":[-1.9525689E0,-1.9980043E0,-1.9427967E0,-6.1054367E-1,-5.961946E-1,-5.8626217E-1,-5.8013415E-1],"categories":[],"categories_nodes":[],"categories_segments":[],"categories_sizes":[],"default_left":[0,0,0,0,0,0,0],"id":11,"left_children":[1,3,5,-1,-1,-1,-1],"loss_changes":[3.303125E1,1.7851562E0,3.296875E0,0E0,0E0,0E0,0E0],"parents":[2147483647,0,0,1,1,2,2],"right_children":[2,4,6,-1,-1,-1,-1],"split_conditions":[3.8802546E-1,2.1764866E-1,6.495327E-1,-6.1054367E-1,-5.961946E-1,-5.8626217E-1,-5.8013415E-1],"split_indices":[3,3,3,0,0,0,0],"split_type":[0,0,0,0,0,0,0],"sum_hessian":[8.3205E4,1.4692E4,6.8513E4,3.241E3,1.1451E4,3.0146E4,3.8367E4],"tree_param":{"num_deleted":"0","num_feature":"6","num_nodes":"7","size_leaf_vector":"1"}},{"base_weights":[1.0854635E0,3.262395E-2,2.3054752E0,-5.1927125E-1,6.244416E-1,1.763523E0,2.9330692E0,-7.982861E-1,-2.1695852E-1,3.4984854E-1,9.1279376E-1,1.4808538E0,2.0597389E0,2.6553E0,3.264809E0,-9.359643E-1,-6.3903993E-1,-3.5626802E-1,-7.485584E-2,2.088325E-1,4.93058E-1,7.8664625E-1,1.0595328E0,1.336933E0,1.632476E0,1.9082793E0,2.2011147E0,2.50888E0,2.8187935E0,3.1282578E0,3.4633427E0,-3.0292758E-1,-2.5294733E-1,-2.1125893E-1,-1.6878876E-1,-1.2968707E-1,-8.729225E-2,-4.3507148E-2,1.2386664E-3,3.8599946E-2,8.484775E-2,1.2861072E-1,1.7498848E-1,2.1544959E-1,2.5844628E-1,2.965847E-1,3.3604282E-1,3.7931773E-1,4.2596814E-1,4.674656E-1,5.1224625E-1,5.4895765E-1,5.934527E-1,6.3536155E-1,6.8512166E-1,7.2778463E-1,7.764593E-1,8.211142E-1,8.696787E-1,9.14599E-1,9.6568775E-1,1.0189697E0,1.0833901E0],"categories":[],"categories_nodes":[],"categories_segments":[],"categories_sizes":[],"default_left":[0,0,0,0,0,0,0,0,0,0,0,0,0,0,0,0,0,0,0,0,0,0,0,0,0,0,0,0,0,0,0,0,0,0,0,0,0,0,0,0,0,0,0,0,0,0,0,0,0,0,0,0,0,0,0,0,0,0,0,0,0,0,0],"id":12,"left_children":[1,3,5,7,9,11,13,15,17,19,21,23,25,27,29,31,33,35,37,39,41,43,45,47,49,51,53,55,57,59,61,-1,-1,-1,-1,-1,-1,-1,-1,-1,-1,-1,-1,-1,-1,-1,-1,-1,-1,-1,-1,-1,-1,-1,-1,-1,-1,-1,-1,-1,-1,-1,-1],"loss_changes":[1.07278125E5,1.4643413E4,1.3153641E4,1.9566562E3,1.7126484E3,1.7354609E3,1.6431406E3,2.6390234E2,2.2042444E2,2.2371631E2,1.9449219E2,2.2973633E2,2.1283594E2,2.2661719E2,2.1052344E2,4.3444824E1,2.7469238E1,2.7785522E1,3.056029E1,3.3098404E1,3.1678223E1,2.8482178E1,1.9846191E1,3.1051758E1,2.6142578E1,2.3246094E1,3.1177734E1,2.765625E1,2.2222656E1,2.51875E1,2.0515625E1,0E0,0E0,0E0,0E0,0E0,0E0,0E0,0E0,0E0,0E0,0E0,0E0,0E0,0E0,0E0,0E0,0E0,0E0,0E0,0E0,0E0,0E0,0E0,0E0,0E0,0E0,0E0,0E0,0E0,0E0,0E0,0E0],"parents":[2147483647,0,0,1,1,2,2,3,3,4,4,5,5,6,6,7,7,8,8,9,9,10,10,11,11,12,12,13,13,14,14,15,15,16,16,17,17,18,18,19,19,20,20,21,21,22,22,23,23,24,24,25,25,26,26,27,27,28,28,29,29,30,30],"right_children":[2,4,6,8,10,12,14,16,18,20,22,24,26,28,30,32,34,36,38,40,42,44,46,48,50,52,54,56,58,60,62,-1,-1,-1,-1,-1,-1,-1,-1,-1,-1,-1,-1,-1,-1,-1,-1,-1,-1,-1,-1,-1,-1,-1,-1,-1,-1,-1,-1,-1,-1,-1,-1],"split_conditions":[4.92E0,2.67E0,7.34E0,1.48E0,3.79E0,6.15E0,8.59E0,9.1E-1,2.1E0,3.25E0,4.43E0,5.52E0,6.67E0,7.98E0,9.27E0,6.3E-1,1.26E0,1.75E0,2.4E0,2.95E0,3.55E0,4.15E0,4.63E0,5.27E0,5.86E0,6.37E0,6.98E0,7.65E0,8.24E0,8.91E0,9.67E0,-3.0292758E-1,-2.5294733E-1,-2.1125893E-1,-1.6878876E-1,-1.2968707E-1,-8.729225E-2,-4.3507148E-2,1.2386664E-3,3.8599946E-2,8.484775E-2,1.2861072E-1,1.7498848E-1,2.1544959E-1,2.5844628E-1,2.965847E-1,3.3604282E-1,3.7931773E-1,4.2596814E-1,4.674656E-1,5.1224625E-1,5.4895765E-1,5.934527E-1,6.3536155E-1,6.8512166E-1,7.2778463E-1,7.764593E-1,8.211142E-1,8.696787E-1,9.14599E-1,9.6568775E-1,1.0189697E0,1.0833901E0],"split_indices":[0,2,2,0,0,2,2,0,2,2,2,0,0,2,0,0,2,0,2,2,0,2,0,2,2,0,0,2,0,0,0,0,0,0,0,0,0,0,0,0,0,0,0,0,0,0,0,0,0,0,0,0,0,0,0,0,0,0,0,0,0,0,0],"split_type":[0,0,0,0,0,0,0,0,0,0,0,0,0,0,0,0,0,0,0,0,0,0,0,0,0,0,0,0,0,0,0,0,0,0,0,0,0,0,0,0,0,0,0,0,0,0,0,0,0,0,0,0,0,0,0,0,0,0,0,0,0,0,0],"sum_hessian":[8.3518E4,4.4831E4,3.8687E4,2.3198E4,2.1633E4,2.0762E4,1.7925E4,1.2063E4,1.1135E4,1.1082E4,1.0551E4,1.0627E4,1.0135E4,9.761E3,8.164E3,6.467E3,5.596E3,5.622E3,5.513E3,5.585E3,5.497E3,5.677E3,4.874E3,5.457E3,5.17E3,4.9E3,5.235E3,5.158E3,4.603E3,4.847E3,3.317E3,3.597E3,2.87E3,3.016E3,2.58E3,2.595E3,3.027E3,2.919E3,2.594E3,2.682E3,2.903E3,3.212E3,2.285E3,2.97E3,2.707E3,2.254E3,2.62E3,2.92E3,2.537E3,2.609E3,2.561E3,2.322E3,2.578E3,2.621E3,2.614E3,2.537E3,2.621E3,2.296E3,2.307E3,2.6E3,2.247E3,2.302E3,1.015E3],"tree_param":{"num_deleted":"0","num_feature":"6","num_nodes":"63","size_leaf_vector":"1"}},{"base_weights":[-1.2687638E0],"categories":[],"categories_nodes":[],"categories_segments":[],"categories_sizes":[],"default_left":[0],"id":13,"left_children":[-1],"loss_changes":[0E0],"parents":[2147483647],"right_children":[-1],"split_conditions":[-3.8062915E-1],"split_indices":[0],"split_type":[0],"sum_hessian":[8.3185E4],"tree_param":{"num_deleted":"0","num_feature":"6","num_nodes":"1","size_leaf_vector":"1"}},{"base_weights":[1.108883E0,9.228934E-3,2.2737558E0,-5.557529E-1,5.425346E-1,1.6816789E0,2.8884487E0,-8.3261263E-1,-3.112519E-1,2.5275669E-1,8.2960546E-1,1.3845958E0,1.9496284E0,2.575357E0,3.2378175E0,-9.695888E-1,-7.2811776E-1,-4.5998797E-1,-1.8129382E-1,1.02939546E-1,3.8808686E-1,6.8648016E-1,9.7444606E-1,1.2397469E0,1.5115793E0,1.7829363E0,2.0886452E0,2.4058979E0,2.723571E0,3.0920699E0,3.4728696E0,-3.0807918E-1,-2.7639297E-1,-2.4005209E-1,-1.9965221E-1,-1.5841487E-1,-1.2210615E-1,-7.8886285E-2,-3.5280928E-2,1.1432964E-2,4.9870726E-2,9.2759505E-2,1.3583353E-1,1.8120195E-1,2.2805917E-1,2.6551375E-1,3.1145614E-1,3.5182607E-1,3.860728E-1,4.3150938E-1,4.749407E-1,5.1372105E-1,5.5292827E-1,5.9944946E-1,6.473937E-1,7.0549166E-1,7.455945E-1,7.8600967E-1,8.3868325E-1,9.0281373E-1,9.655217E-1,1.0219309E0,1.0897758E0],"categories":[],"categories_nodes":[],"categories_segments":[],"categories_sizes":[],"default_left":[0,0,0,0,0,0,0,0,0,0,0,0,0,0,0,0,0,0,0,0,0,0,0,0,0,0,0,0,0,0,0,0,0,0,0,0,0,0,0,0,0,0,0,0,0,0,0,0,0,0,0,0,0,0,0,0,0,0,0,0,0,0,0],"id":14,"left_children":[1,3,5,7,9,11,13,15,17,19,21,23,25,27,29,31,33,35,37,39,41,43,45,47,49,51,53,55,57,59,61,-1,-1,-1,-1,-1,-1,-1,-1,-1,-1,-1,-1,-1,-1,-1,-1,-1,-1,-1,-1,-1,-1,-1,-1,-1,-1,-1,-1,-1,-1,-1,-1],"loss_changes":[1.0714566E5,1.2964981E4,1.4777875E4,1.4141079E3,1.8411299E3,1.644457E3,2.1713594E3,1.3953613E2,2.1441553E2,2.2332733E2,2.2983203E2,1.7867578E2,2.4832812E2,2.5752344E2,3.1176562E2,1.0783447E1,2.4560059E1,1.8437622E1,3.0779861E1,2.1454819E1,2.939862E1,3.356299E1,3.055957E1,1.2996582E1,2.510254E1,1.7859375E1,3.285547E1,1.5330078E1,3.4453125E1,5.1117188E1,2.5773438E1,0E0,0E0,0E0,0E0,0E0,0E0,0E0,0E0,0E0,0E0,0E0,0E0,0E0,0E0,0E0,0E0,0E0,0E0,0E0,0E0,0E0,0E0,0E0,0E0,0E0,0E0,0E0,0E0,0E0,0E0,0E0,0E0],"parents":[2147483647,0,0,1,1,2,2,3,3,4,4,5,5,6,6,7,7,8,8,9,9,10,10,11,11,12,12,13,13,14,14,15,15,16,16,17,17,18,18,19,19,20,20,21,21,22,22,23,23,24,24,25,25,26,26,27,27,28,28,29,29,30,30],"right_children":[2,4,6,8,10,12,14,16,18,20,22,24,26,28,30,32,34,36,38,40,42,44,46,48,50,52,54,56,58,60,62,-1,-1,-1,-1,-1,-1,-1,-1,-1,-1,-1,-1,-1,-1,-1,-1,-1,-1,-1,-1,-1,-1,-1,-1,-1,-1,-1,-1,-1,-1,-1,-1],"split_conditions":[4.78E0,2.43E0,7.14E0,1.33E0,3.55E0,5.86E0,8.45E0,7.4E-1,1.78E0,2.98E0,4.19E0,5.27E0,6.41E0,7.69E0,9.26E0,4.6E-1,9.9E-1,1.48E0,2.05E0,2.74E0,3.25E0,3.87E0,4.43E0,4.99E0,5.52E0,6.07E0,6.71E0,7.41E0,8.02E0,8.9E0,9.67E0,-3.0807918E-1,-2.7639297E-1,-2.4005209E-1,-1.9965221E-1,-1.5841487E-1,-1.2210615E-1,-7.8886285E-2,-3.5280928E-2,1.1432964E-2,4.9870726E-2,9.2759505E-2,1.3583353E-1,1.8120195E-1,2.2805917E-1,2.6551375E-1,3.1145614E-1,3.5182607E-1,3.860728E-1,4.3150938E-1,4.749407E-1,5.1372105E-1,5.5292827E-1,5.9944946E-1,6.473937E-1,7.0549166E-1,7.455945E-1,7.8600967E-1,8.3868325E-1,9.0281373E-1,9.655217E-1,1.0219309E0,1.0897758E0],"split_indices":[2,2,4,4,0,2,4,2,0,2,2,2,2,2,2,0,2,0,0,4,2,2,2,2,0,0,2,0,4,2,0,0,0,0,0,0,0,0,0,0,0,0,0,0,0,0,0,0,0,0,0,0,0,0,0,0,0,0,0,0,0,0,0],"split_type":[0,0,0,0,0,0,0,0,0,0,0,0,0,0,0,0,0,0,0,0,0,0,0,0,0,0,0,0,0,0,0,0,0,0,0,0,0,0,0,0,0,0,0,0,0,0,0,0,0,0,0,0,0,0,0,0,0,0,0,0,0,0,0],"sum_hessian":[8.3644E4,4.3027E4,4.0617E4,2.0893E4,2.2134E4,2.0691E4,1.9926E4,9.797E3,1.1096E4,1.1016E4,1.1118E4,9.815E3,1.0876E4,1.0513E4,9.413E3,4.236E3,5.561E3,5.173E3,5.923E3,5.229E3,5.787E3,5.595E3,5.523E3,4.59E3,5.225E3,4.952E3,5.924E3,4.913E3,5.6E3,5.819E3,3.594E3,1.927E3,2.309E3,2.58E3,2.981E3,2.26E3,2.913E3,2.594E3,3.329E3,2.584E3,2.645E3,2.61E3,3.177E3,2.645E3,2.95E3,2.305E3,3.218E3,1.907E3,2.683E3,2.593E3,2.632E3,2.293E3,2.659E3,2.583E3,3.341E3,2.937E3,1.976E3,2.313E3,3.287E3,3.532E3,2.287E3,2.554E3,1.04E3],"tree_param":{"num_deleted":"0","num_feature":"6","num_nodes":"63","size_leaf_vector":"1"}},{"base_weights":[-6.847434E-1,-7.6099026E-1,-6.628834E-1,-8.060876E-1,-7.3483604E-1,-6.8533176E-1,-6.422551E-1,-7.8818333E-1,-8.6347884E-1,-9.443287E-1,-7.323096E-1,-7.585294E-1,-6.8152606E-1,-7.053761E-1,-6.3774484E-1,-8.654016E-1,-7.764377E-1,-9.1625184E-1,-8.3925045E-1,-1.0335839E0,-8.3856124E-1,-7.294977E-1,-9.1792244E-1,-2.5961828E-1,-2.2604775E-1,-6.7928857E-1,-7.911499E-1,-7.0667696E-1,-4.2736244E-1,-6.491887E-1,-6.165542E-1,-2.8425363E-1,-2.463691E-1,-1.5399161E-1,-2.3324716E-1,-2.300413E-1,-2.9033652E-1,-1.8860012E-1,-2.5281447E-1,-2.775205E-2,-3.137646E-1,-3.072946E-1,-2.2999878E-1,-2.2333492E-1,-2.1565342E-1,-2.8638616E-1,-2.0931518E-1,-1.981818E-1,-2.0627837E-1,-2.534073E-1,-1.9697537E-1,-1.2178711E-1,-2.12313E-1,-1.4669765E-2,-1.4751858E-1,-1.9821116E-1,-1.8979609E-1,-1.891809E-1,-1.7845732E-1],"categories":[],"categories_nodes":[],"categories_segments":[],"categories_sizes":[],"default_left":[0,0,0,0,0,0,0,0,0,0,0,0,0,0,0,0,0,0,0,0,0,0,0,0,0,0,0,0,0,0,0,0,0,0,0,0,0,0,0,0,0,0,0,0,0,0,0,0,0,0,0,0,0,0,0,0,0,0,0],"id":15,"left_children":[1,3,5,7,9,11,13,15,17,19,21,23,25,27,29,31,33,35,37,39,41,43,45,-1,-1,47,49,51,53,55,57,-1,-1,-1,-1,-1,-1,-1,-1,-1,-1,-1,-1,-1,-1,-1,-1,-1,-1,-1,-1,-1,-1,-1,-1,-1,-1,-1,-1],"loss_changes":[1.3871875E2,2.1350586E1,2.9623047E1,6.326172E0,5.5473633E0,8.139648E0,9.1875E0,4.05249E0,1.2910156E0,4.265976E-1,5.411133E0,1.6986084E-1,6.7109375E0,5.111084E-1,7.263672E0,1.6845093E0,8.564453E-1,3.0780945E0,2.843628E-1,7.1338654E-1,1.22867584E-1,1.2939453E0,7.077484E-1,0E0,0E0,4.040039E0,3.6601562E0,4.0734863E-1,2.926376E-1,3.4863281E0,3.008789E0,0E0,0E0,0E0,0E0,0E0,0E0,0E0,0E0,0E0,0E0,0E0,0E0,0E0,0E0,0E0,0E0,0E0,0E0,0E0,0E0,0E0,0E0,0E0,0E0,0E0,0E0,0E0,0E0],"parents":[2147483647,0,0,1,1,2,2,3,3,4,4,5,5,6,6,7,7,8,8,9,9,10,10,11,11,12,12,13,13,14,14,15,15,16,16,17,17,18,18,19,19,20,20,21,21,22,22,25,25,26,26,27,27,28,28,29,29,30,30],"right_children":[2,4,6,8,10,12,14,16,18,20,22,24,26,28,30,32,34,36,38,40,42,44,46,-1,-1,48,50,52,54,56,58,-1,-1,-1,-1,-1,-1,-1,-1,-1,-1,-1,-1,-1,-1,-1,-1,-1,-1,-1,-1,-1,-1,-1,-1,-1,-1,-1,-1],"split_conditions":[4.26965E-1,2.8684875E-1,6.8955415E-1,-5.5011842E-2,-4.7977656E-1,-3.5074374E-1,-2.8026322E-1,1.3278139E-1,1.7959964E-1,3.6662683E-1,1.0307372E-2,4.3595687E-1,-2.2137978E-3,9.84E0,9.319003E-1,-2.3109487E-1,3.5E-1,6.923552E-2,3.3E-1,3.6E-1,-5.795199E-1,3.5534334E-1,4.149473E-1,-2.5961828E-1,-2.2604775E-1,-1.3139157E-1,6.65E0,2.9E-1,-5.1445764E-1,-7.752001E-2,-8.368373E-2,-2.8425363E-1,-2.463691E-1,-1.5399161E-1,-2.3324716E-1,-2.300413E-1,-2.9033652E-1,-1.8860012E-1,-2.5281447E-1,-2.775205E-2,-3.137646E-1,-3.072946E-1,-2.2999878E-1,-2.2333492E-1,-2.1565342E-1,-2.8638616E-1,-2.0931518E-1,-1.981818E-1,-2.0627837E-1,-2.534073E-1,-1.9697537E-1,-1.2178711E-1,-2.12313E-1,-1.4669765E-2,-1.4751858E-1,-1.9821116E-1,-1.8979609E-1,-1.891809E-1,-1.7845732E-1],"split_indices":[3,3,3,5,5,5,5,3,3,3,5,3,5,2,3,5,2,3,0,0,5,3,3,0,0,5,2,0,5,5,5,0,0,0,0,0,0,0,0,0,0,0,0,0,0,0,0,0,0,0,0,0,0,0,0,0,0,0,0],"split_type":[0,0,0,0,0,0,0,0,0,0,0,0,0,0,0,0,0,0,0,0,0,0,0,0,0,0,0,0,0,0,0,0,0,0,0,0,0,0,0,0,0,0,0,0,0,0,0,0,0,0,0,0,0,0,0,0,0,0,0],"sum_hessian":[8.3528E4,1.8604E4,6.4924E4,6.818E3,1.1786E4,3.1075E4,3.3849E4,5.208E3,1.61E3,1.36E2,1.165E4,1.526E3,2.9549E4,2.247E3,3.1602E4,6.78E2,4.53E3,4.95E2,1.115E3,6.9E1,6.7E1,1.1481E4,1.69E2,6.1E1,1.465E3,2.8965E4,5.84E2,2.235E3,1.2E1,2.0501E4,1.1101E4,2.3E2,4.48E2,2E1,4.51E3,1.31E2,3.64E2,2.1E1,1.094E3,1E0,6.8E1,1.5E1,5.2E1,4.748E3,6.733E3,1.42E2,2.7E1,8.939E3,2.0026E4,4.14E2,1.7E2,9E0,2.226E3,2E0,1E1,1.2062E4,8.439E3,6.721E3,4.38E3],"tree_param":{"num_deleted":"0","num_feature":"6","num_nodes":"59","size_leaf_vector":"1"}},{"base_weights":[1.1262344E0,7.293162E-2,2.3405333E0,-4.7810152E-1,6.6197246E-1,1.8012959E0,2.9699101E0,-7.5792754E-1,-1.7967795E-1,3.8509408E-1,9.5058584E-1,1.5198632E0,2.0979705E0,2.6924424E0,3.30417E0,-8.9557195E-1,-5.968362E-1,-3.184623E-1,-3.958707E-2,2.442318E-1,5.31362E-1,8.2275224E-1,1.0992901E0,1.367226E0,1.6634985E0,1.9445859E0,2.239353E0,2.53781E0,2.843023E0,3.169544E0,3.499406E0,-2.9054096E-1,-2.4182905E-1,-1.9799687E-1,-1.5224303E-1,-1.17837146E-1,-7.467642E-2,-3.4519326E-2,1.2656349E-2,4.962414E-2,9.359786E-2,1.3749194E-1,1.7829055E-1,2.2529432E-1,2.6632136E-1,3.0815622E-1,3.4761202E-1,3.891447E-1,4.3652213E-1,4.7642052E-1,5.237926E-1,5.603327E-1,6.036731E-1,6.4735144E-1,6.9666934E-1,7.4042124E-1,7.837629E-1,8.286493E-1,8.797795E-1,9.254917E-1,9.7924024E-1,1.0296477E0,1.0932477E0],"categories":[],"categories_nodes":[],"categories_segments":[],"categories_sizes":[],"default_left":[0,0,0,0,0,0,0,0,0,0,0,0,0,0,0,0,0,0,0,0,0,0,0,0,0,0,0,0,0,0,0,0,0,0,0,0,0,0,0,0,0,0,0,0,0,0,0,0,0,0,0,0,0,0,0,0,0,0,0,0,0,0,0],"id":16,"left_children":[1,3,5,7,9,11,13,15,17,19,21,23,25,27,29,31,33,35,37,39,41,43,45,47,49,51,53,55,57,59,61,-1,-1,-1,-1,-1,-1,-1,-1,-1,-1,-1,-1,-1,-1,-1,-1,-1,-1,-1,-1,-1,-1,-1,-1,-1,-1,-1,-1,-1,-1,-1,-1],"loss_changes":[1.0659243E5,1.4486043E4,1.3132531E4,1.9254438E3,1.7233906E3,1.7377344E3,1.6476406E3,2.6332812E2,2.1696484E2,2.2673694E2,1.9985352E2,2.3240234E2,2.1571484E2,2.2015625E2,2.0173438E2,4.1061523E1,3.062439E1,2.8878784E1,3.429116E1,2.9915558E1,2.4562012E1,2.5839355E1,1.9711914E1,3.0092773E1,3.1506836E1,2.1576172E1,3.061914E1,1.8710938E1,2.7671875E1,2.8351562E1,1.9566406E1,0E0,0E0,0E0,0E0,0E0,0E0,0E0,0E0,0E0,0E0,0E0,0E0,0E0,0E0,0E0,0E0,0E0,0E0,0E0,0E0,0E0,0E0,0E0,0E0,0E0,0E0,0E0,0E0,0E0,0E0,0E0,0E0],"parents":[2147483647,0,0,1,1,2,2,3,3,4,4,5,5,6,6,7,7,8,8,9,9,10,10,11,11,12,12,13,13,14,14,15,15,16,16,17,17,18,18,19,19,20,20,21,21,22,22,23,23,24,24,25,25,26,26,27,27,28,28,29,29,30,30],"right_children":[2,4,6,8,10,12,14,16,18,20,22,24,26,28,30,32,34,36,38,40,42,44,46,48,50,52,54,56,58,60,62,-1,-1,-1,-1,-1,-1,-1,-1,-1,-1,-1,-1,-1,-1,-1,-1,-1,-1,-1,-1,-1,-1,-1,-1,-1,-1,-1,-1,-1,-1,-1,-1],"split_conditions":[4.92E0,2.67E0,7.34E0,1.48E0,3.87E0,6.15E0,8.59E0,9.1E-1,2.05E0,3.25E0,4.43E0,5.57E0,6.71E0,7.94E0,9.35E0,6.7E-1,1.33E0,1.8E0,2.43E0,2.9E0,3.48E0,4.12E0,4.71E0,5.27E0,5.86E0,6.41E0,6.98E0,7.65E0,8.24E0,8.99E0,9.67E0,-2.9054096E-1,-2.4182905E-1,-1.9799687E-1,-1.5224303E-1,-1.17837146E-1,-7.467642E-2,-3.4519326E-2,1.2656349E-2,4.962414E-2,9.359786E-2,1.3749194E-1,1.7829055E-1,2.2529432E-1,2.6632136E-1,3.0815622E-1,3.4761202E-1,3.891447E-1,4.3652213E-1,4.7642052E-1,5.237926E-1,5.603327E-1,6.036731E-1,6.4735144E-1,6.9666934E-1,7.4042124E-1,7.837629E-1,8.286493E-1,8.797795E-1,9.254917E-1,9.7924024E-1,1.0296477E0,1.0932477E0],"split_indices":[0,2,2,0,4,2,2,0,0,2,2,4,2,2,4,2,4,2,4,0,0,2,4,2,2,2,0,2,0,4,0,0,0,0,0,0,0,0,0,0,0,0,0,0,0,0,0,0,0,0,0,0,0,0,0,0,0,0,0,0,0,0,0],"split_type":[0,0,0,0,0,0,0,0,0,0,0,0,0,0,0,0,0,0,0,0,0,0,0,0,0,0,0,0,0,0,0,0,0,0,0,0,0,0,0,0,0,0,0,0,0,0,0,0,0,0,0,0,0,0,0,0,0,0,0,0,0,0,0],"sum_hessian":[8.3338E4,4.4628E4,3.871E4,2.3058E4,2.157E4,2.085E4,1.786E4,1.1899E4,1.1159E4,1.101E4,1.056E4,1.0703E4,1.0147E4,9.764E3,8.096E3,6.414E3,5.485E3,5.605E3,5.554E3,5.61E3,5.4E3,5.682E3,4.878E3,5.194E3,5.509E3,4.874E3,5.273E3,4.826E3,4.938E3,4.802E3,3.294E3,3.529E3,2.885E3,3.21E3,2.275E3,2.707E3,2.898E3,2.888E3,2.666E3,2.595E3,3.015E3,2.503E3,2.897E3,2.706E3,2.976E3,2.212E3,2.666E3,2.898E3,2.296E3,2.888E3,2.621E3,2.296E3,2.578E3,2.672E3,2.601E3,2.514E3,2.312E3,2.612E3,2.326E3,2.553E3,2.249E3,2.266E3,1.028E3],"tree_param":{"num_deleted":"0","num_feature":"6","num_nodes":"63","size_leaf_vector":"1"}},{"base_weights":[-1.3668643E0,-1.4871382E0,-1.3240948E0,-1.6163821E0,-1.4588556E0,-1.3725115E0,-1.3053526E0,-1.7073836E0,-1.5899193E0,-1.4888172E0,-4.311292E-1,-4.1533154E-1,-4.057756E-1,-3.9552027E-1,-1.2914679E0,-5.2675384E-1,-4.7770023E-1,-4.9281672E-1,-4.689225E-1,-4.539443E-1,-4.426588E-1,-4.1277167E-1,-1.289267E0,-3.9121112E-1,-3.8509932E-1],"categories":[],"categories_nodes":[],"categories_segments":[],"categories_sizes":[],"default_left":[0,0,0,0,0,0,0,0,0,0,0,0,0,0,0,0,0,0,0,0,0,0,0,0,0],"id":17,"left_children":[1,3,5,7,9,11,13,15,17,19,-1,-1,-1,-1,21,-1,-1,-1,-1,-1,-1,-1,23,-1,-1],"loss_changes":[4.2659375E2,7.75E1,5.3984375E1,6.7089844E0,9.546875E0,2.2011719E0,6.328125E0,2.0439453E0,1.75E0,1.9921875E-1,0E0,0E0,0E0,0E0,2.2265625E0,0E0,0E0,0E0,0E0,0E0,0E0,0E0,6.25E-2,0E0,0E0],"parents":[2147483647,0,0,1,1,2,2,3,3,4,4,5,5,6,6,7,7,8,8,9,9,14,14,22,22],"right_children":[2,4,6,8,10,12,14,16,18,20,-1,-1,-1,-1,22,-1,-1,-1,-1,-1,-1,-1,24,-1,-1],"split_conditions":[-1.6010024E-1,-3.5074374E-1,-1.0092578E-1,3.5886145E-1,-2.3420323E-1,-1.17349446E-1,-6.058861E-2,-3.947372E-1,-4.563893E-1,-2.9507622E-1,-4.311292E-1,-4.1533154E-1,-4.057756E-1,-3.9552027E-1,1.7959964E-1,-5.2675384E-1,-4.7770023E-1,-4.9281672E-1,-4.689225E-1,-4.539443E-1,-4.426588E-1,-4.1277167E-1,4.653552E-1,-3.9121112E-1,-3.8509932E-1],"split_indices":[5,5,5,3,5,5,5,5,5,5,0,0,0,0,3,0,0,0,0,0,0,0,3,0,0],"split_type":[0,0,0,0,0,0,0,0,0,0,0,0,0,0,0,0,0,0,0,0,0,0,0,0,0],"sum_hessian":[8.331E4,2.1845E4,6.1465E4,3.912E3,1.7933E4,1.7133E4,4.4332E4,8.67E2,3.045E3,7.516E3,1.0417E4,1.0675E4,6.458E3,2.2806E4,2.1526E4,6E2,2.67E2,1.006E3,2.039E3,2.615E3,4.901E3,5.31E2,2.0995E4,5.71E3,1.5285E4],"tree_param":{"num_deleted":"0","num_feature":"6","num_nodes":"25","size_leaf_vector":"1"}},{"base_weights":[7.6307696E-1,-6.361669E-3,1.5818971E0,-4.046044E-1,3.661041E-1,1.1640906E0,2.0103836E0,-5.990893E-1,-2.3134713E-1,1.514636E-1,5.558622E-1,9.780132E-1,1.3698217E0,1.7886925E0,2.2526112E0,-6.9596636E-1,-5.223726E-1,-3.302317E-1,-1.3281463E-1,5.3570535E-2,2.3797026E-1,4.3685845E-1,6.496991E-1,8.7936676E-1,1.0799401E0,1.2719015E0,1.4684492E0,1.6845495E0,1.9072884E0,2.1262217E0,2.3884654E0,-2.1161671E-1,-1.466908E-1,-1.6766693E-1,-1.3731219E-1,-1.1406726E-1,-8.4796645E-2,-5.2449595E-2,-2.1490311E-2,4.367909E-3,2.9952483E-2,5.8828384E-2,8.529652E-2,1.2999372E-1,4.009363E-1,1.7590982E-1,2.1025507E-1,2.4976723E-1,2.79759E-1,3.0809015E-1,3.398115E-1,3.6768264E-1,3.9421842E-1,4.2845604E-1,4.589254E-1,4.9091825E-1,5.261256E-1,5.5761635E-1,5.88784E-1,6.197307E-1,6.5777826E-1,7.0118463E-1,7.5248456E-1],"categories":[],"categories_nodes":[],"categories_segments":[],"categories_sizes":[],"default_left":[0,0,0,0,0,0,0,0,0,0,0,0,0,0,0,0,0,0,0,0,0,0,0,0,0,0,0,0,0,0,0,0,0,0,0,0,0,0,0,0,0,0,0,0,0,0,0,0,0,0,0,0,0,0,0,0,0,0,0,0,0,0,0],"id":18,"left_children":[1,3,5,7,9,11,13,15,17,19,21,23,25,27,29,31,33,35,37,39,41,43,45,47,49,51,53,55,57,59,61,-1,-1,-1,-1,-1,-1,-1,-1,-1,-1,-1,-1,-1,-1,-1,-1,-1,-1,-1,-1,-1,-1,-1,-1,-1,-1,-1,-1,-1,-1,-1,-1],"loss_changes":[5.268579E4,6.3951763E3,7.2503047E3,7.0194995E2,9.072942E2,7.8397656E2,1.0699062E3,7.25896E1,1.07337524E2,8.85244E1,1.317539E2,1.07390625E2,9.219922E1,1.2581641E2,1.5895312E2,8.110352E0,1.2689453E1,1.2973999E1,1.4182503E1,8.854238E0,1.0716797E1,1.6060059E1,2.0999023E1,1.2862793E1,1.3636719E1,7.942383E0,9.776367E0,1.5694336E1,9.457031E0,1.5363281E1,2.2322266E1,0E0,0E0,0E0,0E0,0E0,0E0,0E0,0E0,0E0,0E0,0E0,0E0,0E0,0E0,0E0,0E0,0E0,0E0,0E0,0E0,0E0,0E0,0E0,0E0,0E0,0E0,0E0,0E0,0E0,0E0,0E0,0E0],"parents":[2147483647,0,0,1,1,2,2,3,3,4,4,5,5,6,6,7,7,8,8,9,9,10,10,11,11,12,12,13,13,14,14,15,15,16,16,17,17,18,18,19,19,20,20,21,21,22,22,23,23,24,24,25,25,26,26,27,27,28,28,29,29,30,30],"right_children":[2,4,6,8,10,12,14,16,18,20,22,24,26,28,30,32,34,36,38,40,42,44,46,48,50,52,54,56,58,60,62,-1,-1,-1,-1,-1,-1,-1,-1,-1,-1,-1,-1,-1,-1,-1,-1,-1,-1,-1,-1,-1,-1,-1,-1,-1,-1,-1,-1,-1,-1,-1,-1],"split_conditions":[4.74E0,2.43E0,7.1E0,1.33E0,3.53E0,6.01E0,8.45E0,7.4E-1,1.82E0,2.9E0,4.04E0,5.38E0,6.49E0,7.77E0,9.1E0,-6.438613E-3,1.04E0,1.57E0,2.2E0,2.71E0,3.2E0,5.0086007E-2,4.39E0,5.1E0,5.72E0,6.23E0,6.87E0,7.46E0,8.15E0,8.72E0,9.69E0,-2.1161671E-1,-1.466908E-1,-1.6766693E-1,-1.3731219E-1,-1.1406726E-1,-8.4796645E-2,-5.2449595E-2,-2.1490311E-2,4.367909E-3,2.9952483E-2,5.8828384E-2,8.529652E-2,1.2999372E-1,4.009363E-1,1.7590982E-1,2.1025507E-1,2.4976723E-1,2.79759E-1,3.0809015E-1,3.398115E-1,3.6768264E-1,3.9421842E-1,4.2845604E-1,4.589254E-1,4.9091825E-1,5.261256E-1,5.5761635E-1,5.88784E-1,6.197307E-1,6.5777826E-1,7.0118463E-1,7.5248456E-1],"split_indices":[0,2,2,4,2,4,4,2,0,0,0,2,0,2,2,5,0,2,2,2,0,5,2,2,4,2,2,0,4,0,4,0,0,0,0,0,0,0,0,0,0,0,0,0,0,0,0,0,0,0,0,0,0,0,0,0,0,0,0,0,0,0,0],"split_type":[0,0,0,0,0,0,0,0,0,0,0,0,0,0,0,0,0,0,0,0,0,0,0,0,0,0,0,0,0,0,0,0,0,0,0,0,0,0,0,0,0,0,0,0,0,0,0,0,0,0,0,0,0,0,0,0,0,0,0,0,0,0,0],"sum_hessian":[8.3623E4,4.3112E4,4.0511E4,2.0835E4,2.2277E4,2.0513E4,1.9998E4,9.815E3,1.102E4,1.0454E4,1.1823E4,1.0774E4,9.739E3,1.0446E4,9.552E3,4.334E3,5.481E3,5.499E3,5.521E3,4.905E3,5.549E3,5.215E3,6.608E3,5.48E3,5.294E3,4.894E3,4.845E3,5.57E3,4.876E3,4.957E3,4.595E3,4.143E3,1.91E2,3.498E3,1.983E3,2.678E3,2.821E3,3.272E3,2.249E3,2.662E3,2.243E3,2.918E3,2.631E3,5.196E3,1.9E1,2.958E3,3.65E3,2.923E3,2.557E3,2.652E3,2.642E3,2.347E3,2.547E3,2.939E3,1.906E3,3.299E3,2.271E3,2.615E3,2.261E3,2.611E3,2.346E3,3.234E3,1.361E3],"tree_param":{"num_deleted":"0","num_feature":"6","num_nodes":"63","size_leaf_vector":"1"}},{"base_weights":[-8.882267E-1,-9.0341085E-1,-8.673564E-1,-9.321847E-1,-8.960483E-1,-8.7459433E-1,-8.389044E-1,-9.615048E-1,-9.231128E-1,-9.009923E-1,-2.662093E-1,-2.637196E-1,-2.5960132E-1,-2.5424764E-1,-2.4611124E-1,-1.0023631E0,-2.841278E-1,-2.811259E-1,-2.7411658E-1,-2.7313036E-1,-2.68617E-1,-2.5343966E-1,-3.0488425E-1],"categories":[],"categories_nodes":[],"categories_segments":[],"categories_sizes":[],"default_left":[0,0,0,0,0,0,0,0,0,0,0,0,0,0,0,0,0,0,0,0,0,0,0],"id":19,"left_children":[1,3,5,7,9,11,13,15,17,19,-1,-1,-1,-1,-1,21,-1,-1,-1,-1,-1,-1,-1],"loss_changes":[2.5609375E1,9.371094E0,6.4941406E0,1.7167969E0,8.515625E-1,3.984375E-1,4.4140625E-1,3.9892578E-1,1.2841797E-1,4.7460938E-1,0E0,0E0,0E0,0E0,0E0,4.1333008E-1,0E0,0E0,0E0,0E0,0E0,0E0,0E0],"parents":[2147483647,0,0,1,1,2,2,3,3,4,4,5,5,6,6,7,7,8,8,9,9,15,15],"right_children":[2,4,6,8,10,12,14,16,18,20,-1,-1,-1,-1,-1,22,-1,-1,-1,-1,-1,-1,-1],"split_conditions":[-6.376675E-2,-1.2871683E-1,-2.598648E-2,-1.8862343E-1,7.6494503E-1,-4.2007655E-2,-5.4337075E-3,6.8955415E-1,7.5878084E-1,-9.009503E-2,-2.662093E-1,-2.637196E-1,-2.5960132E-1,-2.5424764E-1,-2.4611124E-1,1.5174569E-1,-2.841278E-1,-2.811259E-1,-2.7411658E-1,-2.7313036E-1,-2.68617E-1,-2.5343966E-1,-3.0488425E-1],"split_indices":[1,1,1,1,3,1,1,3,3,1,0,0,0,0,0,3,0,0,0,0,0,0,0],"split_type":[0,0,0,0,0,0,0,0,0,0,0,0,0,0,0,0,0,0,0,0,0,0,0],"sum_hessian":[8.3286E4,4.8186E4,3.51E4,9.792E3,3.8394E4,2.7958E4,7.142E3,2.289E3,7.503E3,2.44E4,1.3994E4,1.8789E4,9.169E3,4.85E3,2.292E3,5.79E2,1.71E3,2.976E3,4.527E3,9.026E3,1.5374E4,5.2E1,5.27E2],"tree_param":{"num_deleted":"0","num_feature":"6","num_nodes":"23","size_leaf_vector":"1"}},{"base_weights":[7.7542317E-1,2.7714283E-3,1.586622E0,-3.9488432E-1,3.6827305E-1,1.1657084E0,2.0167227E0,-5.8380336E-1,-2.2286072E-1,1.583513E-1,5.642677E-1,9.655724E-1,1.3573127E0,1.7738276E0,2.2456095E0,-6.8781406E-1,-5.145053E-1,-3.2617065E-1,-1.3840494E-1,6.165227E-2,2.5195855E-1,4.6584085E-1,6.6795075E-1,8.5805666E-1,1.0525292E0,1.2594336E0,1.4654437E0,1.6664003E0,1.8660731E0,2.1166942E0,2.3867078E0,-2.0925717E-1,-9.3675956E-2,-1.7162712E-1,-1.4112228E-1,-1.0972298E-1,-8.482247E-2,-5.545297E-2,-2.7519058E-2,5.511786E-3,3.1181434E-2,6.829874E-2,9.981601E-2,1.2335767E-1,1.5581398E-1,1.8865116E-1,2.2107899E-1,2.4458341E-1,2.6699322E-1,3.0050766E-1,3.3243528E-1,3.6087322E-1,3.9273456E-1,4.2840663E-1,4.616616E-1,4.8673612E-1,5.1284266E-1,5.4369175E-1,5.7570225E-1,6.1410445E-1,6.5310305E-1,7.0098174E-1,7.569645E-1],"categories":[],"categories_nodes":[],"categories_segments":[],"categories_sizes":[],"default_left":[0,0,0,0,0,0,0,0,0,0,0,0,0,0,0,0,0,0,0,0,0,0,0,0,0,0,0,0,0,0,0,0,0,0,0,0,0,0,0,0,0,0,0,0,0,0,0,0,0,0,0,0,0,0,0,0,0,0,0,0,0,0,0],"id":20,"left_children":[1,3,5,7,9,11,13,15,17,19,21,23,25,27,29,31,33,35,37,39,41,43,45,47,49,51,53,55,57,59,61,-1,-1,-1,-1,-1,-1,-1,-1,-1,-1,-1,-1,-1,-1,-1,-1,-1,-1,-1,-1,-1,-1,-1,-1,-1,-1,-1,-1,-1,-1,-1,-1],"loss_changes":[5.2279234E4,6.209379E3,7.3639688E3,6.6482227E2,9.1580664E2,7.873711E2,1.1148203E3,6.9928955E1,9.340961E1,9.729056E1,1.1717114E2,9.317871E1,1.0933594E2,9.36875E1,1.8334375E2,1.3989502E1,1.460144E1,8.17511E0,1.2760429E1,9.677578E0,1.0641724E1,1.7075195E1,1.465625E1,5.4260254E0,1.4599121E1,1.3928711E1,1.15E1,5.7871094E0,1.1457031E1,1.8326172E1,2.786914E1,0E0,0E0,0E0,0E0,0E0,0E0,0E0,0E0,0E0,0E0,0E0,0E0,0E0,0E0,0E0,0E0,0E0,0E0,0E0,0E0,0E0,0E0,0E0,0E0,0E0,0E0,0E0,0E0,0E0,0E0,0E0,0E0],"parents":[2147483647,0,0,1,1,2,2,3,3,4,4,5,5,6,6,7,7,8,8,9,9,10,10,11,11,12,12,13,13,14,14,15,15,16,16,17,17,18,18,19,19,20,20,21,21,22,22,23,23,24,24,25,25,26,26,27,27,28,28,29,29,30,30],"right_children":[2,4,6,8,10,12,14,16,18,20,22,24,26,28,30,32,34,36,38,40,42,44,46,48,50,52,54,56,58,60,62,-1,-1,-1,-1,-1,-1,-1,-1,-1,-1,-1,-1,-1,-1,-1,-1,-1,-1,-1,-1,-1,-1,-1,-1,-1,-1,-1,-1,-1,-1,-1,-1],"split_conditions":[4.7E0,2.43E0,7.02E0,1.25E0,3.48E0,5.9E0,8.24E0,6.6E-1,1.75E0,2.9E0,4.19E0,5.19E0,6.44E0,7.57E0,9E0,2.2810075E-2,9.1E-1,1.6E0,2.13E0,2.62E0,3.42E0,3.87E0,4.56E0,5E0,5.6E0,6.19E0,6.9E0,7.38E0,7.9E0,8.58E0,9.69E0,-2.0925717E-1,-9.3675956E-2,-1.7162712E-1,-1.4112228E-1,-1.0972298E-1,-8.482247E-2,-5.545297E-2,-2.7519058E-2,5.511786E-3,3.1181434E-2,6.829874E-2,9.981601E-2,1.2335767E-1,1.5581398E-1,1.8865116E-1,2.2107899E-1,2.4458341E-1,2.6699322E-1,3.0050766E-1,3.3243528E-1,3.6087322E-1,3.9273456E-1,4.2840663E-1,4.616616E-1,4.8673612E-1,5.1284266E-1,5.4369175E-1,5.7570225E-1,6.1410445E-1,6.5310305E-1,7.0098174E-1,7.569645E-1],"split_indices":[0,4,0,0,0,4,0,0,0,0,4,0,0,0,0,1,0,4,4,0,4,4,4,4,4,4,4,4,0,0,4,0,0,0,0,0,0,0,0,0,0,0,0,0,0,0,0,0,0,0,0,0,0,0,0,0,0,0,0,0,0,0,0],"split_type":[0,0,0,0,0,0,0,0,0,0,0,0,0,0,0,0,0,0,0,0,0,0,0,0,0,0,0,0,0,0,0,0,0,0,0,0,0,0,0,0,0,0,0,0,0,0,0,0,0,0,0,0,0,0,0,0,0,0,0,0,0,0,0],"sum_hessian":[8.3409E4,4.272E4,4.0689E4,2.046E4,2.226E4,2.0566E4,2.0123E4,9.75E3,1.071E4,1.0749E4,1.1511E4,1.0062E4,1.0504E4,9.767E3,1.0356E4,3.895E3,5.855E3,4.816E3,5.894E3,5.288E3,5.461E3,5.908E3,5.603E3,4.504E3,5.558E3,5.52E3,4.984E3,4.521E3,5.246E3,5.42E3,4.936E3,3.796E3,9.9E1,2.534E3,3.321E3,2.516E3,2.3E3,2.953E3,2.941E3,2.614E3,2.674E3,4.201E3,1.26E3,2.928E3,2.98E3,3.582E3,2.021E3,1.936E3,2.568E3,2.913E3,2.645E3,2.594E3,2.926E3,3.315E3,1.669E3,2.257E3,2.264E3,2.62E3,2.626E3,2.531E3,2.889E3,3.624E3,1.312E3],"tree_param":{"num_deleted":"0","num_feature":"6","num_nodes":"63","size_leaf_vector":"1"}},{"base_weights":[-4.832375E-1,-5.2914697E-1,-4.652824E-1,-7.107586E-1,-5.2486855E-1,-5.924449E-1,-4.63431E-1,-8.409258E-1,-6.4886385E-1,-5.7770175E-1,-5.121612E-1,-6.569278E-1,-5.0826E-1,-4.755226E-1,-4.48784E-1,-8.602327E-1,-4.4599217E-1,-6.671886E-1,-4.1101593E-1,-6.2828934E-1,-5.644435E-1,-5.472966E-1,-5.0179416E-1,-3.9468873E-1,-6.650673E-1,-5.277669E-1,-2.8892276E-1,-5.1632273E-1,-4.6897864E-1,-4.5752355E-1,-4.2957327E-1,-6.0696386E-2,-2.6017076E-1,-1.4108588E-1,-3.410184E-2,-1.83399E-2,-2.0171608E-1,-1.423631E-1,-7.285767E-2,-1.963486E-1,-1.7645098E-1,-1.6500717E-1,-1.7976275E-1,-1.8118215E-1,-1.624057E-1,-1.551323E-1,-1.4427914E-1,-1.4259012E-1,-5.030517E-2,-2.020099E-1,-1.3702427E-1,-5.2778017E-2,-1.6004255E-1,-2.4438582E-2,-1.0561553E-1,-1.7134145E-1,-1.489471E-1,-1.4016002E-1,-1.776786E-1,-1.4138995E-1,-1.3042648E-1,-1.2691186E-1,-1.3399078E-1],"categories":[],"categories_nodes":[],"categories_segments":[],"categories_sizes":[],"default_left":[0,0,0,0,0,0,0,0,0,0,0,0,0,0,0,0,0,0,0,0,0,0,0,0,0,0,0,0,0,0,0,0,0,0,0,0,0,0,0,0,0,0,0,0,0,0,0,0,0,0,0,0,0,0,0,0,0,0,0,0,0,0,0],"id":21,"left_children":[1,3,5,7,9,11,13,15,17,19,21,23,25,27,29,31,33,35,37,39,41,43,45,47,49,51,53,55,57,59,61,-1,-1,-1,-1,-1,-1,-1,-1,-1,-1,-1,-1,-1,-1,-1,-1,-1,-1,-1,-1,-1,-1,-1,-1,-1,-1,-1,-1,-1,-1,-1,-1],"loss_changes":[6.8671875E1,1.7884766E1,1.3876953E1,3.7888184E0,1.5119141E1,4.3291626E0,1.0279297E1,9.1259E-1,1.3340607E0,2.6259766E0,6.470703E0,7.6846313E-1,1.4605331E0,8.419434E0,4.305176E0,5.663376E-1,2.7274966E-2,1.0332031E0,1.945486E-1,5.760193E-1,1.4404297E0,1.0898438E0,4.3237305E0,2.3138714E-1,4.9980164E-1,5.990524E-1,4.035151E-1,4.5802E0,5.8554688E0,5.5705566E0,7.474365E-1,0E0,0E0,0E0,0E0,0E0,0E0,0E0,0E0,0E0,0E0,0E0,0E0,0E0,0E0,0E0,0E0,0E0,0E0,0E0,0E0,0E0,0E0,0E0,0E0,0E0,0E0,0E0,0E0,0E0,0E0,0E0,0E0],"parents":[2147483647,0,0,1,1,2,2,3,3,4,4,5,5,6,6,7,7,8,8,9,9,10,10,11,11,12,12,13,13,14,14,15,15,16,16,17,17,18,18,19,19,20,20,21,21,22,22,23,23,24,24,25,25,26,26,27,27,28,28,29,29,30,30],"right_children":[2,4,6,8,10,12,14,16,18,20,22,24,26,28,30,32,34,36,38,40,42,44,46,48,50,52,54,56,58,60,62,-1,-1,-1,-1,-1,-1,-1,-1,-1,-1,-1,-1,-1,-1,-1,-1,-1,-1,-1,-1,-1,-1,-1,-1,-1,-1,-1,-1,-1,-1,-1,-1],"split_conditions":[4.7099474E-1,-1.4267695E-1,-2.2627E-1,-2.1392322E-1,2.462997E-1,9.030207E-1,7.489966E-1,9.37E0,9.48E0,1.3278139E-1,-7.405485E-2,4.8E-1,9.54E0,-1.1297484E-1,-7.223826E-2,3.5E-1,9.84E0,3.5E-1,4.2117715E-1,5.24E0,-2.9676896E-2,1.06E0,3.9130008E-1,8.1551325E-1,9.59E0,4.1E-1,9.815238E-1,5.684477E-1,5.397413E-3,9.6980476E-1,9.6379584E-1,-6.0696386E-2,-2.6017076E-1,-1.4108588E-1,-3.410184E-2,-1.83399E-2,-2.0171608E-1,-1.423631E-1,-7.285767E-2,-1.963486E-1,-1.7645098E-1,-1.6500717E-1,-1.7976275E-1,-1.8118215E-1,-1.624057E-1,-1.551323E-1,-1.4427914E-1,-1.4259012E-1,-5.030517E-2,-2.020099E-1,-1.3702427E-1,-5.2778017E-2,-1.6004255E-1,-2.4438582E-2,-1.0561553E-1,-1.7134145E-1,-1.489471E-1,-1.4016002E-1,-1.776786E-1,-1.4138995E-1,-1.3042648E-1,-1.2691186E-1,-1.3399078E-1],"split_indices":[3,1,1,1,3,3,3,2,2,3,1,2,2,1,1,2,2,2,3,4,1,2,3,3,2,4,3,3,1,3,3,0,0,0,0,0,0,0,0,0,0,0,0,0,0,0,0,0,0,0,0,0,0,0,0,0,0,0,0,0,0,0,0],"split_type":[0,0,0,0,0,0,0,0,0,0,0,0,0,0,0,0,0,0,0,0,0,0,0,0,0,0,0,0,0,0,0,0,0,0,0,0,0,0,0,0,0,0,0,0,0,0,0,0,0,0,0,0,0,0,0,0,0,0,0,0,0,0,0],"sum_hessian":[8.3605E4,2.3497E4,6.0108E4,5.37E2,2.296E4,8.58E2,5.925E4,1.69E2,3.68E2,4.443E3,1.8517E4,4.82E2,3.76E2,3.2439E4,2.6811E4,1.6E2,9E0,3.4E2,2.8E1,9.13E2,3.53E3,4.207E3,1.431E4,1.6E1,4.66E2,3.44E2,3.2E1,4.473E3,2.7966E4,1.8412E4,8.399E3,2E0,1.58E2,8E0,1E0,3E0,3.37E2,1.9E1,9E0,5.43E2,3.7E2,2.507E3,1.023E3,3.9E2,3.817E3,8.239E3,6.071E3,1.1E1,5E0,4.46E2,2E1,6E0,3.38E2,8E0,2.4E1,1.181E3,3.292E3,2.7573E4,3.93E2,1.1459E4,6.953E3,6.092E3,2.307E3],"tree_param":{"num_deleted":"0","num_feature":"6","num_nodes":"63","size_leaf_vector":"1"}},{"base_weights":[7.857895E-1,2.792327E-2,1.6115664E0,-3.7547752E-1,3.9825457E-1,1.1952715E0,2.0346987E0,-5.699129E-1,-2.0203286E-1,2.0214462E-1,6.1456966E-1,9.9413186E-1,1.384104E0,1.8141841E0,2.2772784E0,-6.708966E-1,-4.930544E-1,-2.990002E-1,-1.0804769E-1,8.3814666E-2,2.981871E-1,5.124605E-1,7.0880854E-1,8.8221645E-1,1.0680765E0,1.2753445E0,1.4800144E0,1.7026614E0,1.9254644E0,2.142183E0,2.4041886E0,-2.0366852E-1,-1.04856074E-1,-1.6182911E-1,-1.3323276E-1,-1.0327304E-1,-7.415337E-2,-4.4141322E-2,-1.5382817E-2,1.4555068E-2,4.2166214E-2,7.445681E-2,1.1067731E-1,1.3792339E-1,1.6896619E-1,1.976435E-1,2.2859265E-1,2.572291E-1,2.7907917E-1,3.0591914E-1,3.4240597E-1,3.7205967E-1,3.9876255E-1,4.3267724E-1,4.6521765E-1,4.9723923E-1,5.287713E-1,5.618043E-1,5.982562E-1,6.234758E-1,6.565368E-1,7.055986E-1,7.616194E-1],"categories":[],"categories_nodes":[],"categories_segments":[],"categories_sizes":[],"default_left":[0,0,0,0,0,0,0,0,0,0,0,0,0,0,0,0,0,0,0,0,0,0,0,0,0,0,0,0,0,0,0,0,0,0,0,0,0,0,0,0,0,0,0,0,0,0,0,0,0,0,0,0,0,0,0,0,0,0,0,0,0,0,0],"id":22,"left_children":[1,3,5,7,9,11,13,15,17,19,21,23,25,27,29,31,33,35,37,39,41,43,45,47,49,51,53,55,57,59,61,-1,-1,-1,-1,-1,-1,-1,-1,-1,-1,-1,-1,-1,-1,-1,-1,-1,-1,-1,-1,-1,-1,-1,-1,-1,-1,-1,-1,-1,-1,-1,-1],"loss_changes":[5.220218E4,6.4981016E3,7.0290312E3,7.019802E2,9.619114E2,7.629707E2,1.05475E3,7.58479E1,1.0026166E2,1.3516946E2,1.0339795E2,7.972754E1,1.0635742E2,1.2546484E2,1.5639453E2,1.0659058E1,1.2419556E1,1.2613312E1,1.2397812E1,1.0669971E1,2.3130432E1,1.3599243E1,1.4397217E1,3.8276367E0,1.9614258E1,7.571289E0,1.246875E1,1.1130859E1,1.5074219E1,8.978516E0,2.8085938E1,0E0,0E0,0E0,0E0,0E0,0E0,0E0,0E0,0E0,0E0,0E0,0E0,0E0,0E0,0E0,0E0,0E0,0E0,0E0,0E0,0E0,0E0,0E0,0E0,0E0,0E0,0E0,0E0,0E0,0E0,0E0,0E0],"parents":[2147483647,0,0,1,1,2,2,3,3,4,4,5,5,6,6,7,7,8,8,9,9,10,10,11,11,12,12,13,13,14,14,15,15,16,16,17,17,18,18,19,19,20,20,21,21,22,22,23,23,24,24,25,25,26,26,27,27,28,28,29,29,30,30],"right_children":[2,4,6,8,10,12,14,16,18,20,22,24,26,28,30,32,34,36,38,40,42,44,46,48,50,52,54,56,58,60,62,-1,-1,-1,-1,-1,-1,-1,-1,-1,-1,-1,-1,-1,-1,-1,-1,-1,-1,-1,-1,-1,-1,-1,-1,-1,-1,-1,-1,-1,-1,-1,-1],"split_conditions":[4.82E0,2.43E0,7.1E0,1.3E0,3.67E0,5.9E0,8.45E0,7.4E-1,1.86E0,2.98E0,4.22E0,5.24E0,6.49E0,7.77E0,9.09E0,2.2810075E-2,1.06E0,1.6E0,2.2E0,2.81E0,3.42E0,3.98E0,4.56E0,5.1E0,5.64E0,6.23E0,6.87E0,7.46E0,8.11E0,8.71E0,9.69E0,-2.0366852E-1,-1.04856074E-1,-1.6182911E-1,-1.3323276E-1,-1.0327304E-1,-7.415337E-2,-4.4141322E-2,-1.5382817E-2,1.4555068E-2,4.2166214E-2,7.445681E-2,1.1067731E-1,1.3792339E-1,1.6896619E-1,1.976435E-1,2.2859265E-1,2.572291E-1,2.7907917E-1,3.0591914E-1,3.4240597E-1,3.7205967E-1,3.9876255E-1,4.3267724E-1,4.6521765E-1,4.9723923E-1,5.287713E-1,5.618043E-1,5.982562E-1,6.234758E-1,6.565368E-1,7.055986E-1,7.616194E-1],"split_indices":[2,2,2,2,2,2,4,2,2,2,2,2,4,4,4,1,4,2,2,4,4,4,4,2,2,2,2,2,2,4,4,0,0,0,0,0,0,0,0,0,0,0,0,0,0,0,0,0,0,0,0,0,0,0,0,0,0,0,0,0,0,0,0],"split_type":[0,0,0,0,0,0,0,0,0,0,0,0,0,0,0,0,0,0,0,0,0,0,0,0,0,0,0,0,0,0,0,0,0,0,0,0,0,0,0,0,0,0,0,0,0,0,0,0,0,0,0,0,0,0,0,0,0,0,0,0,0,0,0],"sum_hessian":[8.3412E4,4.3495E4,3.9917E4,2.0818E4,2.2677E4,2.0123E4,1.9794E4,9.814E3,1.1004E4,1.1895E4,1.0782E4,9.747E3,1.0376E4,1.0373E4,9.421E3,4.238E3,5.576E3,5.415E3,5.589E3,5.33E3,6.565E3,5.178E3,5.604E3,3.883E3,5.864E3,4.869E3,5.507E3,5.189E3,5.184E3,4.572E3,4.849E3,4.134E3,1.04E2,2.858E3,2.718E3,2.888E3,2.527E3,3.309E3,2.28E3,3.287E3,2.043E3,3.849E3,2.716E3,2.545E3,2.633E3,2.895E3,2.709E3,2.574E3,1.309E3,3.542E3,2.322E3,2.961E3,1.908E3,3.604E3,1.903E3,2.974E3,2.215E3,2.948E3,2.236E3,1.939E3,2.633E3,3.507E3,1.342E3],"tree_param":{"num_deleted":"0","num_feature":"6","num_nodes":"63","size_leaf_vector":"1"}},{"base_weights":[-9.5668876E-1,-1.0367978E0,-9.247633E-1,-1.1440095E0,-1.0198425E0,-9.51702E-1,-9.0956223E-1,-1.1773369E0,-3.255044E-1,-1.0501882E0,-1.0065199E0,-9.644336E-1,-2.8190714E-1,-2.753349E-1,-9.025215E-1,-1.2169327E0,-3.4084985E-1,-3.2012862E-1,-3.1134E-1,-3.058092E-1,-2.9767966E-1,-3.2012585E-1,-2.8873524E-1,-9.300101E-1,-2.6964676E-1,-3.95875E-1,-3.5598758E-1,-2.7785718E-1,-3.1872207E-1],"categories":[],"categories_nodes":[],"categories_segments":[],"categories_sizes":[],"default_left":[0,0,0,0,0,0,0,0,0,0,0,0,0,0,0,0,0,0,0,0,0,0,0,0,0,0,0,0,0],"id":23,"left_children":[1,3,5,7,9,11,13,15,-1,17,19,21,-1,-1,23,25,-1,-1,-1,-1,-1,-1,-1,27,-1,-1,-1,-1,-1],"loss_changes":[2.1253906E2,4.2060547E1,2.3578125E1,5.0908203E0,7.2460938E0,2.3847656E0,1.3828125E0,1.9724121E0,0E0,2.0019531E-1,1.6064453E0,1.0908203E0,0E0,0E0,1.2617188E0,1.6541748E0,0E0,0E0,0E0,0E0,0E0,0E0,0E0,2.3876953E-1,0E0,0E0,0E0,0E0,0E0],"parents":[2147483647,0,0,1,1,2,2,3,3,4,4,5,5,6,6,7,7,9,9,10,10,11,11,14,14,15,15,23,23],"right_children":[2,4,6,8,10,12,14,16,-1,18,20,22,-1,-1,24,26,-1,-1,-1,-1,-1,-1,-1,28,-1,-1,-1,-1,-1],"split_conditions":[-1.5044242E-1,-3.7165E-1,-8.8241756E-2,6.3877267E-1,-2.5471112E-1,-1.1276451E-1,-5.8988832E-2,-4.3770722E-1,-3.255044E-1,-3.0743527E-1,-1.8907678E-1,1.6684204E-1,-2.8190714E-1,-2.753349E-1,3.2558072E-1,2.6506394E-1,-3.4084985E-1,-3.2012862E-1,-3.1134E-1,-3.058092E-1,-2.9767966E-1,-3.2012585E-1,-2.8873524E-1,5.0086007E-2,-2.6964676E-1,-3.95875E-1,-3.5598758E-1,-2.7785718E-1,-3.1872207E-1],"split_indices":[5,5,5,3,5,5,5,5,0,5,5,3,0,0,3,3,0,0,0,0,0,0,0,5,0,0,0,0,0],"split_type":[0,0,0,0,0,0,0,0,0,0,0,0,0,0,0,0,0,0,0,0,0,0,0,0,0,0,0,0,0],"sum_hessian":[8.3478E4,2.3779E4,5.9699E4,3.238E3,2.0541E4,2.1513E4,3.8186E4,2.057E3,1.181E3,6.243E3,1.4298E4,1.0405E4,1.1108E4,1.7557E4,2.0629E4,1.034E3,1.023E3,2.604E3,3.639E3,7.484E3,6.814E3,1.87E2,1.0218E4,2.417E3,1.8212E4,2.26E2,8.08E2,2.357E3,6E1],"tree_param":{"num_deleted":"0","num_feature":"6","num_nodes":"29","size_leaf_vector":"1"}},{"base_weights":[5.342422E-1,-1.0604202E-2,1.1016539E0,-2.8881657E-1,2.4655725E-1,8.233837E-1,1.4205546E0,-4.183658E-1,-1.6821371E-1,1.08463645E-1,3.9313114E-1,6.7862517E-1,9.713593E-1,1.2780263E0,1.5942923E0,-4.855044E-1,-3.6080113E-1,-2.3701064E-1,-1.040945E-1,3.5262328E-2,1.7726664E-1,3.3539137E-1,4.7225985E-1,5.893592E-1,7.393217E-1,9.0336734E-1,1.0533763E0,1.2058214E0,1.3717943E0,1.530267E0,1.7130674E0,-1.6051362E-1,-1.3429765E-1,-1.1934025E-1,-9.94672E-2,-7.803711E-2,-5.531135E-2,-4.4095937E-2,-2.1802012E-2,-4.8276412E-4,1.8494109E-2,4.5607757E-2,6.887063E-2,8.440037E-2,1.1205389E-1,1.4032543E-1,3.2753542E-1,1.7625639E-1,3.2922566E-1,2.0781556E-1,2.3326562E-1,2.6129246E-1,2.8606877E-1,3.0538833E-1,3.2549798E-1,3.5063076E-1,3.7563026E-1,4.0005016E-1,4.2239466E-1,4.445096E-1,4.7176686E-1,1.4161137E-1,5.1524216E-1],"categories":[],"categories_nodes":[],"categories_segments":[],"categories_sizes":[],"default_left":[0,0,0,0,0,0,0,0,0,0,0,0,0,0,0,0,0,0,0,0,0,0,0,0,0,0,0,0,0,0,0,0,0,0,0,0,0,0,0,0,0,0,0,0,0,0,0,0,0,0,0,0,0,0,0,0,0,0,0,0,0,0,0],"id":24,"left_children":[1,3,5,7,9,11,13,15,17,19,21,23,25,27,29,31,33,35,37,39,41,43,45,47,49,51,53,55,57,59,61,-1,-1,-1,-1,-1,-1,-1,-1,-1,-1,-1,-1,-1,-1,-1,-1,-1,-1,-1,-1,-1,-1,-1,-1,-1,-1,-1,-1,-1,-1,-1,-1],"loss_changes":[2.584452E4,3.0513438E3,3.6328438E3,3.2000317E2,4.4855676E2,4.6783496E2,4.7045703E2,3.7993774E1,4.6782623E1,5.747499E1,4.8961426E1,5.9483887E1,5.9347656E1,6.934766E1,6.2740234E1,8.30249E0,5.6255493E0,6.1789246E0,7.3936462E0,5.380902E0,7.7315063E0,1.2710571E1,1.2150513E1,3.5395508E0,1.1182617E1,8.793945E0,4.376465E0,8.709961E0,4.4335938E0,9.15918E0,1.5605469E1,0E0,0E0,0E0,0E0,0E0,0E0,0E0,0E0,0E0,0E0,0E0,0E0,0E0,0E0,0E0,0E0,0E0,0E0,0E0,0E0,0E0,0E0,0E0,0E0,0E0,0E0,0E0,0E0,0E0,0E0,0E0,0E0],"parents":[2147483647,0,0,1,1,2,2,3,3,4,4,5,5,6,6,7,7,8,8,9,9,10,10,11,11,12,12,13,13,14,14,15,15,16,16,17,17,18,18,19,19,20,20,21,21,22,22,23,23,24,24,25,25,26,26,27,27,28,28,29,29,30,30],"right_children":[2,4,6,8,10,12,14,16,18,20,22,24,26,28,30,32,34,36,38,40,42,44,46,48,50,52,54,56,58,60,62,-1,-1,-1,-1,-1,-1,-1,-1,-1,-1,-1,-1,-1,-1,-1,-1,-1,-1,-1,-1,-1,-1,-1,-1,-1,-1,-1,-1,-1,-1,-1,-1],"split_conditions":[4.7E0,2.35E0,7.17E0,1.25E0,3.55E0,5.92E0,8.5E0,7.2E-1,1.78E0,2.93E0,4.21E0,5.19E0,6.6E0,7.9E0,9.33E0,4.6E-1,9.5E-1,1.62E0,2.02E0,2.59E0,3.34E0,3.82E0,4.8398256E-2,4.8398256E-2,5.52E0,6.33E0,6.86E0,7.57E0,8.19E0,8.86E0,6.923552E-2,-1.6051362E-1,-1.3429765E-1,-1.1934025E-1,-9.94672E-2,-7.803711E-2,-5.531135E-2,-4.4095937E-2,-2.1802012E-2,-4.8276412E-4,1.8494109E-2,4.5607757E-2,6.887063E-2,8.440037E-2,1.1205389E-1,1.4032543E-1,3.2753542E-1,1.7625639E-1,3.2922566E-1,2.0781556E-1,2.3326562E-1,2.6129246E-1,2.8606877E-1,3.0538833E-1,3.2549798E-1,3.5063076E-1,3.7563026E-1,4.0005016E-1,4.2239466E-1,4.445096E-1,4.7176686E-1,1.4161137E-1,5.1524216E-1],"split_indices":[0,0,0,0,0,0,0,0,0,0,0,0,0,0,0,0,0,0,0,0,0,0,1,1,0,0,0,0,0,0,3,0,0,0,0,0,0,0,0,0,0,0,0,0,0,0,0,0,0,0,0,0,0,0,0,0,0,0,0,0,0,0,0],"split_type":[0,0,0,0,0,0,0,0,0,0,0,0,0,0,0,0,0,0,0,0,0,0,0,0,0,0,0,0,0,0,0,0,0,0,0,0,0,0,0,0,0,0,0,0,0,0,0,0,0,0,0,0,0,0,0,0,0,0,0,0,0,0,0],"sum_hessian":[8.3597E4,4.2647E4,4.095E4,2.0485E4,2.2162E4,2.187E4,1.908E4,9.875E3,1.061E4,1.1412E4,1.075E4,1.1058E4,1.0812E4,1.0486E4,8.594E3,4.555E3,5.32E3,5.117E3,5.493E3,5.53E3,5.882E3,6.218E3,4.532E3,4.48E3,6.578E3,5.918E3,4.894E3,5.932E3,4.554E3,5.593E3,3.001E3,1.967E3,2.588E3,2.343E3,2.977E3,3.553E3,1.564E3,2.321E3,3.172E3,2.307E3,3.223E3,3.97E3,1.912E3,2.575E3,3.643E3,4.501E3,3.1E1,4.466E3,1.4E1,2.973E3,3.605E3,3.608E3,2.31E3,2.324E3,2.57E3,3.309E3,2.623E3,2.231E3,2.323E3,2.62E3,2.973E3,1.1E1,2.99E3],"tree_param":{"num_deleted":"0","num_feature":"6","num_nodes":"63","size_leaf_vector":"1"}},{"base_weights":[-6.217862E-1,-6.381559E-1,-6.116481E-1,-6.6408646E-1,-6.3342613E-1,-6.16372E-1,-5.9070504E-1,-7.2190344E-1,-6.597611E-1,-6.4064234E-1,-6.288819E-1,-6.18791E-1,-1.816563E-1,-1.7926982E-1,-1.7319778E-1,-1.8233243E-1,-7.377357E-1,-2.0300005E-1,-1.9502003E-1,-1.9322702E-1,-1.8822888E-1,-1.9030304E-1,-1.8704936E-1,-6.232039E-1,-1.8356189E-1,-2.2496684E-1,-1.7968974E-1,-1.8701294E-1,-1.4848085E-1],"categories":[],"categories_nodes":[],"categories_segments":[],"categories_sizes":[],"default_left":[0,0,0,0,0,0,0,0,0,0,0,0,0,0,0,0,0,0,0,0,0,0,0,0,0,0,0,0,0],"id":25,"left_children":[1,3,5,7,9,11,13,15,17,19,21,23,-1,-1,-1,-1,25,-1,-1,-1,-1,-1,-1,27,-1,-1,-1,-1,-1],"loss_changes":[1.3482422E1,3.4980469E0,4.7460938E0,7.512207E-1,4.8535156E-1,7.314453E-1,5.2978516E-1,1.4970398E-1,3.1018066E-1,6.933594E-2,9.375E-2,6.6796875E-1,0E0,0E0,0E0,0E0,3.3203125E-2,0E0,0E0,0E0,0E0,0E0,0E0,1.5527344E-1,0E0,0E0,0E0,0E0,0E0],"parents":[2147483647,0,0,1,1,2,2,3,3,4,4,5,5,6,6,7,7,8,8,9,9,10,10,11,11,16,16,23,23],"right_children":[2,4,6,8,10,12,14,16,18,20,22,24,-1,-1,-1,-1,26,-1,-1,-1,-1,-1,-1,28,-1,-1,-1,-1,-1],"split_conditions":[-8.235059E-2,-1.5670058E-1,-3.1010516E-2,-2.7094162E-1,-1.1128397E-1,7.943513E-1,-1.1942578E-2,2.1764866E-1,7.6818085E-1,9.879781E-1,7.009196E-1,-5.2275337E-2,-1.816563E-1,-1.7926982E-1,-1.7319778E-1,-1.8233243E-1,1.1827595E0,-2.0300005E-1,-1.9502003E-1,-1.9322702E-1,-1.8822888E-1,-1.9030304E-1,-1.8704936E-1,5.0086007E-2,-1.8356189E-1,-2.2496684E-1,-1.7968974E-1,-1.8701294E-1,-1.4848085E-1],"split_indices":[1,1,1,1,1,3,1,3,3,3,3,1,0,0,0,0,3,0,0,0,0,0,0,5,0,0,0,0,0],"split_type":[0,0,0,0,0,0,0,0,0,0,0,0,0,0,0,0,0,0,0,0,0,0,0,0,0,0,0,0,0],"sum_hessian":[8.3598E4,3.1949E4,5.1649E4,4.907E3,2.7042E4,4.212E4,9.529E3,3.3E2,4.577E3,1.0395E4,1.6647E4,3.4396E4,7.724E3,6.27E3,3.259E3,4.5E1,2.85E2,1.643E3,2.934E3,8.206E3,2.189E3,8.206E3,8.441E3,2.0946E4,1.345E4,2.58E2,2.7E1,2.0914E4,3.2E1],"tree_param":{"num_deleted":"0","num_feature":"6","num_nodes":"29","size_leaf_vector":"1"}},{"base_weights":[5.415923E-1,-7.862969E-3,1.102461E0,-2.8020397E-1,2.4580692E-1,8.078078E-1,1.4126738E0,-4.1397032E-1,-1.6467284E-1,1.05419286E-1,3.802857E-1,6.730078E-1,9.563343E-1,1.2359467E0,1.5670217E0,-4.8848793E-1,-3.685344E-1,-2.3718292E-1,-1.0561409E-1,4.1738287E-2,1.7433675E-1,2.9903758E-1,4.4427866E-1,6.0094476E-1,7.443037E-1,8.766827E-1,1.0212749E0,1.170483E0,1.3057792E0,1.49948E0,1.7195159E0,-1.4873627E-1,-6.506126E-2,-1.2021152E-1,-1.0058289E-1,-7.9594076E-2,-6.327686E-2,-3.761686E-2,-1.6374717E-2,3.6366445E-3,2.1888712E-2,3.6198765E-2,5.9463024E-2,7.748623E-2,9.7310126E-2,1.3241144E-1,3.3623713E-1,1.7418467E-1,1.9522384E-1,2.0989811E-1,2.3256642E-1,2.512827E-1,2.693554E-1,2.9964128E-1,3.230842E-1,3.3981064E-1,3.6107573E-1,3.827798E-1,4.003902E-1,4.31434E-1,4.6639916E-1,1.4105274E-1,5.17071E-1],"categories":[],"categories_nodes":[],"categories_segments":[],"categories_sizes":[],"default_left":[0,0,0,0,0,0,0,0,0,0,0,0,0,0,0,0,0,0,0,0,0,0,0,0,0,0,0,0,0,0,0,0,0,0,0,0,0,0,0,0,0,0,0,0,0,0,0,0,0,0,0,0,0,0,0,0,0,0,0,0,0,0,0],"id":26,"left_children":[1,3,5,7,9,11,13,15,17,19,21,23,25,27,29,31,33,35,37,39,41,43,45,47,49,51,53,55,57,59,61,-1,-1,-1,-1,-1,-1,-1,-1,-1,-1,-1,-1,-1,-1,-1,-1,-1,-1,-1,-1,-1,-1,-1,-1,-1,-1,-1,-1,-1,-1,-1,-1],"loss_changes":[2.5693254E4,2.9096406E3,3.7700547E3,3.1382178E2,4.116388E2,4.2304883E2,5.462578E2,3.1686768E1,4.665262E1,4.6820503E1,5.7771973E1,5.6566895E1,5.1171875E1,4.1323242E1,1.07875E2,6.954895E0,6.1258545E0,3.5578308E0,6.057289E0,5.1286306E0,6.5418854E0,4.984253E0,1.1754272E1,5.2148438E0,7.151123E0,2.9934082E0,5.854004E0,4.699707E0,2.196289E0,2.2958984E1,1.5827148E1,0E0,0E0,0E0,0E0,0E0,0E0,0E0,0E0,0E0,0E0,0E0,0E0,0E0,0E0,0E0,0E0,0E0,0E0,0E0,0E0,0E0,0E0,0E0,0E0,0E0,0E0,0E0,0E0,0E0,0E0,0E0,0E0],"parents":[2147483647,0,0,1,1,2,2,3,3,4,4,5,5,6,6,7,7,8,8,9,9,10,10,11,11,12,12,13,13,14,14,15,15,16,16,17,17,18,18,19,19,20,20,21,21,22,22,23,23,24,24,25,25,26,26,27,27,28,28,29,29,30,30],"right_children":[2,4,6,8,10,12,14,16,18,20,22,24,26,28,30,32,34,36,38,40,42,44,46,48,50,52,54,56,58,60,62,-1,-1,-1,-1,-1,-1,-1,-1,-1,-1,-1,-1,-1,-1,-1,-1,-1,-1,-1,-1,-1,-1,-1,-1,-1,-1,-1,-1,-1,-1,-1,-1],"split_conditions":[4.63E0,2.37E0,7.06E0,1.26E0,3.45E0,5.9E0,8.24E0,6.7E-1,1.76E0,2.95E0,3.97E0,5.27E0,6.37E0,7.65E0,9.31E0,2.2810075E-2,9.6E-1,1.5E0,2.2E0,2.67E0,3.11E0,3.65E0,4.8398256E-2,5.1E0,5.53E0,6.04E0,6.87E0,7.34E0,7.94E0,8.71E0,6.923552E-2,-1.4873627E-1,-6.506126E-2,-1.2021152E-1,-1.0058289E-1,-7.9594076E-2,-6.327686E-2,-3.761686E-2,-1.6374717E-2,3.6366445E-3,2.1888712E-2,3.6198765E-2,5.9463024E-2,7.748623E-2,9.7310126E-2,1.3241144E-1,3.3623713E-1,1.7418467E-1,1.9522384E-1,2.0989811E-1,2.3256642E-1,2.512827E-1,2.693554E-1,2.9964128E-1,3.230842E-1,3.3981064E-1,3.6107573E-1,3.827798E-1,4.003902E-1,4.31434E-1,4.6639916E-1,1.4105274E-1,5.17071E-1],"split_indices":[0,2,2,2,0,2,2,2,2,2,0,2,0,2,2,1,2,2,2,2,2,0,1,2,2,0,2,2,2,2,3,0,0,0,0,0,0,0,0,0,0,0,0,0,0,0,0,0,0,0,0,0,0,0,0,0,0,0,0,0,0,0,0],"split_type":[0,0,0,0,0,0,0,0,0,0,0,0,0,0,0,0,0,0,0,0,0,0,0,0,0,0,0,0,0,0,0,0,0,0,0,0,0,0,0,0,0,0,0,0,0,0,0,0,0,0,0,0,0,0,0,0,0,0,0,0,0,0,0],"sum_hessian":[8.3372E4,4.2115E4,4.1257E4,2.031E4,2.1805E4,2.1161E4,2.0096E4,9.411E3,1.0899E4,1.0669E4,1.1136E4,1.1096E4,1.0065E4,9.373E3,1.0723E4,3.561E3,5.85E3,4.891E3,6.008E3,5.546E3,5.123E3,4.909E3,6.227E3,5.523E3,5.573E3,4.527E3,5.538E3,4.847E3,4.526E3,7.439E3,3.284E3,3.467E3,9.4E1,2.968E3,2.882E3,2.357E3,2.534E3,4.329E3,1.679E3,2.847E3,2.699E3,1.579E3,3.544E3,1.886E3,3.023E3,6.202E3,2.5E1,3.931E3,1.592E3,2.29E3,3.283E3,1.605E3,2.922E3,3.959E3,1.579E3,2.28E3,2.567E3,2.247E3,2.279E3,3.535E3,3.904E3,1.1E1,3.273E3],"tree_param":{"num_deleted":"0","num_feature":"6","num_nodes":"63","size_leaf_vector":"1"}},{"base_weights":[-3.3550918E-1,-3.6645517E-1,-3.229798E-1,-4.9537864E-1,-3.634485E-1,-3.2217583E-1,-5.585689E-1,-3.5195833E-1,-5.779164E-1,-3.8935032E-1,-3.4942606E-1,-3.3253694E-1,-3.086674E-1,-5.768116E-1,1.3045426E-1,-3.8730103E-1,-2.528988E-1,-2.4836348E-1,-5.4242015E-1,-3.7773144E-1,-4.2765796E-1,-3.4342855E-1,-3.9304084E-1,-3.909828E-1,-3.274022E-1,-3.1805858E-1,-2.9640648E-1,-5.9802973E-1,-2.0163193E-1,2.683394E-1,-9.687734E-2,-1.00615725E-1,-1.4621674E-1,1.5197907E-2,-1.0375514E-1,-1.6431155E-2,-1.641249E-1,-1.2439981E-1,-1.09098144E-1,-1.3153511E-1,-6.0428165E-2,-1.1431768E-1,-1.01254895E-1,-1.2613533E-1,-1.09730385E-1,-1.5076254E-1,-1.143287E-1,-1.0115401E-1,-9.1155745E-2,-9.7407825E-2,-9.093645E-2,-8.823501E-2,-1.1265654E-1,-2.712265E-1,-1.7030556E-1,-3.0378534E-2,-1.1311705E-1,1.740262E-2,9.5734015E-2,6.0538605E-2,-1.04133405E-1],"categories":[],"categories_nodes":[],"categories_segments":[],"categories_sizes":[],"default_left":[0,0,0,0,0,0,0,0,0,0,0,0,0,0,0,0,0,0,0,0,0,0,0,0,0,0,0,0,0,0,0,0,0,0,0,0,0,0,0,0,0,0,0,0,0,0,0,0,0,0,0,0,0,0,0,0,0,0,0,0,0],"id":27,"left_children":[1,3,5,7,9,11,13,15,17,19,21,23,25,27,29,31,33,-1,35,37,39,41,43,45,47,49,51,53,55,57,59,-1,-1,-1,-1,-1,-1,-1,-1,-1,-1,-1,-1,-1,-1,-1,-1,-1,-1,-1,-1,-1,-1,-1,-1,-1,-1,-1,-1,-1,-1],"loss_changes":[3.228711E1,9.153564E0,1.1089844E1,6.2599335E0,8.411621E0,8.196777E0,2.6017532E0,6.0925865E-1,2.6120224E0,3.5136719E0,3.8615723E0,9.939209E0,2.8710938E0,1.4396896E0,2.140699E-1,6.003628E-1,1.5976317E0,0E0,6.6355896E-1,3.1462402E0,4.584839E0,2.861206E0,1.2217102E0,2.790985E0,6.999756E0,1.345459E0,1.9157715E0,1.204895E0,1.731076E-1,2.4205923E-2,2.9425964E-1,0E0,0E0,0E0,0E0,0E0,0E0,0E0,0E0,0E0,0E0,0E0,0E0,0E0,0E0,0E0,0E0,0E0,0E0,0E0,0E0,0E0,0E0,0E0,0E0,0E0,0E0,0E0,0E0,0E0,0E0],"parents":[2147483647,0,0,1,1,2,2,3,3,4,4,5,5,6,6,7,7,8,8,9,9,10,10,11,11,12,12,13,13,14,14,15,15,16,16,18,18,19,19,20,20,21,21,22,22,23,23,24,24,25,25,26,26,27,27,28,28,29,29,30,30],"right_children":[2,4,6,8,10,12,14,16,18,20,22,24,26,28,30,32,34,-1,36,38,40,42,44,46,48,50,52,54,56,58,60,-1,-1,-1,-1,-1,-1,-1,-1,-1,-1,-1,-1,-1,-1,-1,-1,-1,-1,-1,-1,-1,-1,-1,-1,-1,-1,-1,-1,-1,-1],"split_conditions":[4.7665828E-1,-1.4267695E-1,5.0086007E-2,-1.3753901E-1,3.111451E-1,-7.368227E-2,1.1827595E0,4.26965E-1,1.3278139E-1,-5.4447092E-2,-3.558288E-2,-2.7578387E-1,6.9815904E-1,9.84E0,9.71E0,3.6292976E-1,-1.8862343E-1,-2.4836348E-1,3.5E-1,-2.3731127E-1,4.8398256E-2,-2.7097505E-1,4.36E0,-5.1445764E-1,9.12963E-1,-6.005867E-2,5.397413E-3,-1.830461E-1,9.759448E-1,5.24E0,-2.598648E-2,-1.00615725E-1,-1.4621674E-1,1.5197907E-2,-1.0375514E-1,-1.6431155E-2,-1.641249E-1,-1.2439981E-1,-1.09098144E-1,-1.3153511E-1,-6.0428165E-2,-1.1431768E-1,-1.01254895E-1,-1.2613533E-1,-1.09730385E-1,-1.5076254E-1,-1.143287E-1,-1.0115401E-1,-9.1155745E-2,-9.7407825E-2,-9.093645E-2,-8.823501E-2,-1.1265654E-1,-2.712265E-1,-1.7030556E-1,-3.0378534E-2,-1.1311705E-1,1.740262E-2,9.5734015E-2,6.0538605E-2,-1.04133405E-1],"split_indices":[3,1,5,5,3,1,3,3,3,5,5,5,3,2,2,3,1,0,2,5,1,5,2,5,3,5,1,1,3,2,1,0,0,0,0,0,0,0,0,0,0,0,0,0,0,0,0,0,0,0,0,0,0,0,0,0,0,0,0,0,0],"split_type":[0,0,0,0,0,0,0,0,0,0,0,0,0,0,0,0,0,0,0,0,0,0,0,0,0,0,0,0,0,0,0,0,0,0,0,0,0,0,0,0,0,0,0,0,0,0,0,0,0,0,0,0,0,0,0,0,0,0,0,0,0],"sum_hessian":[8.3576E4,2.4078E4,5.9498E4,5.45E2,2.3533E4,5.9298E4,2E2,2.01E2,3.44E2,8.256E3,1.5277E4,3.3545E4,2.5753E4,1.95E2,5E0,1.46E2,5.5E1,4E1,3.04E2,6.343E3,1.913E3,1.3438E4,1.839E3,2.703E3,3.0842E4,1.4569E4,1.1184E4,1.84E2,1.1E1,3E0,2E0,9.9E1,4.7E1,1.3E1,4.2E1,3E0,3.01E2,1.742E3,4.601E3,1.825E3,8.8E1,1.816E3,1.1622E4,9.1E2,9.29E2,2.16E2,2.487E3,2.1784E4,9.058E3,1.0074E4,4.495E3,1.0874E4,3.1E2,1.4E1,1.7E2,8E0,3E0,1E0,2E0,1E0,1E0],"tree_param":{"num_deleted":"0","num_feature":"6","num_nodes":"61","size_leaf_vector":"1"}},{"base_weights":[5.529027E-1,3.4227327E-2,1.1474285E0,-2.4018897E-1,3.185802E-1,8.683152E-1,1.4412606E0,-3.693304E-1,-8.717062E-2,1.803693E-1,4.6196383E-1,7.25668E-1,9.963147E-1,1.3059978E0,1.6191661E0,-4.3596768E-1,-2.847977E-1,-1.5582703E-1,-2.6005872E-2,1.0558285E-1,2.546683E-1,3.911114E-1,5.284814E-1,6.491647E-1,7.802926E-1,9.1376907E-1,1.0671319E0,1.2144288E0,1.3806915E0,1.5486691E0,1.7221338E0,-1.5846369E-1,-1.224473E-1,-9.7394936E-2,-7.5147115E-2,-5.602346E-2,-3.8621366E-2,-1.9774582E-2,2.7227257E-3,1.8754572E-2,3.8434774E-2,6.788463E-2,8.82979E-2,1.1613604E-1,2.3836587E-1,1.5759689E-1,2.9885215E-1,1.8799092E-1,2.0374805E-1,2.2201273E-1,2.4503064E-1,2.6896796E-1,2.84456E-1,3.0845588E-1,3.3027244E-1,3.530437E-1,3.743496E-1,4.010804E-1,4.3028975E-1,4.515271E-1,4.759363E-1,1.615012E-1,5.17883E-1],"categories":[],"categories_nodes":[],"categories_segments":[],"categories_sizes":[],"default_left":[0,0,0,0,0,0,0,0,0,0,0,0,0,0,0,0,0,0,0,0,0,0,0,0,0,0,0,0,0,0,0,0,0,0,0,0,0,0,0,0,0,0,0,0,0,0,0,0,0,0,0,0,0,0,0,0,0,0,0,0,0,0,0],"id":28,"left_children":[1,3,5,7,9,11,13,15,17,19,21,23,25,27,29,31,33,35,37,39,41,43,45,47,49,51,53,55,57,59,61,-1,-1,-1,-1,-1,-1,-1,-1,-1,-1,-1,-1,-1,-1,-1,-1,-1,-1,-1,-1,-1,-1,-1,-1,-1,-1,-1,-1,-1,-1,-1,-1],"loss_changes":[2.5709969E4,3.474722E3,3.1846875E3,4.4777197E2,4.3329858E2,3.63083E2,4.532461E2,6.91001E1,4.3555817E1,6.1856476E1,5.0377197E1,3.8888184E1,6.0398438E1,7.188281E1,5.663086E1,1.7408325E1,7.32901E0,4.0690002E0,7.682872E0,5.379902E0,6.2218018E0,8.067383E0,7.6500244E0,2.2321777E0,7.463379E0,2.0256348E0,6.2939453E0,4.6132812E0,1.1959961E1,5.6132812E0,1.5308594E1,0E0,0E0,0E0,0E0,0E0,0E0,0E0,0E0,0E0,0E0,0E0,0E0,0E0,0E0,0E0,0E0,0E0,0E0,0E0,0E0,0E0,0E0,0E0,0E0,0E0,0E0,0E0,0E0,0E0,0E0,0E0,0E0],"parents":[2147483647,0,0,1,1,2,2,3,3,4,4,5,5,6,6,7,7,8,8,9,9,10,10,11,11,12,12,13,13,14,14,15,15,16,16,17,17,18,18,19,19,20,20,21,21,22,22,23,23,24,24,25,25,26,26,27,27,28,28,29,29,30,30],"right_children":[2,4,6,8,10,12,14,16,18,20,22,24,26,28,30,32,34,36,38,40,42,44,46,48,50,52,54,56,58,60,62,-1,-1,-1,-1,-1,-1,-1,-1,-1,-1,-1,-1,-1,-1,-1,-1,-1,-1,-1,-1,-1,-1,-1,-1,-1,-1,-1,-1,-1,-1,-1,-1],"split_conditions":[5E0,2.59E0,7.26E0,1.6E0,3.76E0,6.04E0,8.54E0,9.5E-1,2.02E0,3.25E0,4.39E0,5.34E0,6.6E0,7.85E0,9.27E0,5.1E-1,1.21E0,1.75E0,2.37E0,2.79E0,3.6E0,1.0307372E-2,2.2319753E-2,5.24E0,5.72E0,6.41E0,6.9E0,7.54E0,8.19E0,8.94E0,6.923552E-2,-1.5846369E-1,-1.224473E-1,-9.7394936E-2,-7.5147115E-2,-5.602346E-2,-3.8621366E-2,-1.9774582E-2,2.7227257E-3,1.8754572E-2,3.8434774E-2,6.788463E-2,8.82979E-2,1.1613604E-1,2.3836587E-1,1.5759689E-1,2.9885215E-1,1.8799092E-1,2.0374805E-1,2.2201273E-1,2.4503064E-1,2.6896796E-1,2.84456E-1,3.0845588E-1,3.3027244E-1,3.530437E-1,3.743496E-1,4.010804E-1,4.3028975E-1,4.515271E-1,4.759363E-1,1.615012E-1,5.17883E-1],"split_indices":[4,0,4,4,0,4,0,0,0,4,4,0,4,4,0,4,0,0,4,0,4,5,5,4,4,4,4,4,0,4,3,0,0,0,0,0,0,0,0,0,0,0,0,0,0,0,0,0,0,0,0,0,0,0,0,0,0,0,0,0,0,0,0],"split_type":[0,0,0,0,0,0,0,0,0,0,0,0,0,0,0,0,0,0,0,0,0,0,0,0,0,0,0,0,0,0,0,0,0,0,0,0,0,0,0,0,0,0,0,0,0,0,0,0,0,0,0,0,0,0,0,0,0,0,0,0,0,0,0],"sum_hessian":[8.3374E4,4.4528E4,3.8846E4,2.266E4,2.1868E4,1.9924E4,1.8922E4,1.2288E4,1.0372E4,1.1136E4,1.0732E4,9.426E3,1.0498E4,1.0754E4,8.168E3,6.869E3,5.419E3,4.886E3,5.486E3,5.551E3,5.585E3,5.2E3,5.532E3,3.932E3,5.494E3,4.854E3,5.644E3,4.839E3,5.915E3,4.858E3,3.31E3,1.587E3,5.282E3,2.503E3,2.916E3,2.279E3,2.607E3,2.566E3,2.92E3,1.908E3,3.643E3,3.259E3,2.326E3,5.151E3,4.9E1,5.497E3,3.5E1,2.258E3,1.674E3,2.622E3,2.872E3,3.254E3,1.6E3,2.636E3,3.008E3,2.293E3,2.546E3,3.271E3,2.644E3,2.275E3,2.583E3,1.2E1,3.298E3],"tree_param":{"num_deleted":"0","num_feature":"6","num_nodes":"63","size_leaf_vector":"1"}},{"base_weights":[-6.702709E-1,-7.2536737E-1,-6.4821017E-1,-7.976111E-1,-7.1381325E-1,-6.683776E-1,-6.3833165E-1,-8.768144E-1,-7.8435713E-1,-7.2477555E-1,-2.0872714E-1,-6.7794E-1,-6.609931E-1,-6.9163346E-1,-6.376048E-1,-2.6545304E-1,-1.79311E-1,-8.743788E-1,-7.740933E-1,-2.2156544E-1,-7.177579E-1,-7.431865E-1,-2.0299149E-1,-2.0002551E-1,-1.9500725E-1,-6.71488E-1,-8.372412E-1,-6.482608E-1,-6.3380647E-1,-3.1309754E-1,-2.4996607E-1,-2.3747674E-1,-2.1458545E-1,-2.1806948E-1,-2.1331592E-1,-2.294766E-1,-1.5155812E-1,-1.9034222E-1,-2.1831101E-1,-2.6829368E-1,-1.8192223E-1,-1.966484E-1,-1.9191092E-1,-1.9450507E-1,-1.8964218E-1],"categories":[],"categories_nodes":[],"categories_segments":[],"categories_sizes":[],"default_left":[0,0,0,0,0,0,0,0,0,0,0,0,0,0,0,0,0,0,0,0,0,0,0,0,0,0,0,0,0,0,0,0,0,0,0,0,0,0,0,0,0,0,0,0,0],"id":29,"left_children":[1,3,5,7,9,11,13,15,17,19,-1,21,23,25,27,-1,-1,29,31,-1,33,35,-1,-1,-1,37,39,41,43,-1,-1,-1,-1,-1,-1,-1,-1,-1,-1,-1,-1,-1,-1,-1,-1],"loss_changes":[1.0101953E2,1.9350586E1,1.1453125E1,2.7575684E0,3.5703125E0,9.355469E-1,1.1103516E0,5.064697E-1,1.9295654E0,7.060547E-1,0E0,2.1875E-1,2.6708984E-1,9.836731E-1,1.1884766E0,0E0,0E0,1.088211E0,2.0483398E0,0E0,4.3945312E-3,4.2053986E-1,0E0,0E0,0E0,5.1208496E-1,2.4811935E-1,2.2070312E-1,2.9785156E-1,0E0,0E0,0E0,0E0,0E0,0E0,0E0,0E0,0E0,0E0,0E0,0E0,0E0,0E0,0E0,0E0],"parents":[2147483647,0,0,1,1,2,2,3,3,4,4,5,5,6,6,7,7,8,8,9,9,11,11,12,12,13,13,14,14,17,17,18,18,20,20,21,21,25,25,26,26,27,27,28,28],"right_children":[2,4,6,8,10,12,14,16,18,20,-1,22,24,26,28,-1,-1,30,32,-1,34,36,-1,-1,-1,38,40,42,44,-1,-1,-1,-1,-1,-1,-1,-1,-1,-1,-1,-1,-1,-1,-1,-1],"split_conditions":[-1.5044242E-1,-3.7165E-1,-9.195231E-2,2.763727E-1,-1.9577576E-1,-1.182368E-1,1.5174569E-1,9.39E0,-5.795199E-1,-2.8026322E-1,-2.0872714E-1,1.6684204E-1,8.188838E-1,1.0307372E-2,-7.359359E-2,-2.6545304E-1,-1.79311E-1,4.4803756E-1,7.7778774E-1,-2.2156544E-1,5.043329E-1,8.24E0,-2.0299149E-1,-2.0002551E-1,-1.9500725E-1,1.0622298E-1,1.3278139E-1,7.216658E-1,3.3863497E-1,-3.1309754E-1,-2.4996607E-1,-2.3747674E-1,-2.1458545E-1,-2.1806948E-1,-2.1331592E-1,-2.294766E-1,-1.5155812E-1,-1.9034222E-1,-2.1831101E-1,-2.6829368E-1,-1.8192223E-1,-1.966484E-1,-1.9191092E-1,-1.9450507E-1,-1.8964218E-1],"split_indices":[5,5,5,3,5,5,3,0,5,5,0,3,3,5,5,0,0,3,3,0,3,0,0,0,0,3,3,3,3,0,0,0,0,0,0,0,0,0,0,0,0,0,0,0,0],"split_type":[0,0,0,0,0,0,0,0,0,0,0,0,0,0,0,0,0,0,0,0,0,0,0,0,0,0,0,0,0,0,0,0,0,0,0,0,0,0,0,0,0,0,0,0,0],"sum_hessian":[8.3496E4,2.3864E4,5.9632E4,3.281E3,2.0583E4,1.9584E4,4.0048E4,4.61E2,2.82E3,1.2783E4,7.8E3,8.494E3,1.109E4,5.26E2,3.9522E4,4.46E2,1.5E1,2.8E2,2.54E3,4.279E3,8.504E3,1.55E2,8.339E3,7.233E3,3.857E3,4.67E2,5.9E1,1.0341E4,2.9181E4,5E1,2.3E2,1.948E3,5.92E2,3.553E3,4.951E3,1.4E2,1.5E1,2.89E2,1.78E2,4.5E1,1.4E1,5.563E3,4.778E3,2.959E3,2.6222E4],"tree_param":{"num_deleted":"0","num_feature":"6","num_nodes":"45","size_leaf_vector":"1"}},{"base_weights":[3.7277353E-1,1.1798326E-2,7.935515E-1,-1.802899E-1,2.1181943E-1,6.130772E-1,1.013728E0,-2.7754042E-1,-7.697894E-2,1.1642964E-1,3.14468E-1,5.088917E-1,7.092875E-1,9.261384E-1,1.1357032E0,-3.3429796E-1,-2.3157987E-1,-1.2485679E-1,-3.067347E-2,6.4315245E-2,1.6633955E-1,2.6998955E-1,3.690243E-1,4.6950492E-1,5.6313E-1,6.5277404E-1,7.594182E-1,8.650694E-1,9.7062474E-1,1.0990548E0,1.2125566E0,-1.1863449E-1,-9.42461E-2,-7.8322105E-2,-6.2115774E-2,-3.8080674E-2,2.565756E-2,-1.9847808E-2,-4.5279306E-3,8.417089E-3,2.4687294E-2,3.9551508E-2,5.483708E-2,8.029035E-2,1.6281363E-1,1.0965788E-1,2.6210174E-1,2.3951922E-1,1.3989797E-1,1.6834211E-1,2.9362813E-1,1.952336E-1,2.92029E-1,2.1847402E-1,2.3719834E-1,2.525771E-1,2.6734692E-1,2.8125164E-1,2.9924983E-1,3.2312992E-1,3.3987474E-1,3.537842E-1,3.8706347E-1],"categories":[],"categories_nodes":[],"categories_segments":[],"categories_sizes":[],"default_left":[0,0,0,0,0,0,0,0,0,0,0,0,0,0,0,0,0,0,0,0,0,0,0,0,0,0,0,0,0,0,0,0,0,0,0,0,0,0,0,0,0,0,0,0,0,0,0,0,0,0,0,0,0,0,0,0,0,0,0,0,0,0,0],"id":30,"left_children":[1,3,5,7,9,11,13,15,17,19,21,23,25,27,29,31,33,35,37,39,41,43,45,47,49,51,53,55,57,59,61,-1,-1,-1,-1,-1,-1,-1,-1,-1,-1,-1,-1,-1,-1,-1,-1,-1,-1,-1,-1,-1,-1,-1,-1,-1,-1,-1,-1,-1,-1,-1,-1],"loss_changes":[1.2663702E4,1.7242887E3,1.5291426E3,2.2998553E2,2.1523218E2,2.1173096E2,1.8420508E2,3.068335E1,2.4609375E1,2.9633179E1,2.5595459E1,2.1444336E1,3.0662598E1,2.6592773E1,1.9067383E1,6.3724365E0,4.6618347E0,2.3978424E0,3.120027E0,3.6326065E0,3.2797089E0,3.6036682E0,8.071045E0,5.787842E0,2.9819336E0,2.678955E0,5.0942383E0,1.8249512E0,4.2578125E0,2.4335938E0,4.496826E0,0E0,0E0,0E0,0E0,0E0,0E0,0E0,0E0,0E0,0E0,0E0,0E0,0E0,0E0,0E0,0E0,0E0,0E0,0E0,0E0,0E0,0E0,0E0,0E0,0E0,0E0,0E0,0E0,0E0,0E0,0E0,0E0],"parents":[2147483647,0,0,1,1,2,2,3,3,4,4,5,5,6,6,7,7,8,8,9,9,10,10,11,11,12,12,13,13,14,14,15,15,16,16,17,17,18,18,19,19,20,20,21,21,22,22,23,23,24,24,25,25,26,26,27,27,28,28,29,29,30,30],"right_children":[2,4,6,8,10,12,14,16,18,20,22,24,26,28,30,32,34,36,38,40,42,44,46,48,50,52,54,56,58,60,62,-1,-1,-1,-1,-1,-1,-1,-1,-1,-1,-1,-1,-1,-1,-1,-1,-1,-1,-1,-1,-1,-1,-1,-1,-1,-1,-1,-1,-1,-1,-1,-1],"split_conditions":[4.99E0,2.64E0,7.37E0,1.5E0,3.84E0,6.07E0,8.71E0,8.4E-1,2.06E0,3.22E0,4.46E0,5.64E0,6.71E0,7.94E0,9.48E0,4.4E-1,1.13E0,2.2319753E-2,2.24E0,2.79E0,3.38E0,1.0307372E-2,2.2319753E-2,1.3278139E-1,2.2319753E-2,2.2319753E-2,7.06E0,7.69E0,8.24E0,9.11E0,9.77E0,-1.1863449E-1,-9.42461E-2,-7.8322105E-2,-6.2115774E-2,-3.8080674E-2,2.565756E-2,-1.9847808E-2,-4.5279306E-3,8.417089E-3,2.4687294E-2,3.9551508E-2,5.483708E-2,8.029035E-2,1.6281363E-1,1.0965788E-1,2.6210174E-1,2.3951922E-1,1.3989797E-1,1.6834211E-1,2.9362813E-1,1.952336E-1,2.92029E-1,2.1847402E-1,2.3719834E-1,2.525771E-1,2.6734692E-1,2.8125164E-1,2.9924983E-1,3.2312992E-1,3.3987474E-1,3.537842E-1,3.8706347E-1],"split_indices":[2,2,0,2,2,0,2,2,2,2,2,2,2,2,2,2,2,5,2,0,0,5,5,3,5,5,2,2,0,0,2,0,0,0,0,0,0,0,0,0,0,0,0,0,0,0,0,0,0,0,0,0,0,0,0,0,0,0,0,0,0,0,0],"split_type":[0,0,0,0,0,0,0,0,0,0,0,0,0,0,0,0,0,0,0,0,0,0,0,0,0,0,0,0,0,0,0,0,0,0,0,0,0,0,0,0,0,0,0,0,0,0,0,0,0,0,0,0,0,0,0,0,0,0,0,0,0,0,0],"sum_hessian":[8.3373E4,4.4876E4,3.8497E4,2.2892E4,2.1984E4,2.1158E4,1.7339E4,1.1791E4,1.1101E4,1.1396E4,1.0588E4,1.0161E4,1.0997E4,1.0097E4,7.242E3,5.273E3,6.518E3,5.457E3,5.644E3,5.576E3,5.82E3,5.836E3,4.752E3,5.892E3,4.269E3,5.176E3,5.821E3,4.264E3,5.833E3,4.914E3,2.328E3,1.302E3,3.971E3,2.955E3,3.563E3,5.404E3,5.3E1,1.721E3,3.923E3,1.849E3,3.727E3,1.882E3,3.938E3,5.788E3,4.8E1,4.721E3,3.1E1,5.4E1,5.838E3,4.251E3,1.8E1,5.147E3,2.9E1,2.926E3,2.895E3,2.277E3,1.987E3,2.629E3,3.204E3,3.001E3,1.913E3,1.641E3,6.87E2],"tree_param":{"num_deleted":"0","num_feature":"6","num_nodes":"63","size_leaf_vector":"1"}},{"base_weights":[-4.3512937E-1,-4.356979E-1,-4.2115432E-1,-4.352435E-1,-4.4976905E-1,-4.2431596E-1,-1.1746836E-1,-1.38888E-1,-4.3508947E-1,-1.3861652E-1,-4.355954E-1,-1.2783286E-1,-3.890516E-1,-1.24523446E-1,-4.3524763E-1,-4.0779245E-1,-4.4233912E-1,-1.0305335E-1,-1.2319912E-1,-1.3066547E-1,-1.2808496E-1,-1.270696E-1,-9.2814215E-2,-1.3600102E-1,-1.24012135E-1],"categories":[],"categories_nodes":[],"categories_segments":[],"categories_sizes":[],"default_left":[0,0,0,0,0,0,0,0,0,0,0,0,0,0,0,0,0,0,0,0,0,0,0,0,0],"id":31,"left_children":[1,3,5,7,9,11,-1,-1,13,-1,15,-1,17,-1,19,21,23,-1,-1,-1,-1,-1,-1,-1,-1],"loss_changes":[4.794922E-1,3.173828E-1,1.4208984E-1,1.3085938E-1,2.3059082E-1,2.178955E-2,0E0,0E0,6.542969E-2,0E0,3.881836E-2,0E0,1.14860535E-2,0E0,6.8359375E-3,2.430458E-1,1.0853577E-1,0E0,0E0,0E0,0E0,0E0,0E0,0E0,0E0],"parents":[2147483647,0,0,1,1,2,2,3,3,4,4,5,5,8,8,10,10,12,12,14,14,15,15,16,16],"right_children":[2,4,6,8,10,12,-1,-1,14,-1,16,-1,18,-1,20,22,24,-1,-1,-1,-1,-1,-1,-1,-1],"split_conditions":[-1.6776865E-2,9.43E0,5.0086007E-2,3.5E-1,9.66E0,9.5E0,-1.1746836E-1,-1.38888E-1,-5.1445764E-1,-1.3861652E-1,9.67E0,-1.2783286E-1,9.67E0,-1.24523446E-1,1.1279325E0,-6.058861E-2,9.84E0,-1.0305335E-1,-1.2319912E-1,-1.3066547E-1,-1.2808496E-1,-1.270696E-1,-9.2814215E-2,-1.3600102E-1,-1.24012135E-1],"split_indices":[5,2,5,2,2,0,0,0,5,0,0,0,0,0,3,5,2,0,0,0,0,0,0,0,0],"split_type":[0,0,0,0,0,0,0,0,0,0,0,0,0,0,0,0,0,0,0,0,0,0,0,0,0],"sum_hessian":[8.3523E4,8.0229E4,3.294E3,7.775E4,2.479E3,2.964E3,3.3E2,4.13E2,7.7337E4,1.311E3,1.168E3,2.81E3,1.54E2,6.27E2,7.671E4,2.4E2,9.28E2,5.5E1,9.9E1,7.395E4,2.76E3,2.04E2,3.6E1,6.62E2,2.66E2],"tree_param":{"num_deleted":"0","num_feature":"6","num_nodes":"25","size_leaf_vector":"1"}},{"base_weights":[3.8146088E-1,-5.0696437E-3,7.7375674E-1,-1.938886E-1,1.7395467E-1,5.768126E-1,1.000928E0,-2.9264808E-1,-1.1513324E-1,6.982753E-2,2.6194105E-1,4.643121E-1,6.70854E-1,8.999269E-1,1.1285441E0,-3.6261815E-1,-2.6917863E-1,-1.5927316E-1,-6.1772656E-2,4.226192E-2,1.3387316E-1,2.2465575E-1,3.365306E-1,4.1581073E-1,5.090098E-1,6.1995155E-1,7.3619896E-1,8.401309E-1,9.5484996E-1,1.078986E0,1.2191173E0,-8.1425674E-2,-1.12680554E-1,-8.732152E-2,-7.180722E-2,-5.3483307E-2,-3.7839387E-2,-2.3038227E-2,-1.0774951E-2,4.5399247E-3,2.007978E-2,1.3662998E-1,3.9329678E-2,5.7660267E-2,7.6767676E-2,1.1698322E-1,9.815667E-2,1.8433718E-1,1.23869166E-1,1.415622E-1,1.5783592E-1,1.7743742E-1,1.9770496E-1,2.1590264E-1,2.31471E-1,2.4474928E-1,2.5925106E-1,2.7743295E-1,2.9641083E-1,3.149406E-1,3.3380312E-1,3.5750663E-1,3.918725E-1],"categories":[],"categories_nodes":[],"categories_segments":[],"categories_sizes":[],"default_left":[0,0,0,0,0,0,0,0,0,0,0,0,0,0,0,0,0,0,0,0,0,0,0,0,0,0,0,0,0,0,0,0,0,0,0,0,0,0,0,0,0,0,0,0,0,0,0,0,0,0,0,0,0,0,0,0,0,0,0,0,0,0,0],"id":32,"left_children":[1,3,5,7,9,11,13,15,17,19,21,23,25,27,29,31,33,35,37,39,41,43,45,47,49,51,53,55,57,59,61,-1,-1,-1,-1,-1,-1,-1,-1,-1,-1,-1,-1,-1,-1,-1,-1,-1,-1,-1,-1,-1,-1,-1,-1,-1,-1,-1,-1,-1,-1,-1,-1],"loss_changes":[1.2638875E4,1.4192603E3,1.8501855E3,1.5889868E2,1.9743622E2,2.3413428E2,2.465625E2,1.4788513E1,2.6770279E1,1.7422928E1,3.241034E1,2.1668945E1,3.968457E1,3.4426758E1,3.6756836E1,2.5907288E0,4.364746E0,3.896408E0,1.9970951E0,4.619072E0,2.5897713E0,7.8491516E0,1.8138733E0,2.5510254E0,3.0861816E0,7.168457E0,2.5300293E0,2.2998047E0,4.659668E0,4.230957E0,5.5932617E0,0E0,0E0,0E0,0E0,0E0,0E0,0E0,0E0,0E0,0E0,0E0,0E0,0E0,0E0,0E0,0E0,0E0,0E0,0E0,0E0,0E0,0E0,0E0,0E0,0E0,0E0,0E0,0E0,0E0,0E0,0E0,0E0],"parents":[2147483647,0,0,1,1,2,2,3,3,4,4,5,5,6,6,7,7,8,8,9,9,10,10,11,11,12,12,13,13,14,14,15,15,16,16,17,17,18,18,19,19,20,20,21,21,22,22,23,23,24,24,25,25,26,26,27,27,28,28,29,29,30,30],"right_children":[2,4,6,8,10,12,14,16,18,20,22,24,26,28,30,32,34,36,38,40,42,44,46,48,50,52,54,56,58,60,62,-1,-1,-1,-1,-1,-1,-1,-1,-1,-1,-1,-1,-1,-1,-1,-1,-1,-1,-1,-1,-1,-1,-1,-1,-1,-1,-1,-1,-1,-1,-1,-1],"split_conditions":[4.71E0,2.35E0,7.18E0,1.26E0,3.38E0,5.83E0,8.54E0,5.8E-1,1.86E0,3.15E0,4.25E0,5.2E0,6.6E0,7.85E0,9.41E0,3.0189317E-1,8.8E-1,1.67E0,2.2E0,2.77E0,1.0622298E-1,3.87E0,3.5886145E-1,1.3278139E-1,5.34E0,6.23E0,6.98E0,7.54E0,8.15E0,8.99E0,9.77E0,-8.1425674E-2,-1.12680554E-1,-8.732152E-2,-7.180722E-2,-5.3483307E-2,-3.7839387E-2,-2.3038227E-2,-1.0774951E-2,4.5399247E-3,2.007978E-2,1.3662998E-1,3.9329678E-2,5.7660267E-2,7.6767676E-2,1.1698322E-1,9.815667E-2,1.8433718E-1,1.23869166E-1,1.415622E-1,1.5783592E-1,1.7743742E-1,1.9770496E-1,2.1590264E-1,2.31471E-1,2.4474928E-1,2.5925106E-1,2.7743295E-1,2.9641083E-1,3.149406E-1,3.3380312E-1,3.5750663E-1,3.918725E-1],"split_indices":[4,0,2,4,0,4,2,4,2,4,2,2,4,4,4,3,0,4,2,4,3,4,3,3,0,2,2,4,0,4,2,0,0,0,0,0,0,0,0,0,0,0,0,0,0,0,0,0,0,0,0,0,0,0,0,0,0,0,0,0,0,0,0],"split_type":[0,0,0,0,0,0,0,0,0,0,0,0,0,0,0,0,0,0,0,0,0,0,0,0,0,0,0,0,0,0,0,0,0,0,0,0,0,0,0,0,0,0,0,0,0,0,0,0,0,0,0,0,0,0,0,0,0,0,0,0,0,0,0],"sum_hessian":[8.335E4,4.1984E4,4.1366E4,2.0433E4,2.1551E4,2.2159E4,1.9207E4,9.064E3,1.1369E4,9.871E3,1.168E4,1.0092E4,1.2067E4,1.0726E4,8.481E3,2.273E3,6.791E3,6.221E3,5.148E3,6.902E3,2.969E3,7.79E3,3.89E3,4.845E3,5.247E3,6.789E3,5.278E3,5.143E3,5.583E3,5.49E3,2.991E3,2.86E2,1.987E3,3.911E3,2.88E3,3.951E3,2.27E3,3.255E3,1.893E3,3.288E3,3.614E3,2.4E1,2.945E3,3.824E3,3.966E3,5.73E2,3.317E3,6.7E1,4.778E3,1.664E3,3.583E3,3.935E3,2.854E3,3.612E3,1.666E3,2.575E3,2.568E3,2.944E3,2.639E3,2.959E3,2.531E3,2.286E3,7.05E2],"tree_param":{"num_deleted":"0","num_feature":"6","num_nodes":"63","size_leaf_vector":"1"}},{"base_weights":[-2.3597945E-1,-2.6954135E-1,-2.2939657E-1,-2.6380455E-1,-3.152849E-1,-2.2882941E-1,-3.9423367E-1,-4.1262993E-1,-2.6200026E-1,-2.073787E-1,-3.2193118E-1,-2.4210522E-1,-2.2327535E-1,-4.7538164E-1,-2.8137577E-1,-3.8059452E-1,-5.17127E-1,-2.9328677E-1,-2.5611436E-1,-3.778546E-1,1.3476351E-1,-1.9855754E-1,-3.2997122E-1,-2.8910264E-1,-2.3977001E-1,-2.2792076E-1,-2.051866E-1,-3.9305076E-1,-5.34431E-1,-6.0714867E-2,-3.1579098E-1,-1.22655794E-1,-7.530434E-2,-2.0780024E-1,-1.2778603E-1,-3.9285075E-2,-9.131123E-2,-8.529576E-2,-7.49878E-2,3.145271E-2,-1.2407022E-1,-9.467099E-2,5.8285166E-2,-1.17570266E-1,-4.1315403E-2,-1.0955324E-1,-9.397134E-2,-1.0226283E-1,-8.101641E-2,-6.745178E-2,-7.4704826E-2,-8.374925E-2,-6.7986384E-2,-6.2470425E-2,-3.5133846E-2,-1.0645123E-1,-2.0526004E-1,-1.480328E-1,-2.01286E-1,6.0419243E-2,-6.357324E-2,-1.1563624E-1,-7.21975E-2],"categories":[],"categories_nodes":[],"categories_segments":[],"categories_sizes":[],"default_left":[0,0,0,0,0,0,0,0,0,0,0,0,0,0,0,0,0,0,0,0,0,0,0,0,0,0,0,0,0,0,0,0,0,0,0,0,0,0,0,0,0,0,0,0,0,0,0,0,0,0,0,0,0,0,0,0,0,0,0,0,0,0,0],"id":33,"left_children":[1,3,5,7,9,11,13,15,17,19,21,23,25,27,29,31,33,35,37,39,41,43,45,47,49,51,53,55,57,59,61,-1,-1,-1,-1,-1,-1,-1,-1,-1,-1,-1,-1,-1,-1,-1,-1,-1,-1,-1,-1,-1,-1,-1,-1,-1,-1,-1,-1,-1,-1,-1,-1],"loss_changes":[1.8385254E1,3.5083618E0,6.4367676E0,3.1589355E0,1.023346E0,5.0759277E0,2.045887E0,2.8524017E-1,2.1391602E0,5.358678E0,1.352951E0,2.1817627E0,4.076416E0,4.559803E-1,7.5542355E-1,3.1480408E-1,2.010994E-1,3.3734894E0,1.6871948E0,1.0949049E0,8.9223456E-1,1.0046911E0,6.756134E-1,8.605957E-1,2.642212E0,2.5355225E0,2.6698914E0,4.3589306E-1,9.980011E-2,6.3713294E-1,3.6782742E-1,0E0,0E0,0E0,0E0,0E0,0E0,0E0,0E0,0E0,0E0,0E0,0E0,0E0,0E0,0E0,0E0,0E0,0E0,0E0,0E0,0E0,0E0,0E0,0E0,0E0,0E0,0E0,0E0,0E0,0E0,0E0,0E0],"parents":[2147483647,0,0,1,1,2,2,3,3,4,4,5,5,6,6,7,7,8,8,9,9,10,10,11,11,12,12,13,13,14,14,15,15,16,16,17,17,18,18,19,19,20,20,21,21,22,22,23,23,24,24,25,25,26,26,27,27,28,28,29,29,30,30],"right_children":[2,4,6,8,10,12,14,16,18,20,22,24,26,28,30,32,34,36,38,40,42,44,46,48,50,52,54,56,58,60,62,-1,-1,-1,-1,-1,-1,-1,-1,-1,-1,-1,-1,-1,-1,-1,-1,-1,-1,-1,-1,-1,-1,-1,-1,-1,-1,-1,-1,-1,-1,-1,-1],"split_conditions":[3.7768316E-1,-2.9206822E-2,5.0086007E-2,-5.1445764E-1,6.923552E-2,5.6075776E-1,4.05E0,3.2975334E-1,1.902642E-1,4.82E0,6.1E-1,-3.60791E-1,-5.6762043E-2,1.4E0,4.6817157E-1,7.58E0,3.427074E-1,-4.0626588E-1,-2.5106135E-1,-2.7030768E-2,-2.583677E-2,-1.6776865E-2,2.81E0,2.88E0,-1.156075E-1,-4.209216E-1,1.1398802E0,9.759448E-1,3.32E0,4.67E0,7.7443486E-1,-1.22655794E-1,-7.530434E-2,-2.0780024E-1,-1.2778603E-1,-3.9285075E-2,-9.131123E-2,-8.529576E-2,-7.49878E-2,3.145271E-2,-1.2407022E-1,-9.467099E-2,5.8285166E-2,-1.17570266E-1,-4.1315403E-2,-1.0955324E-1,-9.397134E-2,-1.0226283E-1,-8.101641E-2,-6.745178E-2,-7.4704826E-2,-8.374925E-2,-6.7986384E-2,-6.2470425E-2,-3.5133846E-2,-1.0645123E-1,-2.0526004E-1,-1.480328E-1,-2.01286E-1,6.0419243E-2,-6.357324E-2,-1.1563624E-1,-7.21975E-2],"split_indices":[3,5,5,5,3,3,2,3,3,2,4,5,5,4,3,4,3,5,5,5,5,5,4,2,5,5,3,3,2,2,3,0,0,0,0,0,0,0,0,0,0,0,0,0,0,0,0,0,0,0,0,0,0,0,0,0,0,0,0,0,0,0,0],"split_type":[0,0,0,0,0,0,0,0,0,0,0,0,0,0,0,0,0,0,0,0,0,0,0,0,0,0,0,0,0,0,0,0,0,0,0,0,0,0,0,0,0,0,0,0,0,0,0,0,0,0,0,0,0,0,0,0,0,0,0,0,0,0,0],"sum_hessian":[8.3496E4,1.3685E4,6.9811E4,1.2166E4,1.519E3,6.9574E4,2.37E2,1.43E2,1.2023E4,9E1,1.429E3,2.0509E4,4.9065E4,1.36E2,1.01E2,1.13E2,3E1,1.896E3,1.0127E4,6E1,3E1,8.9E1,1.34E3,9.65E2,1.9544E4,3.903E4,1.0035E4,6E1,7.6E1,1.4E1,8.7E1,9.1E1,2.2E1,8E0,2.2E1,1.22E2,1.774E3,1.806E3,8.321E3,4E0,5.6E1,3E0,2.7E1,2E1,6.9E1,4.25E2,9.15E2,2.55E2,7.1E2,7.484E3,1.206E4,9.6E2,3.807E4,9.698E3,3.37E2,5.5E1,5E0,6.2E1,1.4E1,5E0,9E0,4.3E1,4.4E1],"tree_param":{"num_deleted":"0","num_feature":"6","num_nodes":"63","size_leaf_vector":"1"}},{"base_weights":[3.8624895E-1,